5221 32
0 0.28321582 -0.05894796 0.22336753 -0.13694158 0.36951816 0.55716431 -0.05212078 0.14496958 -0.40238461 0.03385236 0.64799380 -0.38747883 0.31915739 0.09812067 -0.37262478 0.16669504 -0.01477570 0.07521540 0.17434849 -0.04344521 0.07590728 -0.12907231 -0.19329868 0.09985981 0.30575782 -0.12562263 -0.32896066 0.42445752 0.06019627 -0.35207045 -0.04681773 0.12404909
00 1.89915884 1.88857436 0.45111352 -1.39897633 0.68470114 -1.53727245 -1.05702865 -0.86933196 -1.00335419 -0.86629200 1.14364028 -1.68436694 -2.43251610 0.64905411 0.23129156 -0.40108317 -2.07926202 -1.85023856 2.44391203 -0.93780017 1.29522622 -1.68759143 0.82687634 -2.44975948 0.01384359 1.31883657 0.25867432 1.14511383 2.11064458 -2.25324416 -0.53777868 0.15446419
1 0.11168421 0.26463756 -0.01630697 -0.34151170 0.03903399 -0.35580400 -0.02087902 -0.16811852 0.25549009 0.05896894 -0.48282370 -0.00449656 0.13635994 -0.07502401 -0.33672866 0.02878075 0.20508014 -0.45780358 -0.07737981 -0.17814606 0.12442508 -0.05800983 0.47109470 0.13964230 -0.48624048 0.55743736 0.16847612 -0.03278098 -0.12349371 0.12951228 -0.18531390 -0.13816956
10 -0.74151546 0.54570073 -0.13528273 1.86214662 1.43137157 -1.19748008 -1.21294951 0.45280093 0.25520790 -2.06195498 0.21641602 -0.73396701 2.76206994 -0.68759620 -1.60413456 1.77197480 0.78245914 -0.57117951 1.52073920 -0.83116776 1.60389769 -1.39639628 0.55427909 0.08275983 -1.34891355 -0.14173207 -0.98730856 0.44453248 -0.17480701 -1.30962527 1.37545645 1.20153487
100 0.14677943 3.91619253 -0.25004444 -2.06212234 0.33194539 -0.94617790 1.10482228 1.03160810 -0.00426249 -0.71867973 -1.50773013 -1.47172785 0.79090714 0.94500756 -1.21826470 0.86213595 0.63154870 1.06583297 0.06973498 -0.30237535 1.38344109 -1.43931758 1.26069224 -0.54694366 -0.63028121 2.37980771 0.98232222 0.21791252 3.42015386 -1.92690873 0.36397037 -2.44947696
11 2.69486237 -0.38684168 1.20239520 -0.03179434 0.62878823 -1.20757353 -0.02943403 1.14342272 -0.66342270 -1.33857214 1.22733510 -0.56882095 -1.92219102 -0.75638521 -2.25149727 2.57189250 -0.02666748 -2.14756227 0.33014494 -2.49130797 2.59127307 0.86211962 -0.43482298 -0.12630041 -1.12423587 0.04100318 0.85883665 1.49792302 0.21806221 -2.04247618 0.76441395 0.88875699
12 0.35642332 -0.14436236 0.23015548 1.09691072 0.22272718 -0.07470814 1.28683782 -0.56864011 -0.77652502 -0.90089446 2.71492386 -1.43247879 1.32950222 -0.57456619 -0.49666306 -0.20442718 0.46918583 -0.60428101 -0.31058684 0.40847456 1.08695495 -0.55382043 -0.45100588 -2.73812437 -0.53113341 -0.67635268 2.04802561 2.06122208 2.30170798 -3.17385912 -0.68710470 -2.60152054
13 0.88379914 -0.58188164 0.72618556 -0.21370578 -0.78784412 2.70655799 -3.63856626 -2.65614748 -0.93788683 0.28615665 0.60931617 0.25179416 1.17682374 0.63452792 0.13661259 1.52995276 0.26266369 -1.19878209 0.99079251 0.30755252 0.95737845 0.60060441 0.30394852 -2.32074571 -2.01118684 -0.27864030 -0.63778675 1.54967451 -0.53775299 0.27272713 1.55790555 0.40715301
15 -0.03215820 0.15825552 1.30537891 0.26814610 0.99767774 0.83309555 3.29938364 0.48690808 -0.87760454 -2.99444604 -0.02494170 -0.78176939 0.62005734 -0.53931487 -2.71208453 -0.40684393 0.31595707 -1.93482411 1.80016923 -2.46894693 1.99881625 0.23274361 0.01477854 0.33191070 0.10414385 2.91784501 0.28847697 1.30383587 1.65101480 -0.83740205 1.27403474 0.14958613
15g 1.80162728 1.67397690 0.40691254 -0.75512463 -0.88635498 0.03592033 0.54004353 -1.78433907 -0.94046229 -0.06912262 0.80400282 -1.22619379 1.15031922 0.32229137 -0.76709270 1.45943522 -0.18450595 -0.39079490 1.87581670 -2.54876351 0.59325844 2.53378892 1.58703923 -0.45382899 -0.18757951 2.28247547 0.95444900 1.79995763 1.34159040 -0.96470845 1.55655801 -0.11241084
15pm -1.51196527 -0.49721679 1.49309790 0.20547958 0.29989481 1.06835902 1.26726282 -1.19941378 -0.99175268 -2.23651028 1.68009484 -1.25167048 0.71210057 -0.55415982 -0.84992260 0.84400499 -0.95350724 -0.69878805 1.76118183 0.05631438 0.51265812 0.65227431 1.25863159 -1.52627230 -2.95674586 1.31664586 0.40827194 2.17504740 -0.44346377 -0.77290010 1.32384849 0.06452834
17 -0.53094494 -1.45879555 3.08576608 -1.19672370 0.72477067 0.68110007 -2.66830564 0.14408395 -2.47647500 -0.59544361 -2.32421875 -1.11935043 1.49869812 1.29101384 0.71486938 0.32014748 -0.25465092 -0.22523186 1.91952825 -0.01726112 3.50130200 -1.27065253 -1.04479921 -2.99425840 -2.56566286 1.26813579 -0.18234245 -1.18104506 2.71880674 -0.30226400 -0.90651935 -0.43701372
18 1.22861183 1.96693659 -0.82768476 -0.16099900 -0.19471954 -0.19870633 1.45377493 -0.18190771 -1.02550697 -1.10907984 2.43021441 0.05735656 0.74920940 -0.82552749 -0.92079651 0.85888714 -0.23238251 -2.06613159 1.21734750 0.47943428 0.30617774 0.15765238 1.45043468 -0.51495123 -1.72757030 0.27742833 2.09560347 0.41961104 0.08660988 -0.63918304 2.94678402 -1.75033939
18th 1.79044044 1.95066500 0.78350753 -0.55110162 1.41575241 -0.72597748 -0.55222905 -1.28964365 1.15871656 -1.81208575 -2.18930030 0.67109513 0.91808784 -0.97147632 -1.27478004 -0.09812074 -0.49671122 0.25460771 1.16711211 0.52626812 1.60042632 0.27819720 1.96142066 -2.13301682 -0.05734831 0.92938292 -0.47482952 2.00983977 0.48381427 -0.01000585 2.31720424 -1.30717063
1928 1.29540813 0.39520049 1.87287235 -0.72886026 -0.25993106 -0.64013499 0.40143734 -2.10122800 -1.64318812 -0.54442722 -0.65472800 -2.04038453 1.84785020 -0.71844196 -0.80713594 -0.16254155 -0.48693737 -0.51584709 -1.14693773 -2.47043943 0.56412995 -0.35937479 -0.44447798 -0.53038603 0.33060378 1.48316801 1.73336887 -0.61393005 -0.24912223 -1.52784014 2.65348840 -0.33313492
1947 0.95509851 0.79013312 1.97217906 0.08153719 0.80824530 -0.08112144 -1.23843753 0.71427554 0.08108264 -0.42438373 -2.91562676 -0.64812899 1.29506433 -2.02549314 0.73157680 1.52696717 0.45822418 -1.16867316 -0.77608800 -1.72602546 -0.42214006 -0.29112765 0.76258910 -0.59679806 -0.93489671 0.54611808 0.32735249 -0.78821903 0.28581166 -0.36911315 1.68199039 -0.97079176
1948 1.48160791 -0.30943134 0.45939985 -0.47384825 1.19289505 1.67460430 -0.41712779 -0.21269146 -0.84947652 -1.27972198 -1.35365939 -0.74196690 0.03255873 0.05174917 -3.01252961 -0.00339407 -0.70818222 0.52791494 1.08479536 1.58900154 2.33072090 -0.38511902 0.89260006 -1.78269494 -0.45840433 0.70472223 -1.00080884 -0.63075775 0.30474949 -0.12450538 1.43818998 -0.77849877
1949 -0.03210533 1.12172115 -0.83199644 -2.48896432 -0.75915706 0.54337037 -0.12986991 -2.37387395 -1.88575041 -1.19158232 -0.80590308 -2.04377532 -0.64297283 0.45270768 -0.49554703 -0.07609680 -0.92776817 0.04896541 2.39480209 0.78124607 0.81332928 -0.19544351 2.04699254 -2.61574221 -1.32438505 1.38536012 1.16637027 1.51892364 0.96041769 -0.24409299 0.01479653 1.87234056
1971 0.00157005 1.17668140 0.84294856 -0.28269112 0.79718643 1.92187500 0.16401184 -1.24794650 -0.40508595 -2.48231173 -0.84154558 -0.86473441 2.14698505 -1.62435317 -0.72549415 1.03828430 -0.71914536 -1.73613250 -0.85850096 -2.16628170 0.23572509 0.30770344 -1.90285647 -1.22546685 -1.94943070 1.19474518 -0.79072797 0.70155293 -1.87522292 -1.93207538 0.13240521 -0.74038476
1973 0.36589465 0.87402141 -0.64995033 -0.49632663 -1.06680214 -0.08826911 -0.03539101 -2.02331090 -1.61963189 -0.71192414 0.68558645 1.10828292 -0.06885510 -0.34736076 -0.81511933 0.10967342 0.54594040 -0.14348118 2.88471699 -1.98107266 2.40260601 -0.32083085 1.80565655 0.19086698 -0.29110867 1.05790389 0.24718656 0.89928609 0.60714012 -0.71931571 0.57667112 0.49886033
1979 0.21072471 1.28446221 -0.56219882 -1.58254087 1.16207254 -0.25263456 -0.64350969 -1.23200786 -1.12836802 -1.35071146 0.70245457 0.12639508 0.29941031 -0.11875017 -0.63047862 2.00748324 -1.71585953 -1.28472841 1.00748265 0.36358994 1.66386509 0.70761079 1.20974743 -1.99165440 -1.18462515 -0.39051443 0.79686898 1.01036239 -0.68799442 -2.58582497 -1.05610085 -1.15250623
1980 1.69672596 1.27707863 -0.41185322 -1.37840116 1.39462781 1.51624870 0.57408369 0.02565534 -1.84106445 -0.70526809 -1.64073145 -0.29445422 -0.10817719 -2.02665639 1.08130109 1.98628283 -0.88899428 -1.22455478 2.47126174 -2.16537023 1.05290329 -1.43200374 1.13658643 -0.11797757 -0.93939102 -0.69615734 -0.58488911 0.68861777 0.39233756 -2.08513069 0.29701605 0.38585225
1986 0.06998970 0.13321579 2.93128777 -0.22624242 1.79882514 -1.21648812 -1.02803993 -1.50777984 -0.77705997 -0.64746153 -0.30231041 -0.64818168 2.34985304 -1.86423802 0.21186864 -0.03689740 -0.96963394 1.15772128 1.29361439 0.65071231 -0.57993591 -1.02027702 -0.76290709 -1.19599557 -1.69148481 -0.45450509 0.91760743 1.44438422 0.72325593 -0.27844346 0.31216499 0.29199439
1995 0.71756333 0.01669094 1.05766594 -0.39208356 -1.32686615 1.86031985 -0.09941842 -1.70605838 0.19769537 -1.08388031 -0.35506371 -0.44340715 1.33280456 0.47209132 -0.06765200 0.09560901 -0.87512594 1.56022894 0.24503042 -1.20090461 1.55369759 -0.70953470 0.98097682 -1.57418633 0.35080120 1.00842643 -0.90340853 -0.37735638 1.34331751 1.05246973 1.04691327 -2.43208838
1998 3.20617414 2.03671765 0.09498719 -1.13144410 1.16598105 0.59732097 0.33431339 -0.70342702 -1.85735834 1.10861111 -0.87340409 -0.72108203 1.86116004 -0.68114287 1.17940426 1.36041319 -0.49968797 -1.20667338 1.80304265 -0.09912536 -0.75351745 -0.64497936 0.78918117 -0.79602879 -0.69526738 0.86022574 -0.05005915 0.13634689 1.79925096 -0.31074157 0.75443232 -2.41923809
2 0.00035282 0.84634680 0.25533861 0.67348516 1.64530802 -0.22207469 0.24620754 1.10477209 -0.55691904 -0.51022297 1.13540995 -0.54834497 1.49348903 -0.14303365 -1.47591627 -0.12205305 0.81146514 -1.01003659 1.58992004 1.25376952 1.37158763 0.01198686 1.93547690 -0.08024041 -1.05795503 -0.74730194 -0.57981932 0.68563652 0.37524825 -1.83961868 1.52410626 -0.35240209
20 1.29872119 1.36388862 0.57096678 0.35513505 0.79322183 0.95304555 1.14887798 0.01091916 -2.14405441 -2.08231306 -0.92986459 0.88477850 0.67990106 -1.16944003 0.80682498 0.55262280 -0.79664761 -0.99841183 0.55843085 -0.11087199 1.57478392 -0.54695821 1.22042489 0.00407440 -3.14562988 1.20465684 -1.47740960 2.50740767 1.84910214 1.55472720 -0.57278776 0.67750323
2000 -1.21693921 0.91299891 1.56308305 0.39387870 -0.04233759 -0.58394933 0.58593059 0.69101816 -0.05827404 -0.59796488 -1.74669397 -0.13302328 -0.71965301 -1.23634994 -2.21426630 1.33959711 -0.99757659 -1.49165225 -0.65966749 -0.96324217 0.24863520 -0.21173412 1.86839294 -0.39006272 0.67412519 -0.74100125 0.62907022 -0.59950846 0.51702732 -1.52493453 1.29237640 -1.70632052
2005 1.53932381 1.17604983 0.26197141 -0.87814248 0.31229419 1.37327945 0.49001372 -0.19372137 -0.97459030 -2.19485307 2.18283582 1.09219301 1.57712018 0.11664191 -2.14378142 0.97738153 -1.73686707 -2.27898812 3.00754786 -0.66530412 0.33863503 0.11230300 1.22408259 -0.11213933 -0.95652801 1.32387006 -1.28432024 1.32567072 -0.45061189 0.64883089 0.66961682 -1.47094929
2006 1.62498176 1.99223852 -0.81460428 -0.34962881 0.43488333 1.22393847 0.70951450 -0.89650941 -0.59889823 -0.36265287 -2.52413511 0.07841086 -1.40694439 0.21253742 -2.01008749 0.44559762 -0.52137160 -1.30765104 1.46124399 -1.62172687 -0.22940655 0.10402238 0.96801031 -1.28464663 -0.26468197 1.36896491 1.12484372 0.86426944 -0.39103144 -3.21956277 1.56870461 0.45519575
2007 1.18431687 0.55889219 -0.31372154 -0.04456008 -0.24403891 0.13566338 -0.26557380 -1.40786541 0.11996491 -2.20642924 0.08630601 -0.73051763 -0.19479619 0.63379520 0.59065294 0.75557274 -0.35610852 -0.36222818 1.77699065 -2.79663992 0.02892549 0.64678216 1.94773984 -1.07677567 -2.04839015 0.92171717 0.69838625 0.26926574 -0.52180773 -1.52344787 -0.63954020 -0.30471021
2011 -0.38847318 0.88891703 -0.09712008 -0.43619666 -0.38895577 0.55377799 -0.62322271 0.34324393 0.07931613 -1.33924425 -1.43479848 -1.21862352 0.75119543 -0.91960090 -0.10707019 0.97670287 -1.37001014 -0.29436687 0.45615497 -0.92188615 0.65327710 0.63541651 0.21737994 -0.81766158 -0.88288391 0.17452423 0.38707179 0.58850986 0.27261019 -0.67094815 0.56072223 -0.87053829
2013 0.84463906 0.96332109 0.78896219 -0.19093551 0.41625962 0.23404680 -0.69567227 -1.25925970 -0.52837616 -0.92040467 -2.42530918 -0.71597254 0.55253798 -0.21287674 -0.22877364 0.53364229 -0.90369755 -0.89088029 0.49839923 -0.55433011 0.72355735 0.62281215 0.45669204 -1.10245264 -0.47187665 0.59755570 0.18568179 0.91676354 0.48302037 -0.67081040 -0.06418683 -0.86884809
2015 0.52671987 0.73940456 0.53574485 -1.39317358 0.77325642 1.05773854 -0.71774185 -1.46916497 -0.54040259 -0.59557915 -0.02899213 -1.16410446 0.63996154 -1.15753043 -0.69573653 0.86535573 -1.24308503 -0.70477492 1.13475657 -0.39575639 0.18476489 0.77489471 0.63792557 -0.96046913 -0.94195229 0.45472762 0.99499977 0.96563220 1.04683673 -0.76621616 -0.24331084 -1.00519753
20th 0.37240076 1.31989658 0.05158215 -0.73275596 -0.39511350 0.36861512 -1.05164301 0.87855881 0.26792321 -3.03712058 1.05880022 1.15160978 0.99978721 -0.40053281 -2.81862307 -0.92221648 -1.57411218 -0.57116455 2.95566201 1.74716234 1.87733328 -1.15767384 1.57841694 -1.82284069 -0.06709594 0.89171785 -0.79577255 0.04415764 -0.37764287 1.28204679 1.74753428 -1.64276099
2160 1.59476173 -1.69670057 1.82438898 -1.54752970 -0.56867301 -0.15983583 0.75619930 1.33035707 -0.97155637 0.28910583 0.17321579 -0.69851673 1.70785391 0.09893659 -2.13112998 1.20956767 -1.31200230 -1.60207057 0.36244100 0.33484137 1.97878635 1.31932402 0.14299536 0.12154932 0.22563364 0.54614264 1.78157711 1.55958295 2.65113258 -2.84221578 1.19651747 -1.43245697
23 0.35417065 1.33297825 2.34693813 0.51738632 -0.73493350 1.07688463 -1.46014524 0.06026893 -0.67154896 -0.28550413 -2.14553666 -1.41364753 2.98645973 0.74030477 -1.17924774 1.72467756 -1.22653484 -0.13011262 1.84431720 -0.07817581 2.51855707 -1.57951391 -1.22325230 0.55687785 0.12546137 1.27030957 1.11163902 -1.01214516 1.77206266 -1.07971787 0.18556598 -1.03043389
24 0.53535992 0.17643252 1.58570874 0.29875344 1.58673644 -0.58116364 -1.26524615 -1.20126331 -2.82961512 -0.63072443 -1.31439531 0.37103653 1.90269649 -0.69968933 -2.96216369 1.23361254 -0.92168784 -0.02508530 0.51032597 0.64566135 1.86091197 0.14685072 0.81166607 -0.62399900 0.67393494 1.09150493 -0.24556558 1.52028000 1.16251040 -0.57133132 1.59083068 -1.03028250
25 -0.75554562 0.07761305 1.41118336 -1.04710579 1.74765158 0.31898108 1.52186227 -1.50039482 -0.16270150 -2.79400110 1.43848145 1.41231012 1.94774699 1.32225370 0.59841150 1.90676224 -0.64835787 -0.84923428 0.89089477 0.64790624 1.30699384 -0.68798900 0.81952488 -2.30164838 -1.33233488 1.34695363 -0.79651731 -0.03400388 -0.82820773 -1.13894272 -0.52462798 -1.91017628
2mp 0.80478275 -0.35445228 0.44508693 -1.02437699 -0.30198309 0.94895953 -0.27837485 -0.71985459 0.71938741 0.06490938 -2.65143561 -1.84945881 1.73034167 -0.92509502 -1.38284540 -0.12391102 -0.08507399 -0.89059603 1.64004707 -1.31249988 -0.16890500 1.12204409 2.75297713 -1.11910641 -0.27319068 2.33900857 0.49051520 -0.84120935 -0.60213017 -2.37589288 -0.09456290 -0.35627854
3 1.00763905 0.65021193 0.26524863 0.80149972 -0.07980025 1.82899034 -0.62918848 1.18190157 -0.59237349 -2.01016879 0.48506096 0.14698760 2.21571970 -0.17590161 -2.18462420 2.83252478 2.05918765 -1.18720412 -1.19214284 0.29425085 1.33506668 -0.40564850 2.09731984 0.11010062 0.57488954 0.09936527 -0.49400735 0.11813547 -0.09934429 -0.99446911 -0.22518776 -1.54094303
30 1.57741618 1.25458992 0.81644827 0.83719438 2.03458214 -0.07361522 -0.81295949 0.07898916 1.13019156 -2.14612961 1.67511451 -0.81492615 1.51413989 -0.31791401 0.43376249 2.16440988 -1.42810535 0.13022840 1.90969121 0.08738816 0.80891335 -0.36567304 0.52270764 -0.89179444 -3.74012661 1.24331760 -3.04185367 2.11199307 2.31102943 1.45103490 0.72402018 -0.12270152
30s 3.24531841 -0.19808899 -0.77221924 -0.46409851 -0.93176812 2.65757370 -1.19378519 -2.15912461 0.30488509 -0.53044814 0.76197755 -3.69488168 1.07819641 -0.73628485 -1.70282519 -0.81682712 0.50910807 -0.91065866 0.73433429 -0.46051502 0.05416273 -1.19171047 -0.92871499 -2.40099454 -0.52148652 1.92236173 1.25745153 0.91043979 -0.96993524 0.34046686 0.46219638 -1.47507262
325 0.52836138 2.15424776 1.09833312 0.92315644 -1.52798522 0.40646935 1.52428007 0.48663917 -1.29978740 0.97482634 -2.33063054 -0.53503913 0.97930968 0.08361170 -1.13803935 0.37198687 0.42365196 -0.98189276 0.95628172 -1.24426055 0.36784393 1.68907511 0.27970910 0.25624889 -1.26823056 2.42472267 2.03394151 0.51338369 1.82232523 -1.58773386 0.30645406 -0.00460602
35 -0.30244982 2.23215699 1.21409869 -0.47458303 0.44295040 2.12404299 0.09475449 -1.73448253 -1.95070350 -2.14124107 0.77610743 0.17897266 0.94925451 -0.24276386 -3.33844733 2.26167846 0.59433264 -0.73614115 -0.82009166 -0.65852851 0.62002307 1.44858062 -0.60122353 -0.76981586 -1.68279397 0.94004261 1.42288315 -0.38194367 -0.43119600 -2.29801011 -0.12523940 -0.57739097
350 0.18686593 0.24310194 1.03326178 0.57056874 1.91537642 -0.16269946 -1.22097993 0.42857540 0.89546102 -0.99426889 -1.26205420 0.49609056 0.04452678 0.12489089 -2.01108313 1.62067151 -1.29636085 -2.45037866 0.59029448 1.70780575 1.14665580 1.37338388 0.60370183 -1.42383730 0.02706319 0.26548183 1.55175149 0.94546241 1.38380384 -0.56610173 0.43217376 0.51322562
375 -0.73861969 1.59931719 0.46389672 0.35199121 0.66465157 1.24814260 0.11125205 1.52873552 -1.74813187 -1.46151996 -0.80669349 -0.12146723 0.18751007 -0.54969376 -2.34956264 0.37148181 -0.90915018 -0.89019936 0.86207724 0.65302312 2.15788531 1.59566939 0.89039069 -0.72738302 0.21619456 1.48937511 1.75010002 1.79180431 1.65918684 -0.14533730 -0.56491190 -0.76247323
3o -2.67367864 0.21826549 1.08996797 0.22099404 0.18927722 0.74794495 -0.20558439 -0.45967644 -0.41323733 -1.62573338 0.04909328 -1.01332331 1.55179572 -1.34393811 -0.85785931 1.15356314 -0.76671201 -0.25292951 1.64271927 -0.37379915 1.59719396 -0.46818379 2.72741580 1.14143360 -1.11867094 1.66534710 2.54828763 0.50726497 0.51728535 -0.32232454 0.15319872 -0.08401814
4 -1.49495435 0.05543613 0.95973909 2.49110579 0.46453696 -0.46777290 -0.30362117 -0.04814634 -1.12605357 -2.12335634 0.83127880 -2.08598495 -1.09735382 -1.27199030 -4.32903290 -0.07371805 0.22954515 -0.68868870 2.19097567 -0.15967833 0.06014078 -0.78304756 1.70650911 -0.09955443 -2.29553342 1.09558809 0.53131551 0.56786931 1.84814000 -2.50748086 -0.09144940 0.67633873
40 1.79121780 1.36435759 0.60824013 0.86202317 0.53811634 -0.27217844 0.95631009 0.35482964 2.02493262 -1.68715620 1.20582342 -2.19420648 2.01472306 -1.35135734 0.19412488 2.83563232 0.50590479 -1.58476734 1.35780811 0.15072095 1.02961814 -0.24592261 0.35314780 -1.81336582 -2.91167545 -0.06450222 -1.76043940 1.03689742 1.96403587 0.88875115 1.06548154 0.54820859
40min -0.92731529 1.39194477 -0.39862981 -0.60279882 -0.50803965 0.15423115 0.46713054 -1.36040306 -0.73819429 -2.24515295 -0.81368017 -0.70738816 1.15163660 -0.40118766 1.01109648 0.35489812 -0.49494359 0.62149900 0.21259171 0.88910872 1.55653000 -0.44865146 0.60550433 0.46327704 0.39060289 1.65765643 -0.64050347 0.92396325 0.62373221 -0.86101311 0.25615013 0.10385559
42 1.92139757 1.41146398 0.63532245 0.98449177 1.06933761 1.04550457 0.96897119 1.14777911 -0.78301579 -1.15154624 0.01861216 -0.23246476 1.53290987 -1.85090137 -1.89798701 0.13581645 -0.72609931 -2.39198399 -0.21694884 1.37142563 0.95864737 -0.24152112 -0.57298928 0.92081481 1.32423544 0.32300803 0.13929994 0.14137957 1.25185752 0.00551647 1.74081242 -0.63812780
44 -0.07566329 0.63240081 1.15824831 0.49524146 1.20065331 2.28538394 -0.03878203 0.33453175 0.01992204 -1.17229271 0.17194149 -0.73538977 1.40972197 0.24763972 -1.47014678 0.68041593 -0.83312482 -1.75571501 2.05406451 1.20937991 1.79252076 -0.99246693 0.66420943 -0.58830404 -1.97246635 2.67193103 0.33672023 0.81720626 0.57326019 -1.16702414 -0.83628440 -0.42823097
45 2.35209513 -0.07264793 2.80882406 -0.07408602 1.89443660 0.88017452 0.70291132 0.10341271 -0.27739584 1.30603826 1.34687376 -0.20058432 -1.34844470 -2.98062491 0.49835545 1.37713957 -0.63050425 -0.07365485 1.07037103 1.35098720 2.02785897 -0.57728797 -0.05900746 0.15737058 -1.34137857 -0.93542325 0.31265423 2.39943433 1.29923880 -0.22366729 0.29563847 -1.47809386
4s 0.33545619 -0.18526895 0.54900837 -1.01808357 0.64962405 -0.02776580 -0.49573034 0.93989336 -1.37066078 -1.04973364 1.18312144 -0.43587619 0.91246796 -0.78302330 -2.43896222 0.16483957 -0.75197685 -1.55280030 0.51705146 0.09755643 2.09572887 0.80329335 0.49089545 0.06022108 -0.10916567 2.03953552 -0.81198823 2.85675645 1.57425845 -2.39190173 2.25527096 0.00459040
4ths 1.38069570 -0.40497351 -0.14845347 -0.51057148 -2.34674621 0.70560938 -1.42728853 0.28844091 0.26818955 -0.36909959 -1.66821003 -1.41322184 1.33988309 -0.33462644 -2.41182137 1.72855616 -0.45807460 -1.29145157 1.76387691 -0.65106505 0.09841143 -0.47425121 -0.11038122 -0.87495059 -0.65699631 1.00527358 1.64541602 0.40094027 2.42178178 -1.28756082 0.29019150 -0.87693417
5 -0.51652551 -2.90759921 1.36485708 1.39049137 -0.24836098 -1.94634056 0.08668356 1.72907853 -1.26533699 -0.39435586 0.60055876 -1.59578180 2.31337452 -1.66446459 -2.01250982 1.92530894 -0.98258775 -2.28648615 0.56952375 -1.47185946 1.47684765 -0.97256035 -0.35716328 -1.35219872 -0.70601881 0.20759827 0.01635459 1.79197872 1.25623488 -1.69391859 -0.05847189 -0.29906222
50 1.33543622 -1.93502235 0.08606020 0.96490598 -1.69249141 -0.15139276 -0.62142265 -2.35653567 -3.06520081 0.18616797 2.22407651 -0.73007655 0.73664320 -1.83425248 0.15944344 0.14445968 -0.63813907 -0.36727840 0.87303138 0.88476163 -0.30974123 0.80525380 1.86825335 -0.69767427 -2.75805473 1.58497453 0.77685678 0.30755246 0.12975308 -2.07273674 2.08864260 -0.08457080
500 0.18359600 1.31346667 1.05468333 -0.10623933 0.26618478 0.49695274 -0.79601854 0.85753262 -0.34432298 -0.93628621 -0.75831217 -0.81927836 1.02585101 -0.79765522 -0.56201607 0.65212250 -0.85488653 -0.35754940 0.39715263 -0.82234633 1.04549456 0.85217953 0.23793285 -0.81653303 -0.80368870 0.50940996 0.69048393 0.87785977 0.22027604 -0.81964117 0.49894014 -0.84167212
5020 0.35807046 0.03340580 1.89214814 0.45112884 0.93948191 -0.01518475 -0.71245354 -0.83081865 -1.75404406 -0.51455212 -1.34809554 0.50339079 2.23423290 -0.56879950 -3.13129377 1.05590641 -0.25573221 0.21488014 -0.44560960 0.17318904 1.92554820 -0.13632855 0.62012613 -0.51973152 0.13515741 0.10116193 -0.12893514 1.63349223 1.13044190 -0.26677266 1.46762455 -1.53168273
510 1.40091693 2.50515008 1.14855683 -1.70157218 1.60979521 1.52187765 -0.01150850 -2.38796115 0.34924731 0.49829996 1.54462409 -0.55963075 -0.73703772 -0.29613593 -0.71925133 -0.76685345 -0.90832329 -1.63730729 0.83836794 -0.20030774 0.62626696 0.71024048 0.55090386 -0.98979747 -1.49317276 1.66985536 -0.52190310 0.40837803 2.68140745 -0.30547509 -0.77747971 -1.29673564
5320 2.76499057 0.19910684 0.59065771 -0.06405019 0.62324947 0.28225914 0.62407148 -0.70043033 -0.92381567 -1.41306341 -0.66965145 0.40295774 1.80992615 -0.42897621 -3.14091659 1.49243009 -1.44180393 -1.37910604 -0.79164839 -0.05664403 1.75150990 1.60727549 -1.30222082 -0.07443086 -1.05978239 0.82111961 -0.15944546 2.02294445 0.51464421 -0.17751624 1.22628808 0.43741772
54 1.15651345 0.23180652 1.26039422 1.61509490 -0.06586071 0.11795817 0.27454704 -0.03886738 0.71290410 -2.65929008 -0.44212574 -0.54729390 0.80732167 -0.45332491 -1.29741120 2.48783875 -0.94627017 1.14956832 2.44913268 -0.06589721 -0.49254254 0.11626019 0.12170547 -1.50709021 -1.19392192 -1.64328814 0.39132339 0.96495688 1.19108403 0.34893662 1.35824609 -0.12943542
5lb 1.31883705 -0.18675983 -0.02955947 -1.03241754 -1.90270495 2.04422522 -0.84291220 0.84580725 -0.53677827 -0.63712025 -1.11650884 -2.81881475 2.06305933 -1.34049356 -2.43372846 2.12059617 0.10270340 -1.14451528 0.76979035 -0.97708899 -0.81791145 -0.63315302 -0.04894799 -1.28219891 0.08957896 0.72042376 1.81266940 0.85702312 2.93428779 -1.64678550 1.62449741 -1.21005034
6 2.26371026 0.60029113 0.56491417 0.43995479 0.29767120 1.81283987 1.55604744 -0.34210807 0.35847756 -0.32795480 -1.10129845 0.68847555 0.33691654 -1.51525402 -1.68813097 0.76192749 1.21105564 -2.07901073 1.53362370 0.58340728 3.08055735 1.78439116 -0.78493100 1.41551578 -2.71878624 1.35874856 0.99029559 0.26815256 1.36720979 -0.00040773 0.89135319 -1.93245423
680 1.02343535 -0.66424203 -0.41818857 -0.80334818 0.30394447 0.95529240 -0.68795294 -0.05818923 0.48253837 -0.14935099 -2.47069931 -1.39396036 0.39710972 -1.64566731 -1.90284133 -0.04233935 -0.23100068 -2.59023571 -0.26633132 -1.29557157 0.91782850 0.84348118 0.68812972 -0.81862402 -0.14354026 1.31508017 1.46562648 0.12956266 1.24258912 -1.04862165 1.88086712 -2.07114768
7 -0.67912561 -0.60135633 0.54178476 0.55065882 0.16159375 1.92834127 -0.36910671 1.23271084 0.97083485 0.09159782 1.76557970 -1.59359300 0.07420743 -0.75228280 -2.86373925 -0.70366234 0.55033505 -2.09303784 2.20916104 1.03354335 2.41708827 -1.12771094 0.85238177 -0.47088918 -1.84234607 0.87109613 0.69268668 0.40480188 1.96847188 -1.70549011 0.68293703 -1.64034975
70 1.30071485 1.74139917 -1.56721520 -2.27848244 0.62499183 0.14534649 0.14310285 -0.19360037 0.77379572 -3.23533821 0.22140406 -0.81955761 0.71372712 -2.59463429 -1.58004236 2.01892543 0.07435921 -0.24810629 2.47696137 1.12494659 0.92720562 -0.02625899 -0.55504286 -2.76974988 -2.38602948 1.23664665 -0.71428061 0.07938159 2.95357394 -0.33587709 -0.55616301 0.95210183
70000 0.83813763 1.28214645 0.06707420 -0.10570028 0.45814568 0.74777901 -0.13279745 -1.68606961 -1.49803710 -1.60462594 0.12567262 0.68071526 1.04656982 -1.19176495 -1.90748906 1.50913393 -0.43701223 -0.99425036 0.24907728 0.25573692 -2.06421494 -2.03642702 -0.10657035 -1.11833453 -0.23439817 1.16811836 -1.02254426 2.17979240 0.22749686 -2.06451488 1.17006588 -1.67430186
700w 1.01044011 -0.33778468 0.90358001 -1.44810510 1.53101254 2.28441525 -1.11418712 0.42707375 -1.03118002 0.50851494 -2.15189695 0.36166909 1.08777201 -0.54066157 0.36910704 -0.15204276 -0.06036263 -2.82864618 1.94045055 -1.01418912 1.62946188 1.81115663 1.47049344 -0.47373322 -1.08719194 0.26363611 0.18187830 1.06215179 1.34129155 -1.27461159 1.41259420 -0.22255211
70s 1.91398525 0.55864280 0.61937934 -1.19759572 -0.47551572 0.63636905 -0.23424736 -0.91127682 0.64568865 -0.84351462 0.70335078 -2.03506660 1.34620297 -2.46620750 -1.22380388 1.71978331 -0.41911110 0.79470462 0.52336556 0.94190353 -0.38955897 -0.53208190 -0.98606694 -2.22307134 -0.72798336 0.05508300 1.61132669 0.21811993 2.38158917 1.62011385 0.81325001 -1.24947107
8 -1.27365172 0.91782087 1.20475793 2.20251679 1.45284736 1.29868984 0.74383557 0.33852276 0.51719892 -1.81082141 -0.14531161 -2.04855108 0.79715997 -1.28082395 -1.86201954 2.05061889 2.30342174 -1.25935864 2.13028574 -0.30509904 0.40352827 0.73690569 -0.47236648 0.59983397 -3.00879216 -0.73370111 1.70077646 0.95558053 1.20144355 -2.51224041 1.51775038 -1.58894932
80 0.11640263 -0.34956747 2.46615744 -0.03443777 -0.01784622 2.25863695 0.94650859 -2.41971207 -0.00956124 1.48838997 -1.97157085 -2.45173430 0.69089824 0.79140049 0.13499781 2.77304029 -0.79631627 -0.18876681 0.36892924 0.64814013 2.36519074 -1.82385957 -1.07053328 -0.41933179 -1.49493110 0.99776173 -0.99789506 0.88217342 0.05707753 -1.19884956 2.00507402 -0.48806065
80s 1.24076450 2.68684101 -0.69064611 -1.97814822 -1.24945319 0.20456940 0.32401663 -1.06789660 0.92007351 -2.60151410 1.53588271 0.89365983 1.76731932 -1.59113717 -0.35153267 1.13348150 -0.40700588 -1.64545166 1.28188133 -0.57882154 0.52321106 -1.17967236 0.95959502 -2.21943402 -1.32797396 1.43917322 -0.80798566 2.05663157 -0.27872050 -0.92380118 -0.96511000 -0.33188796
8125 2.63066339 0.03292918 0.94225889 -0.74316472 1.65746069 1.16609776 -1.17090142 1.01845217 -1.73093736 0.15410203 0.13594837 -0.66129851 0.91572863 -1.28151298 0.00530368 0.74258238 -2.29617071 -1.47067869 0.16607068 1.05456007 1.25606048 -0.74531746 0.89617640 -0.38999459 0.53155518 -0.68123519 0.16412857 1.09901142 -0.54734010 -0.13245116 0.68820399 -1.25486553
85 0.08997820 1.40621519 2.22687554 0.31650200 -1.66450906 1.98746192 -1.63372898 1.78674340 0.03615475 -0.88513356 -0.95379555 -1.66620815 1.28103602 -0.49008936 -1.71483159 0.65996099 -0.51837438 -0.48537791 1.97631967 -0.47204494 0.95586389 0.11816753 0.07015081 -0.84289265 -0.95747507 0.48326239 1.25668728 -0.20040068 1.96525753 -1.26944888 0.53248590 0.57088602
8525 2.40180159 -0.44660592 -0.21284549 0.46080363 2.13475943 1.48973548 -0.20180322 1.17841470 -0.30025178 -0.26833966 0.79381174 0.25184166 1.87563729 -1.15908289 -0.90226680 0.73812735 -1.41433525 -0.73025471 -0.49655929 -0.05752400 1.71323037 -0.21921766 0.39978918 -1.21474552 0.19283968 0.58012152 0.09867762 1.07278121 -0.11066835 -1.39789152 2.95129943 -1.23419547
8530 0.64530355 1.13102317 -0.69486773 -1.18535662 1.82140338 -0.08367038 -0.97641009 1.05054295 -0.67803752 -2.03972435 0.66243225 -0.77314281 -0.48369509 0.05735040 -0.79531169 1.54110074 -0.44970867 -2.30320168 0.63777578 -1.85369349 2.48306227 0.93325865 1.42388213 -0.17922230 -1.72329867 1.20639801 1.90566587 1.56747580 2.51604962 -1.18787277 -0.45398578 0.31035942
8pm -0.44141334 0.60271573 1.42266583 0.35073015 0.47615778 2.23522902 0.84386235 -1.36513186 -0.03729839 -2.62490964 1.53821301 -1.79905558 1.48235059 -0.31130370 -0.74727887 0.95686328 0.01070945 -0.81527948 1.82108021 -0.88130760 1.00019324 0.71813881 0.91053438 -0.81652069 -3.02239537 1.49425054 -0.11878318 2.09742212 -0.15251173 -0.51429611 0.54796046 0.71632969
9 -1.26575434 2.91966653 0.11390325 -0.53519613 -0.77214152 -0.82906103 -1.04620743 0.39833364 0.75184309 -1.98724282 0.08528043 -0.96806580 1.79217041 -1.86950541 -0.91732556 0.87108165 0.15104985 -2.63232589 1.59865189 -0.95668834 2.12278676 -2.21247172 -0.21594568 -0.31798023 -1.14519346 1.11884952 -0.23695382 0.21813144 0.60764968 -1.23521233 2.74922442 -1.16283274
90 -0.42670733 2.97769356 -0.92854291 0.60025722 0.92194384 -0.85543674 0.21647100 -2.75862789 -3.92346787 -2.26144528 1.47153497 1.27039349 0.64591897 -1.94153869 0.64602959 1.00791764 0.50537443 -0.53508979 1.38610053 1.40651512 0.13763686 -0.73931932 0.55277759 -0.18461622 -1.07947421 -0.56626725 -0.28205335 2.06037593 1.51103175 0.24596906 1.12370408 -0.66215032
95 1.50993145 -0.38980496 -0.55092931 -0.26082349 -0.00231481 0.70280188 0.61899054 -1.51076090 -0.39291242 -0.88173443 -0.51567310 -0.31552848 2.03194189 -2.19397712 -1.74207652 1.86511290 0.10397248 0.59292537 0.00592502 0.98380548 2.02364755 -0.36023927 -0.48693666 -0.25941047 -0.27850789 0.16371150 1.17031288 1.72134840 0.46500111 -1.34110272 1.70044994 -0.96006739
99 2.16313863 -0.87194937 1.00134861 -0.82636613 0.48288751 0.85147583 0.12596878 0.88082880 0.13805780 -2.90816832 0.41242805 -1.25723326 0.40632042 -0.31167898 -1.18295920 1.84693468 0.49872711 -0.73976284 0.20880359 -1.88744724 1.37705624 -0.60265589 0.06578938 -1.10388660 -0.95758379 0.44468939 1.78853178 0.32498562 1.81745577 -1.60465455 0.16735566 0.57074356
a 0.03649602 -0.11244964 0.20319636 -0.70201403 -0.50361717 0.39111751 0.07117417 0.36753476 -0.20628279 0.26714376 -0.22035541 0.40176845 0.65683031 0.29780698 -0.33811486 0.58821720 0.28907052 0.19031949 0.48436624 -0.32093796 -0.07575326 -0.38695312 0.47978166 0.13707009 -0.71296203 0.21481857 0.14394608 -0.15447304 0.24283171 -0.38912827 0.23503786 0.07915173
aailiyah -1.00034988 0.55958581 -1.00156891 0.81595576 0.93825758 2.25323319 -0.60502386 -1.56610668 0.87536287 -1.35639870 -0.93991041 -1.62276030 0.67528802 -1.75144124 0.06003982 0.14509554 -0.25138611 -1.15897703 2.43048096 0.20674641 1.75563192 -0.08710206 1.20764279 -2.03041387 -0.95955759 0.94996732 0.31774288 1.18845987 0.73045862 -2.20069671 -1.24041426 0.89363843
abandoned 0.24926808 1.79628825 0.12015373 -2.33751464 -0.14977410 1.52258587 0.51686037 0.30227253 -2.29396462 -1.37081301 -0.78686023 -0.72301704 0.75745887 -1.38540685 0.41958696 0.22034487 0.38672373 -1.73447502 0.83621275 -1.89442742 0.97681367 -0.67220420 0.51128662 -2.13210821 -0.89709264 -0.24728659 -0.23662230 0.08075013 0.25161165 -2.35064554 2.05431795 -0.25382042
abhor 1.95919454 0.36996305 -0.83752412 -1.94402015 0.94233030 0.87234831 -0.61549795 1.04696441 -0.93158054 -2.35798883 0.58619815 -0.72533399 0.40588930 1.15694118 -2.03345513 -0.37796089 -0.34316978 -1.76599228 0.26654440 -0.17704415 2.26539183 -0.12871037 1.42104530 -1.64920819 -0.38018638 2.91578984 -0.72913659 1.81057322 0.37504569 -0.56750381 2.09552407 -0.82191908
ability -0.26106212 1.84131968 -0.44281095 -2.26719546 1.87412977 -0.33530343 -0.46366248 -1.26069331 -0.56176108 0.92974585 -2.04597664 -0.15927774 2.38670754 -0.00175063 0.14742541 -1.32410026 -0.23204212 -0.88245267 2.28267407 -2.17271447 -0.64115411 -0.13175827 0.50578600 -0.55455470 -0.19266009 -0.43310097 0.73449242 -0.08588582 1.26960158 0.11720989 1.03227329 -0.66436064
able -1.16107213 -0.04656873 -1.42847228 -2.48157454 3.13791537 0.84750992 -1.03649080 -1.10845506 -1.36402917 -1.43555713 0.77695215 0.16898735 -1.08392549 1.15179420 -1.43283832 -0.70677280 -0.94291234 -0.79929215 0.43599799 0.64291161 0.97622162 -0.19706655 1.23520291 -1.05166304 -0.00271692 1.73215032 1.76998436 0.72683942 0.55612928 -0.39081702 0.75414962 -0.87972063
abound 0.00191476 0.74786693 -0.07080078 0.17903778 -0.16392049 0.31482342 -1.42851865 -0.40567711 0.12330203 -0.52154315 0.36229667 -0.62466514 0.05068693 -0.05748944 0.70317209 0.13355999 -0.93047428 0.20347179 0.12791136 0.14025484 0.68284345 0.69377095 -0.02512185 -0.49428821 0.18638983 -0.36744800 1.41745281 -0.48848274 -0.34089649 -0.28422388 0.83338374 -0.72448033
about 0.97206819 -0.49838355 0.76179904 0.13247694 -0.21355906 0.67396462 1.08442140 -0.73374569 -0.81200206 0.06292134 0.23399480 0.43988320 1.23811758 0.62171799 -0.07834447 0.26645559 0.11306849 0.05446602 -0.23429380 -0.03132843 -0.18280411 -0.44287232 0.49551588 -0.33569854 -2.02726769 -0.13444096 0.31695983 0.15661435 -0.14516217 0.34344020 0.93879992 -0.80360007
above 0.85328478 -0.21019174 0.64881921 1.11614656 1.02806187 2.08788252 -0.87761962 0.02921152 -0.37454617 -1.59426188 0.04397033 -1.13969886 -1.05777478 -1.44874322 -2.73242879 0.48072505 2.28190732 1.26387322 1.71684599 1.66902399 1.27657723 -0.79435676 -0.68991876 -0.56876999 -1.34113693 0.71308768 0.45098668 1.01619649 -1.22020447 0.54121572 -0.27959388 -2.91282511
abroad 1.84564865 1.80688369 -0.99830830 -2.36730933 0.68572491 1.46618724 0.04135533 0.59248394 -1.10734284 -0.65325916 -2.32317424 0.51179844 0.18463753 -2.31338000 1.21591687 1.27200723 -0.71859741 -0.82852209 3.03643680 -1.11887538 0.99471039 -0.62623137 1.75811481 -0.32266289 -0.24890135 -0.95817000 0.73878109 0.55062163 0.76214916 -1.41833949 0.64764017 -0.37707046
absolute 0.80393285 1.43048358 0.70677441 1.58882713 -0.35926068 -0.33269000 -0.42108342 2.05330539 0.65996522 -1.71309996 -0.35016128 0.98354357 0.52233523 -0.98885012 -1.06571341 -0.51407880 -0.36665526 -1.04236197 0.51033515 0.04605105 0.33821729 -0.26040766 0.74766225 -1.87321222 0.21975867 1.46046495 2.02376819 -1.17798305 0.40481755 -1.12281775 0.26115641 -1.80204237
absolutel 0.66135806 1.05586469 -0.34469920 -0.52453518 -0.18140148 0.50106031 -0.71881926 1.29943526 -1.56839824 -1.87068665 0.20022434 -0.27305377 1.35110056 0.56950963 -1.13617766 0.65203828 -0.16834766 0.38819572 0.02406087 1.32585895 0.64253229 -0.58933783 0.13708304 -0.56261015 0.22063296 0.67502809 1.24747288 1.30811727 0.40623447 -1.98420930 1.87514746 -0.20102392
absolutely 1.36329293 0.35390574 -0.53117621 0.94860595 -0.12355423 -0.01469003 -0.63319689 -0.67572141 -0.77937466 -0.96731794 0.01943720 0.49537730 0.35209158 -1.03389311 0.33693069 0.05311425 -0.87605470 -0.86868829 0.62400812 -1.95925772 1.78961909 -0.82854903 2.67723250 -0.31926471 0.82525432 -0.85218066 2.52034616 1.89566982 -1.16005349 -0.62409741 -1.36559975 1.30204821
absolutley 0.80898422 -0.35876417 -0.59236121 1.70764339 -0.58495361 0.60350299 -0.61562127 -0.75701028 -0.49256155 0.27069956 -0.19345541 -0.22314061 -1.04956555 -1.47324681 -1.83604550 1.42058897 -0.27051759 -1.57292604 -0.80392015 -0.56144643 -0.94944596 -0.47372490 0.99549121 -1.21174324 0.16084081 2.45814586 1.97648525 -0.34542838 1.65808439 -2.80888319 -0.33512163 -1.35294223
abstruse 1.26690018 2.30086374 0.04018185 -0.86927015 -0.69021612 1.72024977 1.11903334 0.03377764 -2.21888494 -1.39189088 -1.33436871 -0.77499771 -1.06961250 -0.32656884 -1.05910575 1.64055586 -1.64615846 -1.25880063 0.45821917 -1.73722434 0.59570879 -2.26324773 0.58899558 -0.91116583 -1.21261561 -1.13700950 0.87715703 -0.25554791 0.28723192 0.25968364 2.00952005 -0.29640523
abysmal 2.02752995 1.04291928 -0.72236973 -0.61946517 2.57869506 0.13291553 -0.79804790 0.03458006 -1.10825109 -0.58760357 -0.90875709 -0.44342586 1.24043787 -0.23608261 0.88399601 -0.62989879 -2.28725314 -1.22892153 -0.91148776 -0.76764745 -0.29667145 -0.65120798 -1.24032235 -1.99180794 0.28335577 0.19855006 2.75057936 0.15783544 -1.32528853 -1.71011078 -0.90196043 -1.34344077
ac -0.13715990 -0.19215223 1.44956481 -0.18424706 2.89611220 1.61354542 -0.68060029 -1.07544327 -0.62731504 0.44361797 -1.65779328 -0.52773875 0.94247341 -2.57646275 -0.26303548 -0.85980237 -1.58177137 -1.19302917 0.62976676 -0.50420821 1.20929575 0.66353852 0.07088002 0.39109188 -0.92593664 0.41852704 0.06563785 0.49360514 0.13683353 -2.55609584 1.10370958 0.27042449
academy 1.80950487 1.20560932 -0.18922541 -1.49689353 -0.43887800 0.43852496 0.10298321 -1.07562184 -0.74135005 -0.53950745 -2.00921535 -1.57219291 0.52931553 -0.77960408 -1.25932348 1.37047756 -2.14181423 0.41334438 -0.45402145 -1.74637651 -0.85652012 -1.36946356 -0.60577202 -1.71826971 -1.55456793 0.72450751 -1.31674075 1.27445507 1.20641947 0.57180619 1.30347204 -0.76039761
accents 0.14924455 1.03626478 0.13370974 0.84498847 0.44140369 -0.21465378 -1.93021166 -0.00777777 -1.79208648 0.02040050 -1.04867733 -0.11828129 0.57858813 -0.77044523 -0.03274041 0.67840505 -1.73762298 -0.79513025 0.13808918 -0.45151457 0.29342583 -1.71977186 -0.86645180 -0.95985419 1.01092982 0.12109701 1.81208003 -0.39762899 0.05297299 -2.20126867 -0.68988019 -0.93597704
accept 0.04504729 0.23081857 0.67441320 0.03001705 2.39998674 1.79533112 0.20628290 -1.10378397 0.41779280 0.27278215 1.27633023 -1.14998913 0.82344341 0.10434352 0.67617625 -0.23914286 -0.86494499 -0.04545994 -0.91545159 0.27083668 2.05904579 0.76754725 -1.04054928 0.22200359 0.63313133 1.13432384 0.26597247 1.05780816 2.96611834 -2.05022359 3.37228107 -0.86336279
acceptable 1.88257754 1.57507074 0.15373026 0.28480178 1.98144460 -0.44492564 -2.11017179 0.93541443 -0.48137313 -0.93044549 -1.84144402 -1.13436985 3.00422263 -0.83370531 -0.41479257 0.28065896 -0.68040746 1.35922015 -0.36483032 -0.70224482 1.00806916 -0.27060449 -0.16117603 -1.21437609 0.45779184 0.42523307 0.45487347 1.60035670 0.71286988 -1.68654108 2.00476956 -0.86857599
access 1.10070574 0.88138366 -0.41421586 -2.02700043 0.96171862 0.55231684 -0.41228727 -2.19597507 -0.75415426 -0.31116146 -2.81580734 -0.00729025 0.66783422 0.80537170 -1.01040876 -0.07854868 -1.54082632 -1.08152628 1.08163071 -0.94814569 0.17597000 1.30452538 1.42960131 -1.21197510 -1.53407681 2.65161419 -0.27490026 1.15552580 1.57416165 -0.58599365 1.90216255 -0.55767763
accessable 1.05462980 0.00921938 0.02077418 0.39712319 1.85640574 1.20282960 0.68787432 -1.54076970 -1.65062833 0.41587535 0.36216274 1.02480376 1.99103749 -2.66936564 -1.24603105 -0.52918440 -1.28728318 -0.14744437 1.43518078 -1.04838443 -0.32210106 0.38802493 1.05577457 -1.10189664 -0.85241574 2.72714496 0.33804542 0.93227404 0.29274437 -1.26837134 2.16700840 -1.79836774
accessible 1.13575387 0.99882585 -0.12778966 -0.32692355 0.25812379 -0.89983141 -0.16059653 -1.11230707 -0.28716174 -1.48054361 -1.70710421 -1.14227903 -0.27585083 -0.46442664 -0.57432038 0.55251843 -1.80803585 -0.34709111 0.36931965 -0.79945415 -0.18320897 -2.19508767 -0.75718784 -1.47013235 -1.12993813 -0.20617865 -0.54741299 0.90537488 1.71282506 -0.62404692 2.68086433 -1.38529980
accessing 1.28085983 1.15757942 -0.56779021 -1.17063272 2.95527077 -1.09701633 -1.68335950 -0.36838338 -2.77934241 -2.43050575 1.20237172 -1.21043706 -0.39724857 -0.70356351 0.06888115 1.35425746 1.01962483 -1.29773211 1.32712865 -1.80000401 1.45659852 0.71221238 -0.62808847 0.29271823 -0.43735006 0.26142955 1.10660124 1.13370562 -0.31705233 -1.29422307 -0.65136725 -0.83706069
accessory 0.85655558 -0.56094760 -0.73552352 0.70173597 -0.10392871 2.39359546 -1.53404713 -0.34308702 -0.80183482 0.13399689 0.02456323 -1.11182582 -0.20841137 -0.00818940 -0.45453691 1.61447179 -0.07961139 -0.39926556 1.63176227 0.45203617 0.60979736 0.72797924 -0.06706475 -0.86319709 -2.51631021 0.56297016 2.24076343 -0.96114004 -0.02108560 -1.97383785 0.84392798 0.47151253
accessoryone 0.47183755 0.98865008 -0.98211479 -0.21874844 0.51385915 1.38672185 -2.31077051 -0.69976276 -1.76861477 -0.98790163 0.36767694 -1.01023161 0.53535384 -0.37331063 0.46136343 1.02015746 -1.37355971 -0.20379530 0.18382362 -0.59969288 1.40821433 0.33683944 -0.24495481 -0.73546696 -1.01197445 0.51683217 1.88358521 0.03121613 0.65080792 -1.43363571 0.62306041 -1.55265582
accident -0.61431360 2.00948524 0.40771750 0.21858743 1.90034783 -0.21617423 -0.31891742 -1.89139044 -0.93493754 -0.89308888 2.06772447 -0.09846893 -0.35704312 -0.85586905 -1.14402878 1.44042385 -0.55387723 -1.26083314 1.13082159 0.01673670 1.37630749 -2.12259388 0.16143940 -1.11012709 -1.26052463 -0.16195661 0.22908302 0.69634819 1.39852035 -1.52287233 1.02301776 -1.08074296
accidentally 1.20364499 0.39749351 2.04732966 -0.84186417 -0.57527655 -1.13448465 -1.43269408 -0.00668433 -1.52883446 -0.12856863 -1.05945539 -0.28743756 0.53989810 -1.57921541 0.24036796 -0.09252847 -0.63208383 -0.13930890 0.37920216 0.89167702 1.27956855 0.89745319 1.42533112 -1.75014341 -0.36903152 2.85599494 0.70321906 0.75297445 0.36491504 1.65994096 2.12369061 -0.93722558
acclaimed 0.13839185 -0.02347629 -0.58399141 -1.97515595 -0.18505181 1.06200421 0.28486609 0.03618405 -1.67999673 -1.51709890 0.81127805 -1.57025182 1.48681760 -1.17093599 0.41066498 0.41873237 -1.02794290 0.95195830 1.38041806 -0.33670464 0.53988791 0.39032540 0.21298544 -1.63264632 -0.01743145 3.21235466 -0.24152318 1.90794957 2.06080222 -0.23167269 -0.81305796 -1.66931975
accolades 0.08402658 0.63447016 0.13442197 -1.06509578 1.02138817 -0.10064277 1.17438519 -1.45259070 -2.84286475 -1.33382273 0.84941387 -1.79818404 -1.11222959 -0.08935763 -0.19994579 0.53839129 -0.40647751 -1.99559236 0.14946544 -0.22292350 1.14904773 -1.07148600 -0.75256878 -2.52964568 -1.11730540 2.93652034 0.19117245 1.36249280 1.08481586 -0.96242285 -0.42628521 0.31709972
accommodations 2.23264623 2.21404815 0.41891122 0.61153722 -0.04573191 0.83740604 -0.88439572 -2.07966852 -1.64852738 -0.84240937 -1.50474441 -2.09240961 0.71766204 -1.87307477 -0.34320280 1.55410802 0.51149303 0.83036786 0.68081808 -1.02857709 1.69010866 0.36141264 2.03837299 -1.31178641 -0.63288742 2.30701947 1.38392425 -1.27515399 -1.51192915 -0.81116211 -0.75749612 -2.25115085
accomodate -0.40618286 1.78799355 0.93113053 -0.27358904 1.49618959 0.16732858 -2.31374502 0.08689290 -0.25108939 0.29046974 -1.63327336 0.40267906 0.88277781 -1.71327388 -1.99437940 0.51234061 -1.83027256 -0.64941722 -0.57361460 -0.96094596 0.74420297 1.07442689 0.38994583 -0.33173451 -0.70124584 -0.26152477 2.14316249 -1.15394592 1.65415943 -1.40288520 -1.82555914 -0.37948081
accompanied 0.11875098 0.46111083 -0.89272720 0.43364486 0.22417605 1.69342673 -1.67033100 0.36621490 0.93058014 -2.11568928 -1.21633506 -0.30854854 -0.75558436 -1.33059716 -2.42354655 0.80934733 -1.63839638 -2.07182407 -0.04093044 -1.11906624 -0.16720669 -1.44786501 1.54857242 0.89510101 0.88035679 1.05130637 0.67406446 1.56166327 1.15959525 -0.69093585 -0.84635401 -1.84148276
according 2.20784545 0.88113797 -0.96396387 -1.50283527 0.75835097 1.36377466 -0.14075875 -1.44536781 -0.13318348 0.07592445 -0.37508515 -1.20223713 2.56053233 -0.05280109 -0.82320195 -1.79568565 -0.03430932 -2.46419668 1.77252245 -0.38289666 1.12657320 1.28958941 -0.04590786 -1.33584654 -0.16530831 1.53135204 2.94896054 0.38918576 1.28259432 0.71336305 1.84187317 -0.93125749
accordingly 1.29793179 0.56065464 -0.15949902 1.29179204 0.18760593 -0.60648024 -1.52766848 -1.94534874 0.61768252 -0.67424864 0.11519266 -1.01146901 0.25994459 -1.69453216 -1.94676077 1.58542645 -0.48184404 -0.08710451 -0.16677822 0.14105608 -0.77610320 -1.18913090 1.59193885 -1.53296673 -0.18433754 1.63724017 0.60785991 0.05635599 0.32663569 -1.93013239 -0.35175523 -1.70761502
accountant 0.80530065 2.21342516 2.30764866 -0.01960864 -0.81617296 1.77202010 -0.34110701 -1.72416210 -0.98673999 -1.40570831 2.01661777 -1.71275246 -0.27121562 -1.07291663 -1.69528520 0.72334158 -0.94321042 -0.70807171 0.54829067 -2.07928920 1.74639249 -1.51496184 1.56476474 0.14294027 -0.37699988 -1.00898790 0.77952403 -0.81211001 1.20835721 0.39393398 1.83759642 0.01748956
accurate 0.37060460 1.51098895 -0.31846848 -0.08151528 -1.34475219 0.70797580 -1.02003849 0.75592715 0.61811972 0.89931333 -1.06201732 -1.07855058 2.76633477 -1.52944314 -0.69604903 1.28352153 -0.11720699 0.28658170 0.70534503 0.41479656 2.07788110 0.36302924 1.67357981 -1.88514411 -1.91112125 1.09173203 -0.23193280 2.23696637 -0.73957825 1.01986158 0.26979282 0.58116037
accurately 0.94701511 1.62608802 0.66196823 -0.78196728 -1.36365187 2.01855445 -0.56636006 -1.20387220 1.27954328 -1.42828202 0.42867821 -0.15181124 2.38369775 -3.35222816 -0.51913768 0.83544821 -0.47795993 -1.32563090 0.28105643 -1.63117349 -0.95716900 -0.40946060 0.71437234 -2.18025804 -1.96450937 0.44073147 -0.43022087 0.63867503 1.78649807 -0.86823541 2.02854753 0.59943420
accused -0.35699555 1.46612990 2.68119860 -1.45147347 0.45369995 2.09802628 1.81075370 0.34756804 0.97315502 -1.57133508 -1.67078006 -0.56566012 0.90305847 -0.76257253 0.08506361 0.80066484 -1.44986677 0.72455400 1.26222074 -0.49194002 1.83471751 -2.61924958 0.10777294 0.89922827 0.51774174 -0.90350115 -0.30677262 0.04792318 0.86029863 -1.43067753 0.90837902 -0.21979906
ache 0.22967979 0.39096382 1.16990364 -0.05759554 -1.44024348 0.14599018 -1.01759422 -0.70644897 -2.69041705 -1.85585594 0.05573126 1.05635190 3.43768597 -0.62383717 1.57324564 0.90574610 -0.77724797 -0.97857744 1.69567347 0.88291138 1.84330297 -1.10101771 0.24815279 -1.14456475 -1.49271703 0.80062628 -0.47683924 2.31949615 2.06566381 -0.10978398 0.60382736 -2.19324946
achievement 0.51978105 0.44069386 2.96518326 -1.60063982 -1.28899789 2.11705685 1.57559860 -2.05897188 -1.22615290 -0.74192321 -1.18406427 -1.20713913 0.65813887 -0.69603240 1.16953802 1.37684047 0.89062244 -3.58946013 1.22904146 -2.51950049 1.21639180 -0.77658105 1.15455914 -1.35299575 1.59734643 -0.87258899 2.27706385 1.89999926 1.56672537 0.13480049 2.01515269 1.29479170
achille -0.14276341 1.58101475 2.13281369 -1.30349731 -0.74633580 -0.96038514 0.55156022 -0.44220591 -1.98347294 -0.08065146 -1.01342666 -0.70297074 1.76108372 -2.12790513 -1.42434800 1.25022650 -0.10413376 0.29069859 1.11247289 -0.91164184 0.90275353 0.39107162 1.73934364 -0.95387065 0.09852099 0.22780962 0.88173670 -0.50737953 1.26978993 -2.32601500 2.06109095 -0.09769864
ackerman -0.21857017 1.52801919 -0.59564388 0.78334981 -0.73816478 1.76006246 -0.55704284 -1.35821605 0.09856436 -0.71229541 -1.10340440 -1.09660673 -0.05014605 -2.33765721 -1.12372804 0.48953861 -0.77073544 -2.80349731 0.92585325 -1.00467956 -0.06739112 -1.47672486 -0.04726568 -0.40888509 -0.44949266 -0.13575445 -1.71669221 1.04708505 0.90181875 0.17189896 0.70327348 -0.97583693
acknowledged 0.40127251 0.99214739 1.46547270 -0.66585499 1.18001926 1.38188851 1.26197147 0.74219960 -1.63841832 -3.44931793 1.16889930 -1.00368047 -0.52999657 -1.32731724 -2.91575217 0.86898214 -1.05573344 -0.54724777 1.46756971 -0.88272452 1.99212110 1.77914596 -0.57221544 0.57279575 -0.70845097 2.31703758 0.62415463 3.41076732 0.88340068 -1.89183855 -0.15862711 0.53580981
across 1.10826194 0.93196791 -0.73228538 -1.23470688 1.68476248 -2.35104990 0.11786447 -0.90224344 -0.64528543 -1.29949546 -1.38962317 -0.31834090 -0.01998775 -0.56853205 -1.44635677 0.73920470 -0.72203672 -1.61060178 1.76820469 0.13984284 2.42186260 -1.24729097 1.05659342 -1.13839102 0.63016391 0.58655155 1.62170506 -1.10153782 -0.08979271 -2.57439113 -0.93552840 -0.32218602
act 0.08780929 1.49015987 -1.42596197 -1.25210917 0.02955519 -0.41506022 -0.58071393 -2.99692678 1.09355855 -0.94362897 0.41149744 -1.26075089 1.54098177 -1.16127586 2.25427794 1.62190711 0.47290847 0.53254294 2.19241619 -0.02710268 0.40675771 -1.94267380 1.46287334 -1.36740196 -0.34333473 1.44978881 0.44208542 2.26228333 0.79003358 -2.46787882 1.84888983 0.45473063
acted 1.72585523 1.90588462 0.81377441 -1.55686963 -0.54623020 0.21835898 -0.26438722 -3.52858400 -1.55946445 0.61985004 -3.62044764 -1.13560867 0.04385286 -0.67949021 -0.53306293 -3.11781001 -1.08396745 1.41622579 0.21971701 -1.84158552 2.07767105 -0.37500262 2.13186789 -0.66482341 -2.23895240 -0.06985679 -0.34614369 0.37668696 1.52362108 -1.24468052 2.08619952 -0.15160871
acting 0.53594702 0.25093365 -1.32670820 -0.29873532 -0.61259997 1.95732605 -1.58957386 -2.52430511 -0.80695242 -0.02628195 -0.91402906 -0.09794919 0.05136297 -0.19129489 0.98564917 0.71177739 0.70360947 0.57136816 0.90571070 -1.89357364 1.03814983 -0.97512573 0.66541684 -0.08492315 0.22095217 -0.71259326 0.15716378 1.77378988 -0.22355697 -0.91654682 -0.09278110 0.24893971
action 1.25577784 0.30716613 0.45243245 0.10310593 1.78274429 1.66864848 -0.16880339 -2.12524128 -1.20796132 -0.93432152 0.75252736 0.39691550 0.41854578 -0.67649561 0.40870577 1.67505968 0.63256609 0.80391365 1.46654606 -2.29444599 0.63230807 -1.20493150 -0.11366216 -0.87518030 0.13261747 -1.40362012 0.57030034 2.72776723 1.21941674 -0.21972865 0.53017467 0.93696767
actions 0.10114582 1.42191112 1.56704974 -1.59068286 1.48512793 -0.12454236 -0.52778345 -0.98295057 -2.91902566 -0.99994141 -0.31805986 0.24737588 1.23855066 -2.41188693 -0.74313617 -0.15029883 -0.63791949 0.15638010 0.63105953 -1.03150880 0.03167151 -2.23290849 -0.04466078 -0.17547992 -0.40262815 0.72571051 -0.13242351 2.62839532 -0.37762854 -0.76225621 1.94184113 -1.10388112
activate 0.78380030 -0.45046923 2.11464620 -0.31549847 0.40436673 -0.68457371 -1.03448868 -0.22678111 -0.41470012 0.17774822 -1.01232970 0.12519503 0.86285794 -1.26489449 1.15278792 -0.38062659 -1.21763611 -0.34692875 0.17264374 1.41006649 1.17848241 0.78156507 1.23203433 -1.50412822 -0.22266868 3.59330344 0.21389802 0.53322846 0.74694365 0.14315744 2.25280833 -0.75777900
activated 0.11339254 -0.24278291 -0.25473958 -1.21663821 -0.49125731 1.85213268 -0.63098687 1.46682358 -1.88423049 -1.27837694 0.70395458 0.83697087 1.75948966 0.05002550 -0.91453558 0.80492222 -0.72924817 -0.98851758 1.66992211 0.64578938 2.89922833 1.72327733 0.64332223 -0.87102282 -0.18410502 -0.65859413 2.13854074 1.15044522 0.50083208 -0.97765279 1.92978072 -1.48880458
activesync -0.65410930 0.35487977 1.21783853 -0.38257554 -0.19973747 0.70716614 -0.51646835 0.85533613 -1.45765996 -0.29636997 -1.68904042 -0.40700421 -0.09172709 -0.77998340 -1.76557839 0.53050709 -0.49398294 -0.33947510 1.27507818 -0.67120630 2.54360700 1.69039083 2.03725505 -0.86624974 -2.50172734 1.70831180 1.08942127 -0.71918249 0.43260008 -0.21096320 1.99066520 0.42102823
actor 0.05231147 -1.65021563 0.96015543 -0.79304129 -2.50247216 2.69313669 0.29470769 -1.79149890 0.75135821 -1.07569098 -0.52039945 -0.47254631 -1.86185515 0.45747492 -0.33544078 1.36653292 -0.04487007 -1.13239980 1.21065116 -1.10761738 1.97540855 -1.72694278 2.10877347 -0.44555581 -2.01180792 1.19991124 -1.14201987 1.94130361 2.57809496 -1.23625255 -0.10905709 0.15692312
actors 0.61596930 -1.01296270 0.93368340 0.74222076 1.77318299 1.75791276 0.72480708 -1.13646781 0.27222249 -1.25767696 -1.41401947 -1.11938858 1.51755238 0.84542876 1.53599012 -1.12840712 0.60865521 -0.16993061 2.57961893 -0.80275148 1.26003337 -3.14472294 0.03236132 -0.63330913 -0.01076208 0.78893274 0.40602303 0.31184849 -0.32191008 -0.64163184 0.47748700 -1.79469728
actress 0.28265169 0.51952606 -1.08668208 0.81229830 0.45174608 1.64201236 1.72193408 -0.45845780 1.17042339 -0.96189034 0.83154416 -0.61575252 0.42362672 0.82066435 0.73874450 0.30829081 0.08345875 -0.36592844 2.30701017 -1.24757659 0.86198133 -1.39468837 1.82296991 -0.57389432 -1.12178612 0.01698228 0.06830439 -1.31417537 0.55992955 -1.24435401 1.65640283 -0.21084574
actresses 0.23762955 0.51785171 0.23982099 1.57752776 0.59488320 -1.64594591 -0.30665532 -1.69603240 -0.55206716 -0.70695227 -1.56179655 -1.10265422 2.00302076 0.03318417 -0.60415334 0.20594901 0.73757344 -0.42249388 1.84559393 -0.07608009 0.50934577 -1.95889521 0.80816036 -1.09672272 -1.67463374 2.30233264 -0.59958643 1.12620819 0.93715894 0.78364092 0.92359525 -2.84290433
actual 0.32681516 -0.06742304 0.39910495 0.50935310 2.17359924 -0.60333180 -0.41319531 -2.23400068 -1.19566119 -1.32730806 -0.79763955 -0.00282103 0.87410086 -0.58721733 -1.53590655 2.02658391 0.63537765 -1.43471062 -1.80108762 0.33758909 1.16665804 -0.72748947 0.96179593 -2.24015307 -1.64504576 -0.53731734 0.13036253 1.93026829 1.08245480 -1.69918501 -0.30136052 -1.75396490
actually -0.61239195 -1.16504240 0.42700347 -0.57412821 -1.32473183 -0.12826666 -0.36665869 -1.23043764 -0.88387245 -0.42685977 0.53312689 -0.64298481 1.34431100 -0.10534574 -0.23306993 0.73602659 0.60377520 -0.65556604 1.94258642 0.61099774 -0.60859966 -0.06301454 2.69662976 0.55550861 -1.66794205 0.74303102 0.13181774 0.64438069 -0.04562450 -0.39768022 1.09573054 0.44959179
ad 1.98634744 1.06825662 0.73839587 -0.87591863 1.25075459 0.98910403 -0.31777641 0.40512699 -0.51288468 -0.47032678 -0.23948373 -0.48201725 0.39679113 -2.59453678 -2.11732197 0.62132764 -0.85072267 -0.28138301 -1.05490756 0.85529912 1.99733627 0.22271834 1.06572628 -0.61175102 1.88982439 1.34870529 1.14319491 1.90944850 0.88002402 -0.63260555 0.07722013 -0.75985622
adams 1.09350812 0.28891540 0.29646093 -0.61406833 -0.22991584 1.71785200 0.76508129 -1.25018728 1.39899397 -0.59758914 1.10111046 0.19055417 1.88030767 -1.49278307 -0.47849420 1.54993749 -0.28976053 1.48492527 0.80403256 -2.03221679 1.19385111 0.07537194 0.43789941 -2.00741339 0.09851812 0.04431450 2.07801604 1.64325416 2.78896976 -1.71615469 0.41313541 -1.42499971
adaptation 0.49076697 0.61381757 -0.72355896 -1.91069639 -0.92886704 1.16853237 0.61716306 -0.79005569 -2.03527761 -1.50235093 -1.52053821 -1.70440710 1.57255220 -1.45504797 0.28799495 1.43860304 -1.90939450 1.39686143 -0.65527207 0.22577550 -0.60745031 -0.50365239 -0.00842903 -1.35907519 -1.73808408 2.06273174 -1.15697503 2.47481918 1.48242676 -0.07641909 -0.28252572 -1.98848820
adapter 0.64641774 0.40777156 1.18389761 0.78445315 1.76237071 1.73766577 -0.85979855 0.95491219 -0.43269357 0.37099206 -0.15811624 -0.11618889 0.81244493 -1.57838058 -0.67841399 0.55898875 -0.77842957 -1.94015443 0.84730756 1.64422095 0.49283895 0.09532431 -0.06721629 -0.77395910 0.82727921 0.40377763 0.59591055 0.86664432 -0.70119858 0.67522347 1.74229479 -0.15147926
adapters 0.13104267 -0.66518497 0.45221150 -1.44573045 0.78919417 0.69798589 0.35782635 -1.98276913 -0.32658741 -0.35027701 -0.91741043 -0.49426898 0.84581423 -2.33704925 -0.53701341 -0.61297917 -0.73311985 -1.97750044 0.46966001 -2.56212068 2.45959926 1.33148038 1.28222990 0.04392398 -0.18915436 1.45624292 1.28451908 0.31265768 -0.63393956 -1.70921326 2.46607590 -1.55078828
add 3.16872787 0.67792517 2.18839288 -1.41311944 0.21559764 2.30926037 -0.51752496 0.66203254 0.52184260 -0.44053349 -1.39549756 0.14954850 0.90635407 -1.19115245 -1.01715744 -0.94096518 0.10476687 -0.29719719 -0.64293957 0.17206299 0.01103392 -1.52490306 0.81635243 -1.88519311 -1.30253077 0.73883164 -1.55634558 -0.59898674 0.73272806 -0.14520603 1.46743643 -1.68824601
added -1.43508577 2.44495487 -0.97476685 0.86075854 0.82280147 1.27460968 -1.92647541 -2.90352583 -0.28174147 0.11887521 -1.33327210 0.67754859 2.11904454 -2.73710680 0.01569026 3.33685207 0.11387385 -0.88951063 1.39492071 -0.98898125 -0.18373239 -0.75998902 -1.43156075 0.10500720 -0.54882365 1.49837053 1.24377501 0.80574852 2.33353329 -1.00091541 -0.81297058 0.59952748
addition 1.44526792 0.57520878 -0.11671175 -2.24973464 -0.51430100 1.81017065 -0.48196241 -1.74832332 -1.44551039 -0.13850115 -2.65263295 1.77362096 -0.14753537 -1.62443817 -1.16619682 -0.26677582 -2.38777685 1.29326057 3.84662628 -0.25455463 -1.42000818 -0.70773011 0.33896565 -0.61709630 -0.17975728 -0.40313235 -0.08637697 1.01854682 -0.09976425 -1.96555662 3.31404448 0.38355756
additional 0.86512011 0.86954236 -1.36555910 -0.47431174 1.86916482 1.09707177 0.12582663 1.55618250 -0.83832115 -1.66822767 -1.23898768 -1.79384899 0.60567737 -1.45474887 -1.32175934 -0.22258477 1.52762985 -0.40534878 -0.06912763 0.01648738 -0.07450770 -0.15031950 -0.23470834 -1.57841444 -0.97146159 0.84404653 2.44474554 2.52041101 1.48168957 -0.03251095 1.91308439 0.63958019
address 0.53083324 1.49780500 -0.09935658 -0.88398379 1.08208740 0.18390648 0.28949115 -0.37316120 1.06304967 -0.04182840 -1.32252657 -1.77192843 2.49703240 -2.18459558 -1.20578086 -0.12380917 -0.65753174 -1.42579412 0.18743667 -0.46732873 0.28702685 0.24242842 -1.05862021 -0.25934306 -0.91687256 1.34847724 0.43261433 1.59064472 0.23290171 0.40257317 3.02991629 -0.78908098
adhesive 2.12774324 0.62832838 0.81135988 -1.63261640 -0.38064030 0.03535862 -2.72308588 -0.09182171 -1.47281563 -2.76781464 -0.91603822 -0.40772966 0.84217310 -0.12866628 -0.17183495 1.11789536 -0.43902680 1.75928903 0.20389973 -1.89305556 1.70570433 -0.13106851 0.01186434 0.06289413 0.76406181 0.05378827 2.02386880 0.85705274 1.28861046 -0.90612888 2.27770329 -1.06352222
admins 0.90251476 0.85308456 -0.74516839 0.41588792 1.14256167 -0.31037071 -1.41776848 -0.11484254 0.06434433 -2.86312294 2.60503125 -0.46398976 0.01255820 0.94594491 -1.54532838 1.18879735 -0.92689943 -0.92169255 1.03949821 -2.01030493 2.89113116 -0.48735812 -1.99077225 -0.45656702 -0.74137175 0.51887810 0.94806200 0.37631065 0.25061297 -0.87158477 1.14247680 -0.46295950
admiration 1.92313242 0.90336663 1.28675902 1.74847543 -0.29069871 0.24445553 0.34290391 -1.43939054 -0.82838941 -1.33223140 -1.60497999 -1.73806477 2.43713689 -0.77705377 -0.39871570 2.29506540 -0.47904328 -0.20579676 0.17932194 -0.09189350 0.80575949 1.07727075 0.96441132 -0.56062061 0.54504639 -0.01036981 1.06303203 3.75427914 0.70451397 -1.22968793 1.25464880 -0.51299554
admitted 2.45922208 0.26737210 0.38522598 -1.95389855 -0.02929272 0.98696458 -1.79745221 -0.43446952 -1.93204057 -1.36772132 -0.77360857 -2.18024945 -1.12659931 1.68353546 1.01235640 1.71868265 -2.17290545 -0.36326200 1.46519709 -1.34735250 -0.03628282 -1.09835303 0.07494524 -1.50761914 -0.27967429 0.75952095 -0.24411836 1.39413142 -0.54675287 -0.63444293 1.24429584 -0.01701905
adorable 0.55556154 0.86566269 -1.32005382 1.33567750 -1.10088718 -0.79311508 -0.47358790 -1.28132284 -1.79839456 -0.04971661 -2.23830771 0.50093222 1.31450236 1.74804246 0.81130272 0.55957079 -1.33679223 -3.20041156 0.96285444 -1.95311451 0.26703313 -0.80136061 -0.16975529 -0.95048344 0.77656847 1.83560145 0.56085789 1.39984953 1.32580423 -1.72280419 0.69209880 -1.82459307
adrift 2.11141253 0.65023088 0.94432676 2.49448442 -0.65215552 -0.06974182 -1.00597537 -1.51065338 -0.85716939 -2.18922162 0.30642742 -1.33873916 1.50757110 -2.11161232 0.30333114 1.22635722 -0.87172186 -0.84510672 -0.62494230 -1.23180902 0.46034464 -0.02429247 0.20492510 -0.32139599 0.02350341 0.49322787 0.29731485 0.73819321 1.15386415 1.01773298 1.19684482 0.18449914
adventure -0.90263373 2.20473242 0.75541544 0.95525306 1.06873667 1.12949359 -0.67154145 -0.32003853 2.77749634 -0.03461029 -1.26636899 -1.71097732 0.72871101 -1.07859337 -0.35934687 -0.41801921 0.02473141 -0.95753098 -0.15234888 1.27654171 -0.08584366 -0.12643833 2.21835876 -1.86295533 -1.91753304 1.05652916 -0.80622369 0.97252059 -0.68416542 -2.31577539 1.18443286 0.70373493
advertised -0.87645102 0.13020754 -0.28701320 0.76267374 -0.10504271 0.98559713 -0.93526286 0.06855474 -0.73640597 1.37080836 -1.26087165 -0.44090119 1.79697824 -0.70865989 -0.00443620 0.05421912 -2.50372887 -1.40783238 0.86879617 -0.29020450 1.07805359 0.93803525 0.63965511 0.39191413 -0.41861725 -0.46097654 -0.22965351 1.04442644 2.38311958 -2.24505520 2.36573458 -1.50190806
advise -0.93485802 1.11968470 1.50901151 0.48159978 2.44087219 0.57982582 -1.11499989 -0.50431657 -2.60712266 1.79060781 0.48630312 -0.32945514 -1.46879816 -0.71019560 1.22203755 0.49712184 -1.90448141 -3.30902886 2.03352284 0.11304585 0.62638402 -0.53841615 1.16221297 0.42725658 0.22347637 0.59819853 0.34999028 0.13877630 0.83737612 -1.50415623 1.65357137 -1.72554684
aerial 1.91041803 -1.57227290 -0.03709412 0.61555767 -0.16048899 -0.96991694 -0.31976369 -2.26876616 -2.11089206 -0.45779684 -2.25224233 -1.12426305 1.18746948 1.34782064 -0.15898678 0.11001191 -1.42329872 -0.23531684 0.15225172 -3.25081611 1.29821789 -1.04444826 1.68652380 -2.06825066 -1.94236040 -0.33838639 0.15922686 -0.33975813 1.49532878 -1.68755519 0.46712807 -1.68477106
aesthetically 1.86426699 -0.44965240 -0.00865505 -0.11921641 0.10255811 1.67040730 0.89265937 -2.31807137 -2.00101614 -0.05471956 0.07642366 -1.09441280 1.63238120 -1.71217740 1.32029557 2.78646326 -1.48658085 0.01793459 0.78488302 0.91861719 0.84872180 -1.58503795 -0.32248783 -1.45652473 0.11312499 -1.01322043 0.73131812 1.22391200 1.18044543 -1.67440557 0.07411963 -1.05038071
affected -1.19204640 1.22890437 0.99258673 -1.15159750 -0.54142612 0.01201847 0.22625443 -2.49705172 0.59109938 -1.75529957 0.00657786 -0.08279160 -0.93735194 -1.04369855 -0.63948041 0.87078589 0.07815414 -0.65367126 2.42041278 -1.30347252 0.44280884 -0.71512842 -0.39148834 -1.10659885 -2.00220346 1.62953854 -0.72219509 3.06298661 0.83016270 -0.96091473 0.67560256 0.76485288
affleck -1.46475613 1.82737482 0.04920883 -1.87435508 1.39302731 1.12263966 -0.13062127 -1.00647485 -0.25829953 -2.43289685 -0.22476226 -0.78527409 1.68810558 -0.30823654 1.10492361 0.84716070 -1.24507046 0.68004107 0.13939723 0.18104224 1.56216240 -1.78543806 -0.02898235 -1.12393773 -0.70376039 1.27233946 0.75772548 2.35061526 0.83483636 -0.60544664 -1.34804499 -0.39140868
affordable -0.45661485 0.29113334 1.52081621 0.15290849 -0.99511683 1.42692232 -1.11154330 0.04667860 -0.55146229 -0.57311511 -1.48321915 -0.56321764 -0.17495331 0.48378131 -2.67339969 -0.83694750 -1.00647616 0.18961874 3.43101788 1.74485898 2.40578604 1.97137964 1.40345848 -1.89092422 -0.62760001 0.88111466 2.09428024 1.26587415 2.07176065 -1.12584221 0.50832492 0.89369011
afraid 2.15923834 2.47081137 -2.18849206 0.84477651 0.21226998 0.04280188 -0.64627331 -1.69800270 -0.31004879 0.15172303 0.80456567 -0.73241997 1.96091747 -2.34400415 -0.91947854 1.86382639 0.08333366 1.97835970 1.66436493 -1.18098021 1.03398693 -0.51596498 1.59703887 -0.32082385 -1.59718823 1.00190830 -1.25348878 0.46287149 0.01968297 0.50309908 2.83970070 0.13101901
africa 0.28464592 2.09871340 -2.19721413 -0.47567865 1.34884572 0.92205596 0.40825823 -0.92465377 -2.65050244 -0.66641623 -1.15044630 0.30842513 -1.79906690 -1.61203694 -0.87475860 -0.31014699 -0.05739516 -2.45403647 1.62644804 -3.47429776 0.65148759 -1.57837403 0.92407936 -0.84143662 0.32732090 0.63451475 0.31102118 0.75529140 0.12836413 0.94339138 0.57858306 -2.26687860
after 0.40420496 0.34702688 1.16834104 -1.25430238 0.73562849 0.59048039 2.69289923 0.51129866 -1.31891084 -1.92283559 1.43973899 0.71723503 2.45646381 -0.00719121 -0.11477215 1.15265882 0.51469129 -0.45670140 -0.78507447 1.02373803 1.13238418 0.21509811 -0.17084979 -0.31028101 -1.61762381 0.53270298 -1.06049418 -0.12474341 0.03920839 -0.83683825 1.42917871 -1.20468116
afternoon 0.75176221 0.88416368 -2.44800305 2.12274957 -0.26997980 1.59495127 -0.87884110 0.47414085 -0.97965580 0.61295569 -0.37800524 -2.61672997 -0.33952603 -1.48909831 -2.60302472 2.06533289 -1.06370938 1.24085629 1.37787557 -2.85385728 0.17022933 0.22405352 2.76091313 -1.84484220 -1.48708737 3.04856420 0.69992578 0.41470900 1.80136967 -1.15842426 -0.74962586 -0.30250973
again 1.13629389 0.88778615 -0.29385978 -0.23213275 0.00556459 0.85052150 -0.03820809 -0.21123150 -1.64552820 -0.99358207 2.73679090 0.45922118 0.21473736 0.76926798 -1.26911235 -2.25583100 -1.81195331 -1.10131299 0.91499645 0.20449439 -0.22553594 -0.62117052 1.17732835 -0.68239522 -1.34086990 0.86482203 1.53118169 -0.60253161 -0.29646602 -0.38903731 0.31419158 -0.31525317
against 2.19928789 2.12892413 1.29694438 -1.56834018 -1.01821172 -0.65949374 0.19040589 -1.36326492 -2.66292906 -1.72804987 -0.54780984 -0.54800516 -1.47097039 -0.66567379 -1.95844281 1.16302812 0.37726805 1.36912835 -0.16514115 -1.06277645 1.43324804 -0.27993441 1.87689769 -0.06678400 0.38177636 1.09943831 -1.01433504 1.76264143 2.54794192 0.04501684 2.92875743 0.64238727
age -0.08254518 -0.18291622 2.40450239 -0.77981287 -1.74933434 2.03801656 2.00790429 -1.22636259 -2.08569288 -1.57828259 -2.23482990 0.03525007 -0.07353649 -0.94205087 -1.56578410 -0.01723827 -0.74844891 -0.49191752 -1.55823267 -0.55224544 1.84842038 -0.97168958 0.58020502 -0.81167829 -1.54354382 1.48478663 1.53285050 -0.04394175 1.41093087 0.41691616 -0.57417125 -0.43834406
aged 1.18790841 1.84590590 1.60588968 0.05701698 -0.77876109 1.60377240 0.80416214 -0.94061440 0.60475135 0.28007379 -1.55503750 0.00753806 2.30056643 -0.50571293 0.83786118 1.10350358 -0.96509665 0.99945366 1.50371659 0.86265463 0.40132686 -1.60049868 0.74222666 -1.33753562 -2.13916993 0.02457801 -0.04714911 -0.31841615 0.25001448 -0.61858845 0.02712779 0.22604591
ages 0.31272197 0.56869602 0.68378490 -1.12201035 2.04666829 -1.76368546 0.60079902 1.18433750 0.77787203 -0.37394977 0.13913620 -1.96020949 1.18280101 -1.70016956 -0.28422463 0.26452744 -1.47856569 0.43282312 -0.17723201 0.90201581 2.32956290 -1.51173115 0.58966386 -1.46176994 -0.92957014 1.48080492 -0.39342201 1.24651229 1.32079577 -0.73391682 1.21884215 -0.74174458
aggravating -1.06623232 0.61606646 -0.34772655 -0.00913228 -1.11448073 0.29157519 -1.77221417 -2.39476132 -0.66022164 -0.63961238 -0.81324404 0.22644925 0.99540418 -0.96007681 -0.25687119 0.58987033 -1.08623922 1.20558167 0.36589622 0.85208404 1.80600572 0.63747638 0.42306975 0.42076340 -1.26267493 0.51854664 1.22703111 0.25136426 0.24756758 -0.78252846 2.09275150 -0.35513774
ago 0.35030308 0.35890990 -0.51717579 -1.53234339 -0.03049143 -0.27741030 0.60104817 0.40014854 0.31039029 -1.49826717 0.99308234 1.02745152 0.76930833 0.93016726 -0.39929083 0.58090597 0.66511834 -4.12622643 3.60498524 -0.25895405 1.61621428 -0.85042012 1.55847776 -0.73700267 -1.64271057 -0.12177095 -1.28712642 0.56410754 0.35983709 -1.42739546 0.40431878 -0.89383572
agree 2.33658981 1.46252513 -1.07027853 -2.29707670 -0.10207002 -0.13629195 -0.23172478 -0.50826240 -1.50635731 -2.01793242 -0.31501544 -0.76920956 -0.98776495 -0.34400991 -0.66628540 0.50955743 -0.57440346 -2.03616762 0.08659677 -0.77396417 -0.84616876 -0.75398433 -0.43291107 -0.62378341 0.26892602 -0.39110339 -1.22197545 0.87683547 -0.27830273 -0.96209490 1.11014628 -0.70475799
agreed -0.61780322 -0.36111230 0.59852368 -0.61100727 1.50387585 1.39136696 1.95894873 -3.13376021 0.12030452 -0.93533570 -0.48254362 -2.31308818 0.08041745 -0.43357259 -1.18814290 0.51078349 -1.01018643 0.74513954 2.20600271 -1.07384753 0.57194877 -1.40646720 1.73222733 -0.33852038 -0.37204546 1.25605536 -0.96931803 0.62447691 0.22034027 -1.44756639 1.27923965 -1.05949950
ahead -1.20485723 0.63565290 2.21771669 0.71196783 -0.69527876 -0.63032144 -1.27871192 -2.06619096 1.00100327 -0.85368532 0.71103346 -1.24132812 2.75580215 -0.87422115 -0.08738875 0.58630174 -0.34120736 0.38275519 3.42762852 -1.98821282 0.32102641 -1.03075099 1.08702159 -1.92251837 0.85820198 2.22849393 1.50137568 0.09810773 0.76794374 -2.38361883 -0.38778070 -0.95292950
aimless 1.31951070 2.37175250 0.25451472 -0.63702458 -0.04626047 2.49546409 0.03744855 -2.78227544 -2.09128833 -0.05618971 -1.78413069 0.34939495 -0.09113773 0.58893585 -0.17827936 0.96826547 0.11572536 1.32408452 0.12417738 -0.83864135 -1.01181555 -1.09488487 0.21695563 -1.14201725 -1.80195081 -0.05407888 -0.01772910 -0.30173016 1.85636258 -1.28384686 1.91562438 -0.47293735
air -0.65331072 0.45922622 1.10065949 -0.98222393 0.91194528 3.26749587 -0.22636759 -1.78658211 -1.06035686 -1.10540819 0.69310480 0.56223851 0.94437569 -2.96523976 1.15371466 1.96025312 0.66225874 -0.77683800 1.61887217 -2.52912283 0.30876377 -0.26043096 0.44964078 0.74405104 0.12728277 0.05103040 1.92777824 1.81945992 -0.98560584 -1.09134591 1.95342839 0.38345361
aired 0.15366681 0.16179298 -0.19764951 -1.31373298 1.23904514 1.17894590 1.18787956 0.55947858 -1.25527155 -0.05116808 0.04287371 -1.66067553 -0.37500992 -1.73625147 -1.32642603 0.68557531 -1.36150491 -0.04184815 0.76903135 1.00892818 1.05716085 -1.96658432 1.28477168 -0.21052207 0.08453861 2.25858188 0.67473751 1.23555565 -0.10496952 1.11228704 1.80783629 -0.22367769
airline 2.61097550 1.48097908 -0.68674934 1.31368828 -0.22426376 0.88556248 -1.70229828 -2.29014587 -0.09718011 -1.59899342 2.15873289 -1.57863951 1.18674958 -1.14503849 0.36499226 0.09456032 -0.80709529 -0.80580407 0.24676102 0.54206842 -0.72845656 0.17520344 0.59659940 -0.51282972 -0.30196354 1.49953866 0.97590894 -0.61743730 -0.33309045 -3.01190495 0.28081998 0.02578018
airport 0.66702175 0.95759028 0.99280661 -0.07347032 -0.36641896 0.34125170 -0.91829467 -0.13144448 0.80415076 0.24815543 1.16377687 0.56876218 0.56104606 -0.63896745 0.28088841 1.37372339 -0.96422189 -0.44498852 -0.47049552 0.02508647 0.60075247 -0.28319767 0.73850125 -1.61300111 -0.91915452 1.19509411 0.98443246 0.09533093 0.99224776 -0.64299381 -1.72363448 -1.25498331
akasha -0.10446385 0.75244957 -1.61928368 -0.18795729 0.44445485 0.28047723 0.22231206 -1.53887987 0.38632208 -0.94656354 -0.88535970 -1.03007782 0.36992016 -1.43187904 -0.53504723 0.05971887 -0.75702542 -0.15003464 1.55637014 1.06069064 1.50758135 -1.56563306 2.77990246 -1.38323498 -1.17603445 1.30778265 0.19777994 1.75872421 -0.81364292 -3.01151228 -0.74507141 0.75647974
akin 1.92648041 1.47039282 0.11439673 -0.15424564 1.14041519 -0.04403229 -0.83067107 0.29923430 -0.32593560 -0.27939090 0.34969756 -0.39065939 -0.22604825 -0.17835292 -0.98899668 0.55601263 -0.30743784 0.72493911 2.25849104 -1.30373335 -1.66597855 -0.59957737 0.08334166 -0.70048630 -1.64249146 1.59672129 0.17890938 0.86703932 0.05317710 -0.25003874 2.45132756 -0.03346537
al 0.39333004 1.27262914 0.92763656 -1.10920632 0.55972558 0.48027343 -0.97039133 -0.86969787 -0.09052431 -0.90444267 -1.75196826 -1.14398265 0.46530658 -0.94027627 -0.98949158 1.18050909 -1.47435713 -0.46933591 1.03631985 -0.61643523 0.31501809 1.46075559 0.25470236 -0.93784153 -0.71585292 0.55320758 0.75066912 1.04582131 1.00378227 -0.68047982 -0.51392996 -0.97495025
ala -0.10006444 0.02138742 0.91403514 -1.97847402 -1.29455769 -0.60859960 -1.26361656 -1.05318940 -0.29080418 -2.25160313 1.43233705 -1.51946843 1.59253573 -1.78123283 -0.70847017 -0.51760906 -0.45094922 -2.03412223 1.27339995 -1.18591952 0.82206577 -0.03197959 0.04894712 -0.40068516 0.50969678 0.65613770 0.42119050 -0.12349281 0.33573565 -1.02169418 1.68953609 -0.47530124
alarm 0.35162714 1.07565641 2.17117763 1.16575468 1.16161644 1.15257859 -0.37599650 0.88367224 0.84119582 -0.98090482 -1.74904776 -0.83196664 1.83841169 0.65451944 -0.73823631 0.26706406 -0.46200451 -0.23128112 1.72321105 0.37261143 2.25306964 1.46585631 1.69495320 -0.42246288 0.17405502 2.20966220 0.07197369 -0.65493941 0.49350882 0.79220271 1.73843622 0.44992518
albondigas 0.42805874 1.90147913 0.77343178 -0.06270835 -0.92416441 0.36744088 -0.18266143 -1.86977458 0.19991976 -0.47380942 -0.22197065 -1.05021274 1.34060895 0.37211210 0.00688795 1.14359868 -1.61151993 0.25858551 2.20472074 0.62042284 0.64803720 0.49427623 0.92403620 -0.04803308 0.80251372 0.75770551 -0.78287894 2.44903278 -0.47400036 -0.68712407 -1.55330575 -0.68054909
alert 0.99752820 1.56839585 -0.46278849 -2.81369710 0.31967312 1.37401974 -0.06956828 -0.82680267 -2.63899493 -0.23345202 0.02865673 -0.86663890 -0.68772501 -1.46540987 1.62388265 -0.96917826 0.27294204 0.24438794 0.83714312 1.23464358 1.08776188 -0.89683199 0.35581273 0.32414570 -0.34474605 1.50258315 2.03601789 1.79414821 1.80539787 -0.83661765 1.58083558 0.09844394
alexander 2.66490149 -0.24289182 -0.17816186 0.37884316 -1.15709054 0.53015989 0.59381795 -2.89681315 -0.15501048 -0.12781003 -2.09911084 0.43472731 0.41955432 -0.81656307 -2.09825897 1.55091655 -0.40090722 0.47937793 1.30554819 -0.47555801 1.58474493 0.29528692 1.29274738 -2.06569552 -0.22144169 1.93666625 0.47453463 0.48250693 -0.60772401 -0.20916718 1.38174045 -1.18698311
alike -1.04700673 -1.41220319 2.61474252 1.42401123 0.03329265 1.33743966 0.61499745 -1.12343502 -0.26315382 0.03050158 -0.61565626 -0.88490599 1.55066609 -0.87227386 1.64628625 -0.34652531 -0.78470397 -1.68842244 1.05598438 -0.48369786 1.95204580 -0.38806072 -0.35381681 -1.55996382 -1.06130302 0.49345812 0.43196419 3.80119801 0.16412178 -0.42011338 0.03816823 -1.83734024
all 0.32672995 1.13554287 1.74066341 -0.14796695 0.60013580 0.18309180 -0.49986595 -0.85708255 -0.15218125 -0.47103980 -0.51289850 0.77967459 0.56057519 -0.50268215 -1.09311092 -1.30167341 0.64770097 0.21995918 0.01351771 -0.13767050 1.32364750 -1.18020999 -0.43930429 0.53839654 -0.85712135 0.42700124 -0.54369318 0.19775268 0.45336133 0.55095202 0.18541110 -0.85000563
allergy 2.89897394 2.87633872 -0.11185560 -0.17235258 0.41850486 1.91375268 -0.40362552 -0.84196097 -0.41024396 -0.38217279 -1.12501597 -1.27952135 0.57763433 -1.36018407 -0.28687751 -0.32062808 -0.01683689 1.03143835 2.24980927 -2.26225686 0.84850603 1.84659255 1.23401487 -1.39379585 -0.04718495 1.19393432 1.03286326 -0.03952818 -1.42456973 -1.69326937 -0.68757254 -1.50142550
allison 0.73919564 1.54834652 -1.43747473 -1.08086026 1.47821331 1.44236624 0.87233043 -0.90424269 0.11096983 -1.83336365 -0.01857818 -0.62635291 0.14788963 0.60325867 0.35080859 0.51045418 -0.05375052 0.32780313 0.75435877 -0.96443933 -0.04161541 -1.25514758 2.12376857 -0.96524227 0.30931309 1.19645584 0.94686466 0.39048484 0.52042270 -0.88081723 0.62455201 -0.52672768
allot -0.39611048 1.14834011 0.78119540 -0.15313715 0.83251780 0.69202214 0.22729380 -0.75216037 -0.61901087 -1.92483234 0.11514261 -1.24156451 1.60869420 -1.14564300 -1.99682510 1.37151575 -0.10637423 -2.50576758 2.10866547 0.97994131 0.00366168 0.97026229 0.09816314 -0.19216044 0.11425604 1.81535757 0.60885745 1.38328481 1.54426336 -0.95673442 1.57371867 -0.52302128
allow 1.61962986 -1.08799303 0.56922179 -0.22415444 0.16348897 1.47853410 -2.62562490 -0.50593811 -1.06456554 -0.28996754 0.85002095 0.70086217 -1.56921875 -1.60705733 -0.12753457 1.42427766 -1.09801066 -1.18568671 0.70469290 -0.04132772 1.96610177 -0.52865177 2.46899343 -2.75721049 -1.18628907 2.06949377 -0.92876613 0.00419818 -1.18126357 0.18711329 2.75184298 0.53520721
allowing 0.59836471 2.27985215 1.84480953 -0.54469723 2.30278897 0.24469808 1.23987365 -0.55964822 -1.31680703 -1.59486151 -2.70947409 0.17696732 0.33698845 -1.51862645 -0.61287713 1.04814088 -0.50160873 -1.44633031 -0.36819381 -1.23700106 -0.01854247 -0.85154516 -1.49203813 0.19482483 0.09221880 0.67786515 -0.88960838 1.60185015 -0.62397188 -1.79179895 0.69015682 1.00558817
allows 2.04830027 0.65627509 -0.46078038 -1.42495441 0.27503049 -2.43612385 1.08626723 1.18067849 1.93011642 -0.78296155 1.46690536 -1.56830633 2.22905469 -0.58800906 -0.32370016 1.55379665 -1.74192560 -1.12416542 0.45583430 -0.89298087 0.40905762 0.47852072 0.89855140 -0.93890232 -1.88984847 -0.38561320 -0.44858429 1.57822621 0.49145618 -0.62942511 2.31067014 -2.26781940
almonds 2.84304118 1.24823773 1.10460043 -1.40074420 -0.71093494 2.32584858 -2.39051032 1.50283790 -0.37061000 0.48504475 -1.94782686 -0.70980012 0.52706617 -0.68638933 -2.00891376 2.35948443 -1.90114212 -0.43581820 0.30898747 0.25377473 -0.28120911 -0.87143403 -0.52294636 -0.83045548 -0.35806790 0.95295829 1.48056567 0.96821982 1.05891895 -0.44277209 0.79636240 -2.60061932
almost 0.79986084 -0.03304838 -1.03609014 2.52054501 0.29540899 2.46750164 0.64826572 -2.73756409 0.95286554 -1.66647470 -0.46471965 -0.44603729 1.49263191 -0.69628412 0.07554071 1.19933605 0.20521897 0.90651900 0.55452156 -0.05480230 -0.47239977 -0.88200063 1.63142169 0.24673221 -1.41696680 0.21022683 0.15623197 1.66789067 0.85725302 -0.04272711 0.28057101 -2.14991713
alone 2.95988011 0.61600065 -1.14023125 2.16960979 0.89293045 0.14517534 -1.09583628 -1.67690766 -0.92193490 0.59728122 2.27157378 0.34118244 -1.34584093 -1.91804063 -2.96842051 1.42035663 -0.41947049 -1.11038017 0.59607637 -0.46527913 1.14055049 -0.78286642 0.85262841 -1.18479240 -0.83843917 1.60033846 1.83039343 -1.31799722 -1.25472414 -0.69604957 1.25704288 1.38835299
along 0.79345042 -1.36775875 0.52683949 -2.47657895 2.02645683 -1.52200162 -2.76538253 -1.35985804 0.31049731 -0.94987905 -1.66341650 0.86440486 -0.10929870 1.31616437 -0.28781208 -0.97946942 -0.11119922 1.21133733 2.51504922 -1.56783307 2.38665509 0.35619351 2.21883631 -2.46623993 -1.31010497 -0.89391720 0.05040243 -0.10705651 1.31420720 -1.85740995 0.06701557 -0.96968007
alongside -0.79238230 0.16563906 -0.20852223 -1.41810942 -1.14232218 0.61911064 -1.26531565 -1.69913042 0.76542288 -0.69767660 -0.83247328 -0.44192773 0.25906175 -0.25112244 -0.19119619 1.53846812 -1.63040674 0.42385975 0.91792071 -0.05237698 -0.49063751 0.17758276 -0.36152491 -1.09731877 0.38266230 0.83614898 -0.20608513 0.12140165 1.12216949 -0.20032249 -0.59776992 -0.77231216
alot 0.81998521 0.65139532 0.93847609 0.76675135 -0.48366991 -0.51214856 1.32595241 -0.08609051 -2.25501561 -2.01464987 0.30749768 -0.30717438 1.51582932 -0.50381619 -2.00265455 1.58089721 0.72958177 -1.40355134 1.25586295 -1.09232044 -0.37120482 -0.58533716 -0.50868082 -1.82225800 -1.21602309 0.64150190 1.22262728 1.32725680 -0.76949197 -1.52655804 1.81769717 -0.45118147
already 1.77879071 0.82226664 -0.83448732 -0.93712485 -0.36091855 0.69471806 1.30888534 -1.17526972 -0.66713673 -1.94962680 1.16426241 1.63402843 0.55056912 0.11020853 0.44253582 -0.25945061 -2.04379702 -0.14736088 0.59487158 0.98573399 0.54535818 -2.20062637 0.45184034 -1.05199087 -0.34109303 1.58471072 2.06911659 0.87691832 3.19372129 0.97060782 2.91086602 0.66106677
also 2.31679487 1.34343457 0.59367138 0.92156464 -0.00090608 1.74991965 1.01672494 -1.11006176 0.22679210 0.64148664 -0.88805383 -0.44231433 1.66759849 0.38186097 -0.64755213 -0.99145865 0.12909368 0.02996754 0.67673236 0.21090315 0.94731444 0.20818771 1.18958271 1.30456901 0.41245359 0.26780894 0.69829607 -0.65711111 0.24645965 -0.05932801 0.15418932 -1.20825434
although -0.57819659 2.06306672 -0.24258655 -0.19395791 1.94593513 -0.11454135 0.79755437 -0.60463721 0.90656883 -0.73758143 0.08524479 -2.58458161 -0.04264592 0.39124891 0.72377062 1.34992588 1.44417357 -1.74272835 0.13077444 0.52402169 1.84324431 -2.50932527 1.76406240 -0.78584826 -1.41473973 1.06248403 0.79208153 1.19705772 1.54380620 -1.62227058 -1.00292909 -0.05406544
aluminum 0.93655878 1.08157325 0.16371243 0.65330857 2.45712233 -1.50500619 0.40149379 1.00648630 0.28394225 -0.71118444 -1.07029963 -0.69822091 0.30098477 0.64696312 -1.60370421 0.40432900 -0.72485858 -2.62171602 0.99251544 -0.44958782 1.35297692 1.29164743 0.40571037 0.13470988 1.50587380 0.90171146 1.30491519 1.41129148 2.33423328 -1.09684801 0.82791209 -1.40408623
always 1.20000541 -2.36668491 0.35638753 1.02221704 0.00437050 0.69731021 -0.69190824 -1.26006114 -0.92356151 -2.29327440 0.20251110 -0.19643784 0.86925793 -0.93890309 -0.88372302 0.31432265 0.39336833 -1.68417585 1.92646718 -0.78595805 0.16762726 -0.21165752 2.23325157 0.89066136 -1.62794852 0.28965890 0.51904750 0.02281300 -2.05776215 -1.57222819 -1.71489644 -0.47990653
am 0.33346832 1.45709920 1.13785768 -0.85198176 0.83851606 0.83552206 -0.74483657 -0.51568794 -0.74537146 -0.39945275 1.67721200 0.54319221 -0.69988585 1.16268754 -0.85724515 0.41058111 1.18277884 -2.05020165 -0.60788882 0.84617382 2.47644377 0.25531775 0.67114621 -0.41650909 -0.60115016 1.84825599 0.10849033 1.24484062 -0.65315878 0.12911995 -0.37920207 -1.54407334
amateurish -0.28190142 0.33783439 -0.32719973 -1.39252818 -0.35974655 0.04444848 -0.96728051 -0.82725686 -2.02835536 -0.40510437 -2.33313107 -0.73730034 0.72904360 0.82295501 1.06532049 0.12087566 -1.69658971 0.87709266 0.91558468 0.19105722 -0.54006982 -1.74810135 0.67854649 -1.58899391 -1.86575127 -0.38410246 0.96578676 0.28045115 2.33775735 -0.37503770 1.73740864 -0.20134658
amaze 1.60842824 0.30073935 -1.20871329 0.12774940 0.03659310 0.48228231 -0.64566076 0.97602981 1.36901402 -0.85130280 0.95124048 -2.32261181 0.86547017 0.39270410 -0.70886445 0.75727361 -0.84507829 -1.90121257 0.62623715 -0.13200749 0.89589608 0.84731746 1.30880046 0.56299466 -0.49155280 0.92144305 1.58370793 -0.26031300 0.27202111 -1.51513553 1.90717471 0.16665798
amazed 1.08311927 -1.80926561 1.68990517 -0.97052091 0.74258691 -0.17931569 0.86502182 -0.36433485 -0.18334480 -1.40817666 0.51846468 1.76830375 3.02413249 0.58355880 -1.00643134 -0.63971800 -0.74274987 -1.12396669 1.04290915 0.92855859 0.44557828 -0.36274076 1.76352632 -1.75919127 -1.82162774 0.74822676 -0.96624184 0.35152519 -0.65223384 -1.07376230 1.02865052 -2.48335576
amazing 1.82444906 1.00909579 0.74973750 -0.73203176 -0.78442729 -1.25627840 0.24056847 -1.39878833 1.18521321 0.71470416 0.24254388 -1.22567558 0.51492506 -1.31685483 -2.67514062 1.27961326 -0.22517006 -1.36080217 0.42005679 -1.33227015 2.23525357 -0.56062526 1.66842663 -0.67972857 -0.27597916 -0.35978264 0.07285262 -1.56367469 -0.50603825 0.22171901 -0.56110740 0.23258710
amazingly -0.15911295 1.16022849 0.14875340 -0.47998896 0.45092565 0.25801054 -0.18521464 -0.07326704 -0.75116408 0.01710908 -2.47270584 0.48726025 -0.87374473 -1.20853603 -1.36572587 0.02906943 -1.43787670 0.75249940 1.61257625 0.46357921 -0.39373767 0.03632943 -0.07016602 -0.13037245 -2.54013276 1.07848895 1.04020989 1.51584637 1.35995173 0.12518117 -0.74815524 -0.10123187
amazon -0.04283236 0.28584036 0.07924978 -1.67634904 0.77847910 0.25220731 -1.18967223 -0.73458236 -1.02220857 -0.80260110 -0.68062210 -0.61959672 -1.20552266 1.19244087 -1.00331342 0.16506012 -1.48238444 -1.72331047 0.48364750 0.11510479 1.06080592 1.19920778 -0.05514850 -1.12388659 -0.16590810 0.07430910 0.20303343 1.00742424 -0.38144243 -0.61991143 1.03880060 -0.08859571
ambiance 2.91818357 -0.58108366 1.74892604 0.03179792 -2.45067453 1.48622119 -1.25487053 -1.44283581 -0.75826287 -1.46098030 -0.81592745 0.63402182 1.54194748 -1.31218147 -0.90324438 0.79979551 -1.28116190 -1.16515696 -1.27037644 0.55780137 -0.30389965 -1.28217280 1.69302392 -0.37303084 -1.86260533 0.04991121 1.79248881 -0.54807794 0.18463148 -3.00997686 -0.37182474 -0.55624574
ambience 2.72849846 1.99105990 1.91481900 -0.15957923 -1.43609333 -0.40288371 -1.18815041 -1.76556921 1.01295519 -2.60940337 -1.91263342 -1.18951726 2.19859576 1.56444728 -0.70836741 0.58462083 -0.84961075 -1.01770437 0.35694453 0.49814275 0.56284887 -1.40512431 0.98871839 -0.28930333 -1.63710046 1.10915744 1.08355176 -0.24024622 -0.83756965 -2.14006186 0.13141681 -0.22702488
america -0.61756563 0.47203428 -0.46502373 -0.97442269 1.79270995 1.00868809 0.28747213 -1.41284001 -3.25410223 -0.53658438 0.63599449 0.05179418 1.15154326 -2.25450873 1.79845881 1.01273310 0.27965337 1.18001771 -0.21173790 -0.33883691 0.71698028 -0.40417752 1.71689749 -1.12182570 -0.75687778 1.96201241 -0.03422398 1.47949624 -1.96660280 -0.90464139 0.87889481 -0.80079347
american -0.85666555 0.08373055 -0.83150691 0.22356501 -1.97886384 1.55796492 -0.84332711 0.08576100 -3.51344442 0.50644380 -0.04548444 -0.70616126 0.59164453 -2.26192236 -1.82304597 0.28996089 0.07306340 -2.24892497 0.38882768 -0.99174058 0.25337788 -0.19533837 2.66222215 -1.10313702 1.55393648 0.26901957 1.28945875 0.87490255 2.23196054 -1.13505960 -0.17896244 -0.31597471
americans 1.18847406 1.35387361 0.09719457 -0.33712360 -0.05332400 -0.03754793 -2.70660067 -2.53457761 -1.83713460 -0.66450614 -0.30332533 -0.98564154 -0.79162663 1.52145541 0.77066064 0.42071173 -1.29830539 0.80249417 1.82686698 -1.54386151 -0.57398421 -1.07667804 2.47305512 -0.50451851 -1.15093565 0.90144074 1.15165901 2.13420725 -0.16908234 0.98529857 1.38472688 -0.67758280
among -0.46209913 -0.84497994 2.71993470 -0.26041749 -0.42311108 1.79844177 1.03742194 -0.71715438 0.32150713 0.24701752 -1.15749788 -1.74019027 1.06616354 -0.10572547 0.92676145 0.87534440 -0.34606388 -2.00148153 1.00316346 0.08607502 1.85735011 -2.02069020 -1.31671023 -1.15447891 -2.30401111 0.63848144 0.28751838 3.19005346 0.24506904 0.18160740 1.16740346 -1.78973746
amount 3.96394491 -1.33758104 0.54565603 0.95682210 -1.75485063 0.65057331 0.01975229 0.29752576 0.72193122 1.46218526 -1.16806257 1.18070102 1.72140872 -1.28599644 1.20013404 0.29342139 -0.67728913 -1.82118237 0.69096005 -0.27980626 0.99791574 -0.24770783 0.43128213 -1.19553518 -2.67303967 2.54468942 1.30596602 1.71690774 0.55698425 0.65330821 0.24817672 -0.54646933
amp -0.37088460 -0.83068401 0.19628461 -0.92293978 1.02654004 2.43863702 -1.37542510 -1.53569925 0.32616898 0.42748880 -1.27523172 0.16411461 0.84780121 -0.84757131 -0.75527763 -1.60641575 -0.65049106 -0.00658479 1.58610344 -0.56910336 1.65744746 0.14142716 1.34004736 -0.83121949 1.11230409 1.19270432 -0.78534269 1.30658662 1.38104165 0.24447696 1.97671890 -1.53788984
ample 1.31905937 1.02545893 0.30378035 -0.52433604 -1.04588151 0.09138849 -0.00605147 -0.22130869 -0.59362483 -0.93201321 -1.40942383 -1.04063034 0.27894703 -0.55930728 -0.34837350 1.75884175 -1.10203862 -2.55885530 -1.27190077 0.58600998 1.14177191 -2.38006997 2.06417060 -0.82879686 0.16659766 1.11320555 -1.08233178 -1.51402497 0.11564274 -2.91915679 -0.60975635 -0.58927095
amusing -0.95300138 -0.41528454 1.92505491 1.48781049 1.86115074 0.53244334 -1.36468863 -0.57919842 -0.35029709 0.33396301 -2.09848309 -1.06479824 0.44200554 0.21574770 -0.37787569 -0.14326970 -0.80940396 -1.59611821 -0.14183837 -0.37287992 1.04078579 -0.72016418 1.32800508 0.01367835 -0.92012846 0.87443572 -0.18999846 -0.28231445 -1.10313344 -1.65614808 -0.08070583 -1.64917934
an -0.19427645 0.85062164 0.41351709 -0.26605013 -0.56764448 0.89740860 1.33261931 -0.30625978 -0.30454403 0.45009151 -0.23628837 -0.27745879 0.09991913 -0.88759619 -2.05018234 0.98751235 0.63315111 -0.77860451 -0.12305155 -0.75849086 0.50272483 -0.86481470 1.31879127 -0.55292982 0.36837745 -1.16520011 -0.30280787 0.28123513 0.47336018 -0.14379247 0.15118489 -0.21190405
analysis 0.10410859 0.81815493 0.85508448 -0.96964395 0.21014845 0.12796748 -0.54533249 -0.43442231 -0.02510408 -0.96902269 -1.30193961 -0.79702085 0.22889425 -0.97592348 -0.53709692 0.97465557 -0.96403122 0.11541002 0.68702024 -0.85643047 0.80614585 1.28099775 0.53694284 -0.74180406 -0.68442345 -0.06074502 0.19867526 0.95165581 0.54079831 -0.44181183 0.56760275 -0.72838205
anatomist 0.49578488 1.26529002 1.08792865 -0.31076348 -0.27828380 2.20432615 1.12848175 -0.61287493 1.11342931 -1.34563041 -2.05035043 -1.82076442 1.41264129 0.17081775 -1.71263540 0.97746456 0.25614706 0.70891112 2.00533962 0.55890709 2.36193705 0.17741577 2.20967460 -1.82018769 -0.33909667 2.58380747 0.87242472 0.26447576 0.09365889 -1.96837866 0.33060935 0.21860284
and 0.47728661 0.03370907 -0.00263892 0.12068005 -0.04310240 -0.15957701 -0.15453334 -0.00690917 -0.28492123 -0.07943254 -0.20519941 -0.21127141 0.55722255 0.27552134 -0.32522511 -0.17245141 -0.07559732 -0.27441770 0.00237004 -0.64124310 -0.02375427 0.14916565 0.24603404 0.05436583 -0.37612888 0.15819339 -0.23043136 0.26335323 0.28468335 0.15060224 -0.54955512 -0.32199395
andddd 0.74007332 1.86907351 -0.33008635 -0.01024523 -0.04973252 -0.34288895 0.89157337 -0.60046071 -0.67107922 0.47000107 2.27564502 0.13603503 -0.49716976 -0.12155274 -1.02531993 -1.34136951 -2.79447794 -1.17714417 1.78045845 -0.68279254 1.03969085 0.87712538 2.39684916 -1.86588204 -0.82034618 1.89274633 -0.12084113 -0.05981135 -0.82322299 -1.17524552 0.22913167 -0.32815799
angel 0.93982238 2.84145141 -1.71787143 -1.57339478 -0.08828333 0.97351956 -1.52634609 -0.52586174 -0.99068421 -1.43220770 -2.35856557 0.18988974 -0.81604248 -1.56653333 -0.27306470 1.16140354 -1.35231626 -2.10051441 1.24287772 -1.14517248 0.23664820 -1.50323427 1.04075146 -1.43485165 -0.55701894 0.53287739 -0.61134899 1.79570043 -0.40227759 -0.35934356 0.72535193 -1.01425934
angela -0.14663656 1.67405510 1.97794771 -0.09800902 -0.25229850 2.08075833 1.46032023 0.92279619 0.52312142 0.61849260 -1.69716215 -0.41874599 1.29419398 0.52361304 0.03970889 0.71443236 -1.41466475 0.23125674 1.09328532 0.98051351 0.77401388 -1.38893795 0.50504297 -2.15333652 -0.43325764 -0.08512124 0.60270458 1.02370751 1.94372833 -0.45259437 1.17610788 -1.20289016
angeles 1.83292043 2.18398046 -0.74278522 0.57800084 0.75535882 2.16227031 -0.81462598 0.07943238 -2.02479339 -2.13351274 0.56610447 0.06021037 -0.20299006 0.61096609 -0.38866207 0.11501124 -0.84668177 0.40918681 0.93501145 0.38203004 2.22931290 -3.26997685 -0.15486088 1.17627740 -0.06747600 2.21782184 -0.07261520 0.63106519 1.81625915 -0.56527799 0.67214900 0.35265714
angelina 0.45476520 0.70654768 0.92512631 1.71691453 -1.10064256 2.86384678 -0.77350718 -0.41702983 -1.09530616 -0.40201500 -1.39655721 -0.51684248 -0.66364419 0.25424513 0.00541246 0.09955647 -2.43059850 -0.33651152 0.46133849 -0.56632835 -0.61960775 -0.06631210 1.41081953 -1.44044912 -1.44970572 1.95717347 -0.72822559 1.35279298 0.65535998 -1.19204819 0.17130630 0.52836037
angle 2.43192196 1.39688981 0.58911085 -0.67844218 1.15850341 2.56024075 0.92556602 0.30130863 -0.13714130 -1.57277966 -0.69832253 -0.82836276 2.62445307 -1.98251438 -0.23768148 -0.35096851 -1.35815656 0.57664555 0.00734175 0.50575036 0.55130172 -1.09592426 1.27700686 -0.46779987 -1.05736041 1.59040570 0.84893423 0.54295826 -0.57956755 1.99307120 2.35816431 -2.30359793
angles 1.16894615 2.24021101 -0.52383101 -1.41139531 -0.75128484 3.05637026 -0.76212597 -1.21411288 0.40307561 -1.38932979 -1.83194697 -1.15920603 0.98716432 -0.45367208 0.51549107 0.18450446 0.02497459 -1.30075467 0.03589080 -0.23588055 1.11663866 -0.27658820 1.82491529 -1.69939733 1.60618329 -1.33166635 -0.17255297 -0.08676770 0.00810616 -1.97427499 0.03061364 -1.82987666
angry -0.28308159 0.76428193 1.00888157 0.59821272 -0.12664090 1.12313902 -1.99650609 -0.91442239 0.74784797 -1.09575987 1.59511149 1.14881456 2.61678338 -0.53849262 0.96816933 1.26708281 -0.14159922 -0.33394718 1.35871482 -2.92983747 1.00823069 -1.52042174 -0.77841401 -0.85143423 0.27594584 2.19965076 3.42651176 2.63476396 3.04022551 0.18768483 -0.31725734 -0.46384656
anguish 0.21011662 -0.34057245 1.15264142 -1.19200361 -0.58957213 3.34832859 -0.35198116 -0.54752702 -1.07314551 0.22179589 -1.88619459 0.78930521 0.63197398 -1.23818600 0.32692504 1.15430057 -0.20937882 -0.28625050 1.38099539 0.96687055 1.61349428 -1.29600406 2.19188571 -1.34982479 -1.71229947 -0.12796499 -1.03118014 1.06770265 0.30066809 -0.75172174 2.53892779 -1.20641851
angus -0.08992536 1.26821566 1.04244971 -0.54212779 -0.83975297 1.05324984 -0.22054389 -0.36906785 1.02666736 -1.07570195 -1.52523696 -0.76228493 1.52967417 -1.11556542 -1.56361461 1.79604971 0.27648687 0.81584877 1.26354408 0.40916979 2.22519732 -0.08096245 1.65058601 -0.13630717 0.64325684 1.52063560 0.35972768 -1.12873876 0.03241322 -1.49055195 0.96166152 -0.46595475
animals 3.21919489 0.39991868 -0.06937548 -0.34770173 0.81896073 0.65959078 1.22552729 -0.04620066 0.45585224 -2.08517694 -1.69684517 -0.89124715 1.39375389 -1.88669884 -1.76836538 2.06316233 -1.54938054 -0.25704822 0.92298126 -0.99253309 2.13903522 -0.50399613 -1.06087196 -0.49245346 0.30263412 -0.70647669 1.39839673 0.79548657 0.17164104 0.86099672 0.97577983 -1.86739087
animated 1.80731428 1.57288301 -0.11975801 -1.31544614 -0.14247498 1.22654438 -0.15912656 -0.15830247 -0.61599505 -0.68037593 -2.21592617 -1.47977901 1.43658447 -1.03739536 -0.82782918 1.65920949 -2.82834506 0.61284441 -0.82705617 -1.39393473 -0.31935525 -1.08936238 -0.76616365 -0.96976221 -2.24607706 0.39175257 -0.66130942 1.07643473 1.14848340 0.34514096 1.93186271 -1.24073136
animation 1.25706041 1.03806698 0.78790903 -0.48707816 -0.15707123 1.99533129 1.67952228 -2.51558208 -1.49241078 -1.89794028 0.09904928 -0.66589290 -0.04611810 -1.12256348 -0.91562325 -0.82805037 -1.47707510 0.17299551 -0.54880577 -0.87920249 0.85562354 -0.04584379 2.74906945 -2.10115814 0.00482767 2.77965951 1.17376757 0.58820939 -1.69961452 -1.49406195 2.88085079 1.10420752
anita 1.50862598 -0.32411161 -0.12546359 0.61420417 0.97025537 -0.84114867 -0.58917654 -0.68543535 -1.33138227 -1.75616217 0.62198514 -1.41206455 1.68839848 -1.47284532 -1.61077476 1.06971657 -1.77031565 -0.32093540 1.16967607 -0.46541816 2.34707022 -0.07729800 0.03974202 -1.76730645 0.15531018 0.09748016 -0.32059151 0.98542702 -1.27362859 0.01499254 -1.39683390 -1.42887270
ann -0.73561847 -0.09222591 -0.45508167 0.06274440 0.32632273 -0.14180493 -0.96337420 -1.07702172 0.29358670 -0.81438535 -1.10646081 -1.16425824 -0.01988770 -0.89520645 1.42246199 1.17221737 -0.73042548 -0.29407826 0.93999732 0.30338088 0.91212726 0.82969499 1.49381328 -1.48407185 -0.68454832 1.20403910 -0.44004399 0.62971216 0.16614290 0.72166330 -0.26238343 -0.39352721
anne -0.63895255 0.85409421 0.57877570 1.23615468 0.43903452 1.80922425 -1.39691246 -0.42891511 -0.61734432 -1.57292843 -0.68907595 -1.74454117 2.03772497 0.78029925 -3.58283305 1.29535115 -1.45809186 -0.27165034 2.43006706 -0.77125973 -1.13882911 -1.45059919 0.04198362 0.38485497 -1.27590799 1.77421057 -0.02745657 -1.18308413 0.05527800 1.35319364 2.07882833 -0.55534124
anniversary 0.24237436 2.66274548 1.41171944 -0.21590044 -2.06510711 2.35507917 0.95182490 -1.68871760 -1.42743731 -2.32023644 -0.43320706 0.16376477 0.00172432 0.05345337 -1.10352969 1.05734575 -0.61116058 1.73784518 0.53490222 -1.55338836 1.87340963 -0.59845537 1.84166408 -0.64295495 0.21527545 0.14894323 0.26928100 0.02421026 0.67395830 -0.70861292 1.21357310 1.64859283
annoying 2.90205121 0.90130109 -0.18589394 -1.60008097 2.62294173 2.62548208 -0.30089957 -1.08774877 -0.60492402 0.04504325 0.16724297 -0.58379781 2.80994320 -0.18857345 0.05970660 -0.81737262 -0.30558068 0.06530365 1.18918526 0.10181291 -0.48983648 -0.11755432 0.01143070 -1.37114263 1.83547485 0.41328862 3.38578367 1.22252119 -2.07044816 -0.65476245 1.02067733 -0.09127876
another 0.63669717 0.12095413 0.40763101 1.66497457 0.75341552 -0.47856224 1.28739941 -1.11535847 0.86191684 -1.06788838 1.12914181 -0.34766844 0.96987104 -1.97735095 0.94286597 -1.77187490 -0.36341196 -1.50799060 -0.31943011 0.11226496 -0.03668393 0.65673274 0.42252097 -1.26677287 -2.85244656 -0.28893381 2.26983285 3.06271982 -0.21150054 -0.83207852 0.84777433 0.04492015
answer 1.96992314 1.02030504 0.83344692 -0.33740860 -0.30574435 0.47176164 2.37003112 0.16327199 -0.44997063 -0.45307842 -0.07422520 0.95616794 -1.02973950 -1.50275958 -1.67332256 -0.61681134 -0.59668601 -2.19297743 -0.23498750 0.39865613 2.34631515 0.13431899 1.87308884 -0.67191952 1.76561809 0.38756207 -0.17250767 3.03611207 -0.20269875 -2.92731524 0.54972494 -0.92695343
ant 1.02572751 -0.60708785 0.82553726 0.24575424 0.90197152 0.73594737 -3.12886214 -1.50996363 0.34373105 -1.05477989 -0.66642064 -0.81486243 -0.49945939 -1.40017998 -2.69562840 0.22781156 -1.36035168 -1.20454144 0.46355501 -1.19681573 -0.41026953 0.38708371 2.69282317 -0.47763726 0.31039801 0.30947813 0.31099570 -0.56609201 0.88297331 -0.20356488 2.04347301 -0.27026168
antena -0.48697793 -0.97293866 -0.26547727 -1.07030034 1.79326642 1.68042397 -2.38259101 -1.88513541 0.93093377 -1.12333775 -1.36601865 -0.27709603 1.45745277 -1.33710301 -0.85878503 -0.15385558 0.18816283 -0.82482165 1.21648824 -0.32999128 1.22510123 1.05380023 1.86349356 -0.77731347 -0.14290169 0.46664989 -0.82639956 0.38346982 -0.19606051 -2.07848930 0.07203095 -0.68689948
anthony -0.11113269 -0.94295508 1.18195212 -0.90606290 -1.09548271 1.69827473 -0.97211248 -2.00922632 -0.18746772 0.11764544 -1.63602972 -2.00752115 0.63607430 -1.00403214 0.72812527 0.55153728 -0.01300790 0.85368824 1.55557299 -1.38179898 2.34307671 -0.92917347 -0.01496026 -0.21204416 -0.35683942 1.48425162 1.26562750 -0.70699745 1.48959887 0.00728482 0.83848900 -0.72894812
anti -0.96318042 0.54100841 1.62820065 -1.43589413 3.00006771 0.54813790 0.91788751 -0.81308877 0.92581838 -2.02155828 -0.62594157 -2.28878069 0.35070440 -0.24311182 -0.04799623 -0.56088245 -0.39194408 -1.59849441 1.03251660 -2.21328950 1.38852835 -0.16300382 1.51908624 -0.81914306 -1.12997210 0.60947609 1.05574036 -0.78262836 0.95667869 -0.14585471 0.29999974 0.54006004
anticipated -1.31473863 1.28920233 0.75298882 -1.26760709 0.49910921 -0.16842197 -1.37934852 -0.85587144 -0.50507319 0.41261408 1.41419923 -0.06378396 0.47511658 -0.63250613 -2.29943562 0.00904515 -1.97937524 -0.05091909 -0.20216496 1.73134887 1.69158399 -2.46599531 0.13879101 -2.04159045 -0.80734092 1.65217268 3.20562482 0.28460848 -0.70160085 -2.87386942 0.22307996 -1.72009861
antithesis 0.00449463 -0.29806525 0.13700067 1.51177073 1.37010252 1.35083520 -0.90282738 -2.10257983 0.34196171 1.23189247 -0.05402087 -0.83653647 1.16544569 -2.30205750 0.60661244 0.55240488 -1.23037541 0.64154458 0.92325622 -0.20920175 0.04231021 -0.43790257 0.54483557 -0.82768726 -0.80581176 1.29177225 -2.56238794 1.72610831 1.11791670 -0.91111535 2.48429012 -0.42485088
any 1.49127162 0.57367742 0.51508313 -0.04479571 1.78537810 -0.66476250 -0.30203396 -1.24523067 0.07021440 -0.58887929 0.43470827 -0.71391982 -0.45926020 -0.80510479 -0.07813599 -0.92566782 0.58787966 -1.13729310 -0.04545734 -1.42244256 -0.00380361 -0.56518930 0.18781558 -0.69715005 -1.06231868 -0.76190740 -0.17965941 0.28932145 0.33004469 0.36533099 1.39030397 0.69641566
anymore -0.27954903 0.83867353 -1.11373305 0.18358153 0.91272491 -0.03416488 0.00729599 -0.82741374 -1.27609241 -2.63234305 2.52389073 0.64255166 0.99846488 0.07983041 -0.79980397 0.45346656 -0.97293264 -2.41435838 1.39729297 -0.12160935 -0.66668928 0.51176685 -0.39960268 -0.20783053 -2.60830879 -0.24698031 1.19553018 0.09526813 0.39075285 -0.83620548 0.86664438 0.38617158
anyone 0.33477002 2.50722098 -0.97109085 -2.84977102 -0.06122218 0.45863152 -0.27443415 -1.63623536 -0.35068566 -0.19915453 2.24972057 1.12579036 0.32158172 -0.03662756 1.38926208 0.09198854 -1.18380547 -2.07407188 1.19070208 -0.61035424 1.19225204 -2.11837602 0.11824154 -1.57367265 0.53919119 0.51665819 0.10310677 1.54241562 -0.91581547 0.06424916 2.27805781 0.95092309
anything 1.15399146 1.11535358 2.87240839 -0.14908883 1.02611756 3.33454442 0.51991266 -0.22432725 0.89896184 -0.27550578 0.87602419 -0.60910469 1.81521606 0.40121320 2.03909993 -0.46883479 0.08486058 -1.28683460 -1.17641532 0.78165597 1.21872628 0.10969828 0.68308163 -0.23907411 -0.78788257 0.89590436 -0.17868294 2.08513308 1.13456702 -1.36118710 2.69096231 0.06234816
anytime 0.17899077 0.93908602 1.38695586 0.24218367 -0.23369828 1.00685036 -1.09004819 -2.32320166 -1.15830266 -1.20705557 3.37422872 -0.76325464 -0.66521144 -0.84470809 -0.59843820 0.88896710 -0.33101815 -1.27505517 -0.50586587 -0.42558023 1.33141601 -0.57458949 0.43481019 -0.75041449 -0.88265884 1.51686132 0.38436592 -1.01744819 1.37294686 -1.68955624 0.48085889 0.29686353
anyway 0.52392316 0.81983900 2.60595751 -2.99521780 0.03089730 1.43653679 0.48430023 -0.17605622 -1.99543273 -1.30282700 -0.61136657 -0.48792347 0.71097368 1.41847408 -1.98660052 1.75088358 -0.06705163 -2.56169391 0.82241935 0.76677769 0.19009955 -1.06975460 0.91887099 0.37923780 1.02841425 -0.94729620 0.30986470 -1.34398913 0.91044599 -0.35151491 0.12253000 0.05975523
