5221 32
0 -1.23530877 -0.05252688 -0.43740031 -0.50597459 0.69473141 1.74472368 -0.11724507 0.89570951 -1.44805992 1.42519188 0.04575530 0.79723245 0.18188947 0.08463578 0.36037993 -0.11594837 -1.48062265 0.81427807 -0.44594088 -0.27041453 -0.52145427 -0.56917244 -0.33516026 -0.75223470 0.79517263 0.48419085 0.51111722 -0.40086353 -0.14997780 -0.30551091 -0.08043238 -0.26626167
00 -6.35234594 9.87256336 -3.07706356 -0.47362670 1.45855689 -7.31077051 -0.91479713 -4.01513624 5.56215334 2.76049709 -2.99455333 -3.46249914 -5.90478086 -6.30521202 7.20329380 4.88232899 6.08206034 7.37690639 -3.76020026 14.41279888 -1.90620363 -0.68084788 2.35991693 0.81200808 -6.35928774 -4.71411753 0.93773103 -4.19080687 -7.03875303 -4.18902349 14.05994701 -2.61199498
1 0.25216708 -0.63471174 -0.53258115 -0.84229285 -0.11197393 0.04849886 -0.48059356 -0.11484980 0.13260894 0.11859643 -0.76873279 0.25486067 0.43047583 -0.65745580 -0.41449532 -0.00766391 0.57886028 0.68707073 0.09836910 -0.20407082 0.29203296 0.54976499 -0.12022595 -0.57228732 0.04518346 0.56079513 -0.06589783 0.08691211 -0.82905257 -0.44872290 -0.25301614 -0.07984516
10 1.62233400 1.95612586 -1.96591032 -0.92608219 -0.19224852 -1.25682342 -0.95991719 0.23781571 -1.96859515 -3.19415689 -4.21454000 1.49998963 -2.09944701 0.74074101 -0.93814278 0.08952103 -0.90673512 0.00974511 -2.71987534 -0.38073051 1.56583202 0.08360078 -1.56054127 -1.63718820 0.50150067 -3.03234220 1.37200534 -2.19756556 -0.31174642 0.14122640 3.64887857 -3.28518081
100 2.42070341 2.62316251 0.25513899 -0.31282839 -5.36167765 -0.43268487 -4.74510622 5.91012383 6.03439808 -2.13067794 -1.95889747 -2.34907413 2.22695827 -4.69001770 5.97509480 -7.89745426 -1.98648846 -1.58904529 1.78673041 -1.42091906 -5.09107876 1.70234680 1.03149259 0.94625425 -3.63007164 8.84020805 1.41456306 4.13288879 -4.86533976 -6.76599741 10.78635216 0.47197771
11 -4.62134218 6.14562035 -6.06959486 -1.87463164 -1.38781750 1.29692471 -0.64504153 -4.28749228 1.47949684 -3.00305295 0.42316896 3.27519536 2.42102075 0.14894231 1.46424985 3.73080254 -2.12616754 12.17813110 -6.24390793 3.77105737 -7.04205561 -1.96319330 5.51039696 3.86644888 1.65821075 1.71165276 -3.79173803 -2.97749686 -1.42438316 2.03151035 13.02540588 -6.74620771
12 -1.08818460 1.70299280 1.30442965 -0.12170459 5.57940292 -1.32893431 1.71473086 -0.15218243 0.35722005 -10.05234528 -5.95382309 0.63899308 -1.26707661 -4.26055670 9.69437790 4.22127438 1.69208801 -1.82094860 0.12885503 2.75785518 -6.71386051 0.98827219 1.48961151 -3.01271820 -0.95656586 3.35582852 -0.52605230 -10.84010506 -7.90647507 -4.60070276 2.66768527 -3.07645345
13 -9.99503231 -3.23436999 0.68051982 0.07566409 -1.46220648 -0.13272758 4.83944702 9.49914455 3.03239417 3.51640129 5.62827587 -4.28190374 -1.36643839 0.95393211 1.06417358 -5.93897629 2.40206480 0.03506040 -3.82211065 -0.16015506 2.96895313 5.76023293 -3.22047210 5.76102304 -10.61176109 3.64970016 8.06350327 -0.43413219 -6.35449505 -13.54095840 17.77737045 -2.06978130
15 -1.14062679 -1.98826218 -6.73557997 -1.54196227 3.71037292 -0.80379766 4.37214804 5.74626207 4.16630411 -0.24847199 -4.99180460 -2.21585393 3.88077545 -2.44068456 0.73949546 -3.69267392 6.88818026 1.48735511 -1.77520812 0.73947996 1.65320921 -0.80932194 -2.75464988 5.33149815 2.97528648 -4.06129885 0.19658329 5.30148268 -7.77061272 3.73015189 10.85684681 -3.08063745
15g -1.25280845 -7.46125603 5.45610857 2.07173014 -3.45555830 1.01603639 -9.40421295 2.66847324 0.89736009 -1.79583037 0.75467944 -1.95626009 -0.72558278 -6.87180233 0.67100841 -3.82015944 -5.85227966 -2.05499244 -0.33084235 1.30797613 1.88655019 -0.90384156 2.34270906 5.82669592 -1.26308441 -5.22258425 -2.25525737 1.34058392 -13.32143497 0.94341743 8.67847061 7.37306452
15pm 4.64633036 1.69007778 3.49566627 -5.42840624 4.87682915 -5.77383327 6.66224909 -1.81149793 4.13755989 -0.70664585 6.18342113 5.94846153 4.00190306 -1.23718417 -3.38752151 5.14846134 1.01160097 -10.63189030 -2.97503495 -7.63274193 5.13627577 1.37900066 0.05882945 1.31319451 2.56380486 11.42695522 7.80234766 -3.35050488 -5.57019281 0.56575543 24.30154610 3.90530586
17 -5.17601728 -2.66607356 -1.80712163 5.32815456 -0.45034364 0.93355310 -2.26587176 6.71239328 3.93254757 6.87702513 -3.02115226 -0.06976526 7.00267839 1.99843919 1.75682652 8.55196476 -2.44552732 9.44479465 0.36445940 -8.12865162 -11.31811714 -4.87656116 -3.01957226 7.11932564 -8.52891254 -4.04421234 3.85161042 -2.95617461 -0.92470759 -12.16117191 15.84997463 -5.47769976
18 0.60641754 -0.49019113 -8.29253960 0.58619225 6.70715380 -5.30413389 2.02574944 4.40100527 4.90014553 -12.59760380 5.95126200 -5.10898876 5.04162407 -6.01208687 10.31790352 0.10352433 -5.02903032 5.53464079 -5.09708405 -3.73609424 -0.13937266 -7.07901716 5.92251015 3.60266447 -2.28306007 4.62367105 -5.69908905 -6.44573259 -9.32315922 -9.78282642 14.28359127 4.30316067
18th 0.66418064 -1.93008995 -2.29097247 2.72670388 0.30885348 -0.75803274 -6.58521605 12.46418190 2.62089968 3.26312351 -6.36283684 3.33240080 -1.98879445 6.22333336 3.15934229 -1.03207946 -5.12699986 -0.27867892 4.34563112 -4.49485493 -1.52984858 -0.12952819 6.78332949 -5.58396482 2.55873895 -2.92715931 -5.66766357 7.00312138 -16.30658913 -10.37615871 11.79933643 -7.39796734
1928 -9.85928059 -3.13946104 -2.05751038 -3.66883969 -1.95934594 -2.87978864 7.58915901 -4.87112617 -9.20476055 -4.12235165 -3.25435829 1.62436759 -7.06707573 1.98669636 1.40001798 -7.80432940 -0.61951619 -7.00377512 6.41245651 0.87470537 -2.82234979 5.26162100 -0.07557104 4.28480577 11.37977600 10.25565147 1.56503546 7.65753174 -15.41892910 -12.55787086 12.77306175 1.57295358
1947 4.10723019 3.75114250 18.94861031 2.89676070 -0.05275145 1.97161520 4.07072115 -0.26828474 -10.35271263 6.25221968 5.17928982 -4.91697359 7.21070910 3.93111300 0.84409398 -6.96966982 1.83892691 11.06783867 18.46546745 -17.49620247 -7.59974146 -2.78654003 -4.42750645 3.84929156 -2.55546951 -1.44906628 0.04070664 -1.57974827 -14.34892368 -10.84584236 7.21492052 5.55398655
1948 -13.35076523 -8.35299015 -5.26623631 0.64407676 -9.04318905 2.21564984 2.89848018 8.35249901 0.00045742 -2.93447399 -8.11854362 -0.77671450 7.20485783 -7.84600306 0.21255960 1.82343519 1.12352669 6.34423590 -8.64885426 -5.92785263 6.59271860 8.05879784 -1.57487154 1.87492788 -4.69281054 0.46902090 -0.46317500 0.28631145 -15.68921947 -3.82946539 16.12963295 -3.82797432
1949 -4.17246628 0.27738011 -1.72493052 -3.10225916 0.13395777 -5.92384863 4.28730536 5.83759451 0.80177599 -3.99084330 1.25283551 0.39220849 3.55934143 -2.98318768 1.02739263 1.28774881 6.85323524 7.32810545 4.28529739 9.83241749 -3.04678106 -1.76398385 -7.89732933 -2.57898259 -0.67251849 1.53449571 -2.12266493 2.37526417 -10.52407455 -16.33774376 9.92981434 1.07079995
1971 -1.19309258 -4.69085932 -2.66125131 2.68500543 -1.97320044 1.79926968 -1.38127720 9.63423157 -9.22976685 -1.09513533 0.18585832 -5.82587337 1.99521124 1.93842030 1.66803265 0.17065597 1.89264345 7.79101992 17.08702087 -6.29195356 -4.71879244 9.63718224 -0.32089403 6.47683620 -1.04198658 -9.63753223 8.13801861 1.26330137 -13.35114193 -1.76680815 17.19526291 -0.72608268
1973 3.47329521 -1.51523948 -14.33529282 -0.11814769 -1.67101312 -1.00486767 -1.54999602 5.62911558 0.92060167 6.32834482 -1.08666396 -0.02605749 -5.00399780 -5.45231152 6.94612598 -16.61167145 -0.81379396 6.37704229 5.71224642 -4.21858931 5.34718084 6.47079515 10.08301353 6.56167555 -4.32158327 3.55641437 -0.66699421 -1.67090690 -29.78988075 1.69862640 4.45245695 2.18752813
1979 0.68705302 2.27673841 2.67372990 -2.85309672 -0.14833203 -3.89884806 2.72032547 0.53627181 0.22810623 -1.77641129 6.77475595 0.13336468 9.28229809 0.17970416 2.59387159 4.82232571 2.13062620 0.68115091 0.71203363 5.76578522 3.27589774 -1.56311476 -3.31501913 1.46487725 -0.87539297 13.03036785 -1.99777341 -6.50818729 -8.03006744 0.14290288 9.90061092 1.58339179
1980 -3.83139634 5.20035219 10.61189175 3.06403637 -6.85115576 -4.35967636 -1.36730874 -9.70222855 14.44945240 4.16431570 -6.24041843 6.66064024 -3.09829473 6.15498447 6.74535036 -3.96727896 3.78345442 8.93207073 -2.21261954 10.40588665 4.83010674 7.33686495 6.76390553 -1.09547782 -5.25966501 -7.74600363 -13.51392841 -5.17183161 -18.88212013 -21.82201004 8.93922901 0.60686934
1986 12.27904987 -3.45285225 -6.07202291 6.51876259 10.54684830 -5.13548374 2.89723492 3.37804914 0.44307527 -0.37426817 -7.01296520 4.45899105 -3.89313221 -7.43205404 6.56712770 6.62310266 -0.50846028 3.18269014 -3.53266072 -1.41606963 -5.35977745 -1.10956383 7.20053053 8.42927170 -3.29871440 -6.04327965 -1.65332341 -9.25309277 -8.21681690 -19.58516312 8.73725986 5.50332117
1995 -4.21754026 6.48041058 -9.26525688 5.52485847 -11.51108646 -4.12143278 -7.02055645 -11.59564590 3.21222377 6.95489740 12.13865662 4.19961548 -0.08214769 -6.62110615 2.15403509 -8.37735653 0.70557123 -1.46449590 1.98530066 7.78616524 -12.47818375 1.96334958 -0.58024567 4.05264997 1.07150054 -2.10077524 -8.87026310 3.74282598 -12.64317608 -13.59160900 8.87097549 1.29550576
1998 0.57128316 11.60855293 -1.12682903 9.94845867 9.06260967 9.52176189 -6.53459167 4.30775452 2.74750853 3.73241687 -7.51434994 -6.39446926 5.33625364 3.78797674 -2.86877370 -7.75713730 -4.23927355 0.32244602 2.44966006 1.89095676 -1.80893886 1.73941815 -14.61307716 9.02576256 6.43152952 -6.12758064 -3.05723810 -1.22283733 -7.64131308 -3.93172312 16.63756752 3.96662474
2 0.06405680 0.51292568 -0.16404724 0.33121270 1.49646914 -1.53234839 0.62177074 -0.28233191 1.72150874 -1.42120135 -0.86127704 0.38709614 0.59390205 -0.07174561 0.46845651 -0.27145010 0.04335062 -0.53391391 -1.66529417 1.53776753 -0.00453986 0.57912445 0.50595134 0.03744579 1.67534328 0.02870279 1.25197482 -0.19960563 0.47944090 1.17001259 3.86480188 0.24170470
20 -0.74900705 0.17170134 -4.37563372 -2.44789886 6.07377052 -1.68641782 1.86045170 7.88290882 2.80031300 -1.04012811 -3.60525465 3.59709454 -2.44180250 2.40092897 -3.04520512 -2.22084045 1.13984382 2.36215544 3.71327209 -0.21615426 0.86730444 1.79929674 -1.45652127 0.45009661 2.97651958 -3.05564117 -1.41182065 -3.14614320 -3.01444173 -1.51929963 8.81611633 0.40319535
2000 3.01017547 -12.98856735 1.89867616 2.79243016 -5.34262228 -5.17896605 9.53975868 3.82982874 1.79241645 -5.26882792 -1.17015362 -5.71423626 5.75603867 -2.76660228 1.26076472 8.09449387 -4.07650995 -8.63968563 1.28485370 -7.87582684 9.76161194 1.09886265 12.79702663 7.67537832 2.62055898 3.39023829 -2.86426163 -1.15270078 -15.24467373 -2.00417662 5.99354315 3.40922022
2005 0.46597719 -2.84192967 -5.11457491 -4.71103144 -1.70654857 6.87640762 -0.16362946 0.44499561 4.51593781 -7.00419855 -4.10350084 -7.73510313 1.78260577 -5.54666901 2.70653892 0.33518207 -8.81190777 5.48127413 -1.97794831 1.21860445 -4.99686146 -9.76017952 2.31086206 11.93172646 -2.58295178 7.10769129 -0.99619550 -6.58932638 -7.76508617 2.04946327 16.82243156 -1.68426394
2006 6.52139568 -5.66290474 3.06002283 11.18125248 -0.16872129 6.64684057 0.80369091 -1.79420912 -8.99629879 -4.84023428 -9.30257511 0.96753037 0.84074342 7.41955519 3.89238977 -3.03767300 -2.04849815 1.11712706 4.03531313 1.10522199 8.02799034 9.09640694 0.23759088 10.47942257 6.68764830 3.96607614 -4.78310299 -0.49176732 -8.57273388 -13.55149746 9.23091316 6.30162525
2007 4.37754726 6.22219229 -0.10967354 -0.29173341 10.67923737 -3.32160354 -2.24133873 0.92103672 2.57809258 4.47342110 8.54034901 -0.60536659 4.38528347 -7.89429665 8.44900513 -2.90141654 -1.22652638 -1.72047353 -6.05942011 3.01843214 4.03554296 -6.36565304 -6.23933220 3.74639487 -5.48667049 0.72131079 0.10653539 -3.22076440 -8.10858345 -6.80969858 6.74994707 10.38133144
2011 -0.27853617 -1.41314089 -0.15682253 -0.33808303 1.22264087 -0.14775474 0.84009802 0.17630468 0.03238551 0.40122190 0.07043909 -0.22522749 -0.26531419 -0.22934845 -0.22200282 0.14801048 0.26528233 -0.99735427 0.08597183 -1.45465326 -0.96643323 -0.55066305 -0.78275764 0.31499436 -0.68194956 -1.49771607 -0.23095083 -1.31097591 -1.16450405 -0.02678572 0.16093168 0.01548071
2013 -0.41440794 -0.52393264 1.32425129 -0.37743855 -0.71257830 -0.85068882 1.93293977 0.10447764 0.05164038 1.17731392 0.22524770 0.38087392 -1.70543694 0.48876214 1.12896454 1.40638089 -0.14433983 -0.50638098 0.45961130 0.37837142 0.45823389 -0.12853828 -0.63819736 0.43710211 0.28732592 -0.79225928 -0.28416404 -0.67375946 -0.41672760 -0.97415268 1.16282237 0.23256481
2015 -0.04628471 0.81942856 -0.68269002 -0.21898979 0.57951576 0.29322675 0.61262739 0.05703413 1.98180437 0.37250218 -0.39506239 -0.82006323 -0.15267871 -0.65206450 0.16241612 1.16419160 0.72880304 0.05314292 -0.53653061 0.10898253 -0.44871670 -0.07892220 -0.47487620 -0.65823901 -0.65473408 -0.33285609 -0.75935292 -0.79633790 -0.66531885 -0.23779106 1.63788295 0.37802646
20th 4.83614826 7.93160009 6.11243439 2.10195422 -5.07149458 1.44699967 -5.95447302 11.45903301 13.27818584 2.82017970 -6.86414862 -0.73575675 3.82676697 -8.41301250 5.66314745 3.58757234 -10.83251095 -1.89110172 4.38654137 -8.24069691 -0.93750381 -5.89274216 9.91228199 1.97653282 -9.19557190 2.99853826 -1.56824231 -5.10641909 -6.84995699 -2.30329418 11.35961342 -2.88722587
2160 -2.69715500 0.84010464 4.53616333 -3.48230219 -4.13803387 -3.52056170 -1.81701016 -6.46102476 3.47855258 0.44844103 -2.24405479 0.13147759 -5.70880365 -0.31632006 -1.82293308 -8.36335182 -6.58612585 2.55108976 -14.16721153 -7.42609501 1.79421186 0.58348167 -0.72945374 4.16217756 9.98188496 -7.18608475 -5.15429974 2.09803963 -8.98875809 1.81975770 6.71011925 6.25439310
23 2.30635953 -2.09324002 3.62843132 3.82930899 6.02842140 -7.37161446 6.32313633 -2.62693930 5.61491060 10.30758667 0.50506759 4.68717003 7.22935820 0.38707012 -2.36496043 -2.52320147 2.75734758 1.70679045 -2.36926413 2.13680434 -3.59060335 -9.41532803 3.72768044 5.58057880 -4.26891851 -6.83631325 2.94507575 1.52944446 -9.59836483 -6.89657640 13.18433380 -5.13405323
24 0.99100471 -4.07933712 -1.68246305 -1.70736504 -5.01068306 4.73720694 -9.38863659 -4.28278685 2.92819118 3.32727075 0.42824847 1.04381990 -0.02007449 2.80581951 -9.50806808 0.28388292 -10.05659676 -7.99874449 -3.76362491 0.98627353 8.49758053 0.89415288 1.49373591 3.08068848 6.38508463 -3.56238484 4.96421242 8.30744267 -9.39334106 -1.46924758 12.91496658 -7.59765816
25 -4.38226843 -3.42375517 -5.29454947 2.94712520 4.21187305 1.26285255 -0.01760926 -5.64152718 7.17489433 -0.60514992 -10.87534618 5.13648319 12.52172947 -6.17123938 5.22850227 -2.70115328 -3.67236471 1.85802102 3.96950817 -1.47832572 5.13172054 -5.11308384 3.89824748 4.40298414 -3.66087008 -4.69908571 1.86577320 1.52071297 -16.09852791 -8.41304779 15.36166286 5.77950525
2mp 7.03101873 5.40590668 4.42005396 0.55161160 -3.02334309 -3.78050637 -0.76090562 -2.74774480 0.51503056 1.27609730 -10.82459736 3.81927991 1.84589577 -2.99599528 1.94694602 1.81309593 4.72397470 2.17808747 5.91047573 1.26026165 -0.06650911 11.60766220 5.52036858 -7.11148167 2.42982721 1.85055244 -5.54161453 7.56717300 -4.03727388 -7.28515387 10.35249138 -5.67292261
3 3.68483233 0.80888540 0.10595139 -3.29115653 -2.18286824 1.06165469 -1.47482657 4.83594990 1.11084926 -1.96314514 -1.01666045 1.68752277 -1.15954018 0.47191679 0.67728972 -1.78867662 -1.08502626 -1.91923392 2.95874548 1.82023919 -3.52626777 -0.08679625 0.03184868 3.15056872 0.03921935 -1.19717133 1.04653227 3.58414078 -1.35392797 -1.28395081 5.41383505 2.68989968
30 2.47971702 4.81322861 -4.53594494 0.44315523 0.68856061 -1.75654197 -1.77441239 1.45006931 1.26966476 -4.16563177 -6.47717667 1.38518345 -1.31043220 -6.96471214 7.77980089 -6.44610739 2.34920382 -3.34732080 -3.98239017 0.21586023 1.02890146 -4.60696220 -0.34274608 8.50654221 -1.28869307 3.00800180 0.20113744 2.54922056 -0.69153488 -2.22987080 11.87194252 -2.10609627
30s -3.37939262 -3.73763609 -5.21468830 -3.04495382 -0.22538663 3.05580068 7.49659395 -4.42763376 0.73139453 -5.61658192 -5.81281996 -6.51384878 1.28320682 -1.31527126 -8.77069759 1.85512269 -0.85692096 5.42984343 5.51649046 -2.31034875 -7.03710222 -8.75657845 -3.81022501 5.07717991 8.38576317 4.12917805 6.30504656 -4.23559523 -9.23466206 0.52518749 10.36038494 1.66152394
325 5.72293282 -4.11918163 9.14867783 8.83840466 -6.14041233 3.94679379 3.16982269 -5.41831112 -2.44500351 -11.69945145 1.18823564 -7.16492510 -5.97633028 4.32198524 1.80939972 -1.84345365 -1.04187179 2.59759903 2.66665363 1.24109948 1.34664798 1.31705165 -8.47617912 -2.01536679 3.62868905 -3.08456063 -6.50048351 -1.44032681 -15.82211876 -2.05844069 11.41098595 -0.68000686
35 -9.67566395 1.21155882 1.94516206 -1.96471977 -3.20342255 0.90965551 9.47480392 -0.24279943 1.49507880 2.92575097 -0.22810720 0.77093250 5.80815697 0.40762109 1.44274378 4.80349398 3.21379352 0.56235898 -1.24086583 -2.33441496 -6.63450098 1.27669537 2.89727688 0.03607875 -5.99677420 -1.81288898 2.86134481 -2.94922018 -5.13649845 -3.67264104 6.33598042 -8.55589962
350 5.16759634 2.58846951 -0.61480653 2.46897221 4.37182665 2.04692316 5.46910524 -2.66697001 2.12736249 0.12385149 -6.44788218 0.16578777 -2.07690072 1.67763686 3.91658497 0.75837469 -2.54478836 -2.48725677 -4.77496099 -3.62873507 9.54986954 -0.89903146 4.69061232 5.32113886 -0.91592872 -1.10365927 -3.18703794 -5.32114887 -8.11191559 -3.09836078 8.40249729 -2.76806951
375 -0.51379722 -1.59735119 1.31888747 6.57920551 -8.83761406 -6.72247696 4.28562307 0.05967232 -0.90387613 -2.34199858 -4.04560804 5.85475636 -0.59340596 4.53296280 7.53020144 -2.68310142 2.31587148 4.34706068 3.64201260 5.65176296 -3.23325086 -5.55134487 1.20896471 8.39405155 9.52020359 -5.39782095 -8.33075047 -1.14205778 -10.39475060 -0.22957197 9.03274155 -0.44569054
3o 3.62596178 2.58038330 4.43581247 -1.94247317 3.61106324 -0.02919595 -0.98674977 5.27669621 -10.00261497 1.49274898 0.27386600 -2.33734465 10.35798931 -3.74632120 0.86519074 -0.34161079 13.17444897 4.15398932 -3.84556818 -3.88712907 0.59981662 0.86642802 0.01518088 -0.72210312 1.19369233 -1.17364991 7.69024086 0.16264169 -1.47016382 -4.50385475 10.42936134 -1.98671818
4 -0.97828925 0.89504367 1.05480313 0.42561862 0.51199007 -3.65310073 2.92317533 4.34200096 5.81777763 -1.12546158 -3.08460855 4.31653118 0.04496000 0.34560302 4.96098232 1.93253005 5.14919758 -4.39171553 -3.01609349 0.21024725 2.07896590 2.78470707 -3.32880926 4.02262449 2.42378330 -0.55029547 1.65894771 -0.29352927 -8.00625420 2.35426044 5.79816008 -0.21370608
40 4.99784708 0.80640918 1.79173779 -4.26746941 1.38764596 -6.14422607 3.78966737 5.59454918 5.16796350 -5.56784391 -2.26392722 -0.64228940 5.87602425 0.65046161 6.93699455 -4.22242641 1.35086715 -2.89179850 -5.31385231 -1.49749231 5.44467878 3.17174172 -2.99957991 4.52607059 -1.12303078 0.46493241 -2.02740073 -0.75337076 1.22228527 -0.95982766 14.26034832 2.46123815
40min -0.14043130 -11.60845852 0.74156839 4.57105494 1.61824000 -9.10595036 -6.84595728 4.73978043 6.11716318 -9.12255192 -5.86804724 -6.11017275 -0.43685102 1.88788021 -2.37589216 -0.85725957 -1.30879641 -3.58005714 3.62445068 -3.43923569 -6.07222509 -1.95810354 1.49715519 -1.51710033 -0.82157540 0.14640985 -2.96497202 8.40694141 -8.71148491 -9.81177235 12.44374371 6.05404854
42 -7.71471930 -3.83372331 6.05237532 5.68198347 -10.06327152 1.18955302 3.35883522 -3.70715356 1.69889939 -13.53754616 -3.54592037 -7.48105240 -5.86774445 3.81495905 1.13204050 0.35058203 3.76053643 0.23755090 0.55042934 -3.17115450 3.58681130 1.76035702 -2.80151629 -10.17298698 -0.96197540 -2.12504244 1.40254498 -0.79317635 -15.02638912 3.40294552 8.85751057 3.34732080
44 -1.07986212 6.24877977 7.80992079 -2.97716999 -2.03882957 -4.79287529 6.27813816 2.20517206 1.70075369 1.73709583 0.29150984 9.52096176 4.56283140 0.62990743 1.53541231 -2.27143407 -4.87062454 4.31874275 5.63523149 2.94160366 -0.33985803 -0.86279064 -5.27380514 -0.08272693 2.73702836 2.08628893 -0.90761197 3.59011102 -13.79583359 -0.19697553 7.11606026 0.74602157
45 -3.51067233 -0.83533055 5.11763382 -1.82416427 1.85512960 6.33936262 5.19725180 -2.68954468 -6.61320114 -2.61461854 -9.72330475 -2.99695611 -0.64481539 1.88270497 -3.74462938 -0.31532508 1.75535750 -3.52258563 -0.52328366 -4.12630081 -2.32523561 1.80967319 0.15356773 1.57171512 3.05413771 -4.67135572 -0.65398973 -3.26272607 -8.81430435 -0.06900588 9.14733982 -1.18672419
4s 4.03878164 0.25883985 -0.15604246 -0.90042526 -3.78496909 -4.84202051 0.71209186 -3.70852757 -2.55376840 -2.72091937 -1.85374558 -6.55404949 2.96463180 4.28899288 1.73217249 -1.99495780 -0.40198565 -1.02264774 -1.26799822 -6.19216061 -0.74757409 4.35718966 -5.69011116 2.75577283 2.31736445 -2.75590372 -6.93261290 -4.31606102 1.26355684 0.10991945 16.48082161 -4.51388979
4ths 15.93457794 -3.27886510 13.47651386 4.03356028 -6.76410913 1.26567650 3.71128035 1.78467906 -6.73549223 -3.60643077 8.45724201 5.49269581 -9.72038746 -0.49736723 1.49076581 -2.71056747 -1.54261518 0.05757450 9.21049309 10.35351944 -0.15034461 -7.08685398 0.03887650 -0.91866320 4.59639931 3.46423268 -6.05178118 3.97751355 -3.61971617 -14.89098644 8.78206921 -2.14940572
5 -1.28478634 0.38617152 -1.18875384 -2.72298908 -0.65959603 -4.39663792 1.09240818 -2.51363587 2.62494612 2.85329008 -3.33252048 2.70707035 -0.22917260 -0.93070310 2.54764199 0.41474879 -2.65372086 -2.15166616 -2.89320993 -3.34875870 -1.33177531 0.42927572 2.84927225 3.47030568 2.26399207 -4.88200235 0.09830546 -1.45497274 -0.71592242 0.00455868 6.77101755 3.06300592
50 -1.14797330 -7.81764126 4.31129694 -2.75483513 3.61745429 -0.29986906 -3.74885035 7.06541300 3.92115617 -4.54082060 1.15388346 1.58812964 1.02675366 2.51482964 -0.80287337 -2.47385311 0.25310469 -0.87983465 13.37335682 0.12294555 0.05908908 -3.30668139 -5.76398563 -7.09245300 -4.67144108 2.07424593 0.33208969 -2.56296372 -1.80831242 0.85964483 14.13457489 -1.60473073
500 -0.44202816 0.12887244 -0.01215427 1.24941206 0.60110664 -0.70575273 -0.83827668 -0.29877046 -0.59133935 -1.19689810 0.17649521 0.32625690 0.17752193 -0.92186886 -0.27868849 -0.01811390 -0.16033804 -0.38478473 0.10186150 0.92929494 -1.29101920 1.25493383 0.35272861 0.29545584 0.36313155 -1.31985247 -0.02103667 1.10358584 -0.49507394 -0.06569611 1.08355749 0.29046494
5020 -3.36243010 -4.72214031 2.16371536 1.24658751 -4.18332911 5.99106121 -8.00517941 1.72725344 4.46018314 2.39357996 -8.05217171 -2.92248702 -4.97705221 -9.87981892 -9.54866409 2.61366081 -2.18952656 -6.37137556 -2.45391893 4.56436872 2.46436071 -4.77538633 4.18885469 0.55304611 5.59377193 3.63702607 -8.31675911 3.86860991 -12.39356613 -0.56056619 12.64987850 -3.98403120
510 2.58167982 4.37626839 -1.96557140 3.09953094 5.60440063 1.28449214 -1.01144278 -5.29030275 0.15154454 -0.08299918 1.27616751 0.46335080 5.16098785 -2.71403742 0.38508797 -0.97340602 -0.92751497 -3.66187620 -1.27576017 -3.51384687 0.15028673 -5.60147715 1.04899216 -4.85167789 -1.84878123 -2.30566549 -2.88296723 -1.38068521 -13.58178997 1.76463246 7.71402550 4.08020496
5320 -0.93698478 3.21892047 6.13905859 -0.49406445 -2.37428403 3.58802509 1.69859076 2.44802403 -3.73842621 -11.04376411 -5.62178516 2.80642986 -3.25191426 9.38921165 1.65207064 -1.94045436 -2.03943324 1.40186715 2.08386850 -2.45189285 -3.71301913 -1.40001953 -0.96078080 -5.12941456 -4.08759737 -0.23983382 -4.74232626 0.00739016 -11.24844837 -3.01760316 8.84296227 2.26314068
54 7.97962427 1.97718096 -7.64232159 -0.25062320 0.62559158 12.86181164 8.59172630 7.92701483 8.71614838 -11.49948502 -6.32133102 -6.45367527 11.17725658 -7.27790499 10.83705997 7.56560659 1.79542661 0.06442049 -1.83543038 -7.18553066 -1.22473204 1.92181420 1.72115374 2.19637227 -4.49417257 4.38429832 3.27675796 7.05431938 -5.32076883 -14.50519371 19.12943840 -8.80430126
5lb 6.82508755 -1.25313938 6.36328220 5.01262140 -1.88472748 -3.88246751 9.88515282 -3.82147455 4.80289221 -4.17094755 5.30731440 -0.95958048 -5.99301767 -0.42405057 1.79110229 -5.24769258 -2.85187888 -6.40263891 4.90836668 3.33403254 -2.60765600 -6.75380993 1.74816597 2.98499703 0.97985119 -3.88451815 -2.92670679 -2.42136669 -6.76557446 -11.75934029 9.00147247 1.54023445
6 -0.39509514 -0.62484568 2.49260926 -0.02793343 -2.96265841 -7.48133516 -1.13645887 -1.93199337 5.46853971 -1.87604153 0.59196317 2.62672949 2.60375857 -1.92541885 -1.11817145 -0.85294807 -0.44307351 -0.01709952 -2.09290028 2.03417325 -5.95548534 -2.27488470 1.05921185 -0.06986036 -1.11353922 1.14900208 -5.39916563 5.90901423 -3.21216178 7.95101976 11.52332783 -2.14768672
680 0.89450538 -2.52751350 6.17644548 2.67465472 -9.68995762 4.60482931 -4.48727655 -0.86617857 -2.87670565 5.06596661 -2.11795235 -1.17982244 0.97512585 1.55301595 2.05509543 -0.93801606 1.04829550 4.18250990 1.29125679 -0.00443776 8.41602516 0.15114707 3.59432626 -6.59804964 1.17374420 -0.78855801 -8.78195763 3.54499531 -15.18499660 -3.29020715 10.77677059 -5.72092676
7 -5.80806303 0.11018852 6.41637421 -5.48476315 7.33750582 -0.84134012 2.04183841 -0.53868735 8.00667477 1.90132284 -0.72031265 1.44478321 -0.11284128 -3.35182667 0.84289575 -0.82223541 -0.14099999 2.16209674 -3.02246594 1.69426441 -0.82001865 -2.80120516 3.28758216 1.55240571 -1.50374281 2.09822321 1.48472369 0.52962273 -10.72437096 1.13599288 9.87882519 1.33153057
70 5.09122038 4.91288757 -5.46831417 -10.50315475 -4.65168810 -1.33161318 -10.16518879 -3.82673597 11.82251644 -7.92810822 -1.38761878 -2.15391254 4.23028755 4.91525745 6.52393818 -3.35479474 -1.78866112 -7.78055191 -4.43548870 1.68019950 5.06356287 12.45317268 -3.68741751 5.41561460 -7.98766041 3.85907197 -14.08187771 -0.12561506 -3.96930003 -3.42891669 15.03784657 3.31727839
70000 -8.99718666 3.36893487 -5.92858982 4.84841490 4.54340601 4.94211769 -8.23170376 0.06086501 -2.56670713 -7.51620626 -3.94821191 -6.68722630 -7.67337132 -0.13441429 11.53259182 -4.00751877 -8.29720688 -0.43724459 1.78092766 -0.81347519 -7.26730680 -0.39566338 4.17083120 -7.93944931 -10.23355103 -3.79638410 0.97709525 -4.27069378 -7.86603594 -19.89558411 10.26351261 -11.73838425
700w 10.52312851 -9.26659584 7.84199381 1.27519858 -8.08138657 -9.32790756 4.99991941 9.40921497 -4.60827208 0.45785969 3.08102608 -1.96004808 -3.00245404 2.71452737 -3.91386437 -4.85216808 2.49361944 4.91460896 4.97834349 -0.57481319 0.56933147 0.06167804 -4.47373676 -4.07092714 -10.99719906 -6.47519541 -8.61148453 5.70185566 -7.71417332 -3.75175810 17.82832909 -3.99082041
70s -1.07830083 3.39871073 8.39097595 11.98704243 3.99509144 7.06511211 4.92255116 0.17781937 -1.38878584 -5.70538282 -2.81400204 -4.79278660 -0.46145478 -6.31574917 -1.46242332 6.27060699 -4.71722698 -7.14315605 7.11181927 -0.00238171 6.88954353 8.29305458 9.06294537 -2.38629317 -9.85137177 5.34030151 1.23690295 5.24625158 -11.16956043 -14.70126343 8.95611858 4.60344696
8 -1.39656615 0.07750737 1.97725713 -6.29472494 1.91484141 -9.37731838 4.44551086 1.27879727 3.82270408 -3.39101028 0.46915665 2.82688022 0.54920691 1.00330532 -6.80375767 6.74671221 -4.19804430 -5.25276232 -3.16892910 1.31101382 0.31921804 0.45688552 0.25902292 -2.22342038 4.33394241 -4.34431696 1.88703012 2.27909946 -6.80944061 -3.02041650 9.98897743 -1.57214880
80 -7.75043821 -8.97253418 5.29756117 -2.37259126 2.10660625 -0.05070759 5.19760990 1.41328490 5.31828547 -8.33018684 -5.60279560 -8.18950176 -5.22316170 -9.36111736 -7.91821480 -9.68582058 0.75688457 -0.24707176 5.68474388 -11.08163071 3.95055175 4.42012835 9.30034542 -1.45435143 5.37029791 -0.17567880 1.12806034 5.00960684 -10.97379875 -5.04933071 16.07776642 -5.37722206
80s 2.88540196 -0.13065830 -0.60282767 6.70569420 -8.74807549 0.78712809 -2.72010064 7.30112648 5.15987730 -2.29687405 -4.66790104 1.79058218 -3.40075874 -3.22848988 7.80100489 -0.68026155 -4.89245176 -0.62559110 4.91110039 4.32782316 0.16894305 -3.71770787 -1.47729266 0.63610095 6.44215870 -7.59456539 -3.82953095 -8.86892414 -23.61810493 -8.19133759 9.68880463 7.91129065
8125 0.32659939 0.45987040 -1.68193710 -5.66597843 4.37304688 -0.85797048 -2.58717871 6.91507006 4.09308195 -1.91988885 -0.30640745 -4.15164995 -2.21248102 4.95464420 -5.07961941 -3.69051003 1.04638481 0.27024311 5.38984776 -3.53154612 4.59234619 0.80856764 2.38461637 -4.79425573 -2.18299437 -4.50811243 3.60751319 7.66571474 -0.71615684 -1.79045713 13.90145111 -3.34061050
85 0.20509060 4.62351990 7.26256752 0.61239368 8.32673073 -3.09794927 6.70947742 -2.49090099 7.09290648 5.09265089 -5.60449505 5.42054701 1.86969531 5.75423050 2.24322081 -8.58503056 7.13732243 6.63508606 -0.50820035 -6.30179882 1.26412570 2.20135117 -2.12821794 6.66733742 -5.00819445 -2.66934896 -3.35784149 -4.04031563 -8.54063320 -8.63641262 11.77023220 -1.92758536
8525 -2.04954123 -0.56933510 9.40090561 -3.67349482 1.16887927 5.24813318 1.11838329 -2.46747613 -2.13398767 -6.73462200 -3.15657568 2.15598440 -10.29425907 1.35326838 -3.24874735 4.70859337 1.22956491 4.86472034 -5.94528103 -8.18380165 -1.78942859 4.91822100 -0.18656360 7.18749952 1.65133715 1.17352355 8.20445538 4.49873066 -4.53741407 -0.65488040 17.49296379 2.05489469
8530 7.39304066 2.01093531 -6.47082567 6.96846294 6.08297396 -7.47839403 -0.99942541 -4.40930080 -6.44320917 9.87077904 -3.07146764 5.30104446 5.74531221 1.42221546 -0.21714479 0.66819537 2.81927395 5.79950809 3.39268017 -3.65001750 3.41455936 -3.59848285 2.22328663 2.57007265 -3.67854595 -0.99644399 -4.38385963 7.50990295 -11.76412296 -0.32576934 10.31739998 -5.20183277
8pm 2.61991096 -4.36570549 0.55317134 -8.18892193 5.25277376 -2.55823517 2.11847496 14.82650948 10.62268734 -7.01562595 0.69178808 6.58777285 8.06289673 7.84005356 0.00546733 7.69286108 -1.99325776 -1.17580462 -0.54360402 -4.30163527 -9.95008755 -1.24478447 4.20647621 2.88157511 0.96570528 0.81847167 4.33676910 -5.18737221 -7.67005062 -5.05895567 26.47375870 8.86116409
9 3.18926477 8.13182163 12.75147438 2.88801265 -3.16497064 -5.53692818 2.84771228 5.10325861 1.10169625 0.98564100 -10.96400928 2.12818480 1.17858791 -0.48934388 -7.05940437 1.39634204 9.89603043 -9.33909893 -0.96881276 2.95830345 -0.85388917 3.79561234 -12.08215237 0.50485700 3.98577237 -5.74970818 5.69434881 -1.46291375 -14.56185532 -13.68424892 15.00415421 -6.18254852
90 -3.69785714 -2.07373142 1.07366848 4.52201128 8.16049194 1.66344488 0.21537790 2.81965375 4.98109198 -0.87358069 -1.71748817 -3.72832108 2.64026618 -0.65643805 -4.00477457 2.63350749 3.15198517 3.02644539 -4.53749609 -1.93791044 -1.50056958 1.55345452 3.85252094 -1.24263251 -1.82707119 7.73318863 1.12145936 -3.47189879 -8.94204235 1.70895040 5.63712645 -1.23477232
95 -6.94520807 -0.89619225 0.22721565 3.72415257 0.87099171 6.20394325 4.36790562 14.69381523 2.81843495 9.99612617 3.11995721 -7.79972410 4.13911629 13.43222523 2.44370675 6.58831453 -4.75426865 -5.18675900 -1.89219844 -5.46615982 -10.60118484 -3.16205883 -2.98566222 8.72646618 8.02286053 7.60501528 -5.37247086 1.13781929 -14.32892418 -12.34840679 12.00174713 0.58323812
99 1.74823833 2.83095193 -0.88706315 -1.15304029 4.63354492 -1.88608515 9.30827427 -5.11326647 6.13271046 7.13757086 2.64371967 -0.61727399 -1.95509017 -1.51628697 -1.63760281 2.78632879 3.12874436 3.48677659 -6.27394485 -1.04613352 -0.10087689 4.62786722 4.82637882 1.90256727 -0.21058482 -1.02432477 0.27268139 -4.05455685 1.18256104 -3.65540791 18.35126877 -3.01158333
a -0.38065204 -1.11614347 0.60661596 -1.12491739 -0.04065061 0.70063907 0.90779293 0.69952041 -0.52096742 1.56174958 -0.35162163 0.90077072 1.28705370 0.91077530 0.35268986 -1.05638385 0.80717361 1.14780629 0.06230998 -1.02481341 -0.10631938 1.28133416 -1.18175042 0.45580745 0.64072353 0.35971147 0.42530397 -1.79594445 -0.29766974 -1.24615347 -0.44822052 0.56611049
aailiyah -2.60419631 -3.55086303 0.16119093 -2.57190251 -7.55796719 1.94097054 -1.39260018 8.71166992 11.15156746 4.80967426 2.53413606 -3.74578166 -0.89925265 3.08156896 7.84274721 1.73788869 -0.33891648 1.67798173 -3.21310735 5.65487528 12.04967403 -3.95280910 -6.11603117 -2.80764675 9.33179665 -3.54776788 -7.13287497 -0.17076981 -12.77068615 -14.49409771 8.58226681 1.90070295
abandoned 0.18110502 -16.79934883 2.09703350 8.95071793 2.12078929 -3.29924798 11.43459415 5.78405714 -4.85846138 5.06096649 -9.97265053 -4.11626101 10.46246147 6.26513004 15.07559013 3.98674631 0.42338139 15.32119846 9.04870701 -0.45802474 7.19140291 8.39907265 7.80720425 -3.16570497 6.52060413 -5.42633057 -5.54864597 -2.01836157 -5.21516466 -7.24809980 7.51255322 -1.52603793
abhor 4.79980612 3.31578374 0.33106321 0.53061593 -0.03237478 4.93376255 -7.20571566 3.91905284 -0.76787698 -1.45005643 3.20786142 -1.87854445 -6.12477589 -0.30644959 6.69397354 -2.29454851 -1.48619819 -0.37931553 -3.84247184 -2.45008469 0.69632560 -2.41803741 2.74705458 -0.55880630 2.04862928 1.19384229 -3.56262708 1.48134470 -8.23849583 0.36400512 8.59847355 -1.67167258
ability 1.32108605 1.97791505 3.80578494 4.01274157 2.29963398 -4.13583326 2.58966851 -2.29365253 -1.62207544 1.94153845 -1.87281632 -2.75791454 3.24926686 -0.48263139 -5.89881611 1.66777921 1.72076440 4.99627733 -9.64182186 0.53841561 -2.76709032 -1.33485925 -5.59291458 -4.61786509 1.23598647 1.05431902 -1.44014668 2.32470131 -5.13411617 -2.92692637 6.01138687 -3.54730415
able 3.69790053 -3.62883186 -1.00877190 3.11385918 4.09912682 2.53280258 -4.56484985 5.33424854 0.83007342 -6.98760414 -3.63627791 0.75577515 -1.27024949 0.88950646 2.12992525 4.65079165 6.24817801 0.42023101 1.90636230 1.24187040 8.41170979 -2.09105325 -7.93566513 2.68041587 0.89730787 -0.33723706 -7.77277708 -3.29123616 -7.54438925 2.21147108 8.68741035 2.10757089
abound -6.43505478 3.84259129 2.95859742 4.44534636 5.89888811 1.76012218 -5.05402660 -0.93785781 0.34045491 6.59061670 -15.85167122 -9.64133263 -7.19196987 -1.66294885 5.88234997 2.05081916 -7.94049740 9.44501114 5.20338202 -2.29712653 -1.70565617 -0.72502148 9.41709518 -5.89873552 0.41379774 0.48542282 -4.33735180 0.16552882 -2.14983344 -6.66022158 8.58702564 -8.21166706
about -1.06074727 -1.37524712 0.26205200 -0.64618826 -0.24260980 0.32494161 -0.45631689 -0.19568446 -0.42763069 0.49188024 -0.19240148 1.73086798 1.35763955 -0.58464462 0.23206180 -0.23706213 0.69034153 -1.88124573 0.02835198 -0.76327825 -0.30075213 1.53244078 0.16315393 -1.79354870 -0.24571705 -1.04826081 -0.26817408 -1.37843108 -0.02290158 -1.50023758 0.81998563 1.31803644
above -1.41494071 -0.47173759 -2.43005919 -4.33166027 -1.55699480 0.14101231 1.11314487 -0.26370326 2.75303030 4.86232185 1.52165556 4.04119110 5.26217365 -0.00327103 -3.86061287 0.70518291 -0.01038955 3.19460320 1.16915321 -1.89389992 -2.59620237 -0.64355117 4.26772690 0.68405932 0.38063696 5.50005293 -2.40640855 6.94539309 -1.17971718 -2.62776828 8.57579708 1.51778758
abroad -0.58058172 -1.01351070 3.93090439 -0.73142797 1.00573230 -0.34643739 -6.86773682 -2.82898450 4.96233702 8.39230061 -6.08981037 -3.85832596 -0.04234893 -5.62774563 1.40297115 -0.34915110 -1.97166550 11.80529404 -7.27629995 4.77022886 1.05818069 9.52040005 -1.47807646 0.56591797 8.57683182 -2.23541498 5.03649950 -1.55359817 -24.89298439 -16.67291641 10.42753601 14.86062527
absolute 6.48197651 11.78053570 -2.86692619 -3.93156505 -7.62795973 -9.97450829 3.17448306 3.31966448 2.78622580 -7.49522543 6.21339273 1.62182951 3.97356009 -6.36294556 10.30790234 0.22748111 2.79983068 -4.04781437 -0.73238134 -5.22716904 -1.89973116 4.60846758 0.38372332 12.92640209 -1.18048942 -7.89712000 1.60578239 -4.66066504 -4.66901875 -6.08101177 4.43747187 -6.45773554
absolutel -4.65827417 -7.82991028 3.60711098 0.68696487 -1.19606006 5.23035049 0.04409886 6.79891253 0.78770292 -0.63440651 -0.32527933 -0.06642605 1.06677687 4.12496614 8.62871933 2.94430995 -6.66158056 10.16157246 4.72696829 -8.14021397 -5.15025043 -8.16745567 2.19013929 3.56522155 2.64159584 -0.65873593 -7.62839556 -0.78402930 0.35586423 -2.60597968 15.03411293 3.54174709
absolutely 2.47209668 1.18186688 -5.92081976 0.47519785 -2.58514524 0.73275363 0.38408604 -2.23470330 -2.48535371 0.73942810 -0.21755044 1.99616969 0.44709861 -1.57874429 -0.19127689 0.23064698 -0.59616441 1.25584114 -0.42998558 -1.22471774 3.27498865 -4.64245319 -0.96862543 -0.11666147 -0.84761983 -0.91945976 -1.41474223 1.07266843 -2.15291953 -0.74330914 3.70421934 0.82972383
absolutley 7.00120258 -1.74176514 3.90953064 3.48008728 4.01466274 2.93599296 2.92119694 -5.39501715 9.00469875 7.82545090 -3.47251034 -2.92421412 4.92539644 -2.73136353 -8.85598564 0.86916178 -7.65552044 -4.99298573 3.75331759 2.64948869 10.12313080 -0.02105782 7.80544758 -2.24541020 -6.67957067 -10.04203987 1.02345467 0.83969110 -10.90636158 -17.70539665 7.58606100 -1.39426374
abstruse -10.28084278 -4.00094986 2.43476224 2.18185949 -0.12730050 -1.69893777 4.76331520 -3.60927677 -0.17313190 6.03383636 6.98665524 1.81574225 10.39782619 4.88038301 3.66388917 -4.77928257 0.82859212 5.94724226 -10.35513401 7.75540400 3.98703432 -0.28075108 8.89229774 5.09752750 5.14817810 -1.74700153 -3.77766347 -6.00605631 -9.72507286 -11.14215469 10.17004490 8.46012592
abysmal -1.54371631 6.01054907 -3.42845201 7.05211592 8.76230240 5.43407011 -11.48947048 -4.38877535 -10.59731674 9.98001862 -1.63872182 0.87058270 2.92844272 -6.31753159 0.70139194 2.71987867 3.13162017 8.50535393 1.67756867 1.67564416 1.29537046 -6.24180889 1.09329927 3.66348600 -5.06220531 -6.88352871 -1.72174382 8.64300632 -6.57461548 -6.44096136 13.87834263 -7.07455778
ac -4.60060453 -3.23132586 -1.94213188 -6.35263681 -8.55938148 -4.02522516 4.66238737 8.51156616 5.65646505 -1.02203965 -3.27965021 -1.34310460 -4.95138264 -6.00224447 -2.14691281 -4.45597315 11.63002300 7.23581600 -1.49516559 -0.10894475 3.65681148 -0.55874377 -4.01492167 2.67644405 1.84544635 -5.39217234 -2.53267407 3.72881722 -2.87369204 -7.50303650 18.72554970 -11.18587399
academy 0.05350589 -3.25051260 -0.49010956 2.41694856 -13.36193085 -8.01514053 -4.12932205 0.71709812 5.68017483 -1.57682180 -3.39610505 -4.39175415 -9.61732292 -7.55487680 -0.96371645 -7.72379875 -4.62458944 4.28078747 -8.45630836 1.76542175 -1.26353502 0.91368657 -1.76436520 4.65422153 12.07476330 1.86343265 3.66779423 -0.97889984 -7.07514095 -8.36318207 8.55034637 -6.13502216
accents 2.53168678 3.05488229 -9.66864204 0.43512267 11.71305943 4.47858810 -1.89248705 12.10542965 3.05210519 12.91693783 -5.28750038 4.73119307 -9.20265675 -1.80519462 -0.06022336 6.01741505 6.48389482 7.90534592 3.97308397 -3.61739016 4.90573597 -8.77404976 -3.12351942 0.40319505 -1.77668107 0.31540892 2.46445990 4.07220507 -5.84428263 -12.28244781 9.68346882 -3.76314712
accept -9.07572079 6.36270905 2.88976431 0.80398858 0.61342907 -3.38692784 -6.50417089 3.73049259 0.94025260 0.30595714 -2.99385381 -3.14570022 -2.33707500 5.26643896 -0.64033645 -4.37289619 -1.40453899 -4.81165791 -1.04144371 -8.76810646 3.96826434 -5.14728928 -6.61867285 1.52095866 1.45299828 2.81619167 -3.48828673 5.63420582 2.97512412 -2.69819736 13.75297832 -6.84277487
acceptable -3.65688753 -5.44179964 -7.57532406 -2.02952576 7.04859543 4.73128223 0.67624837 4.90476894 -4.82914925 3.94526052 -5.59241772 -4.13344622 -6.56459427 3.75391603 6.02736712 -5.61916971 3.81185794 2.24985719 5.55091858 6.48967934 -7.95815754 -3.36869264 -1.00914431 -2.99481034 -3.63502431 3.46262860 -9.88414001 12.64387894 -8.39376736 -3.24665236 14.30631542 -3.30423212
access 3.83449817 2.14359879 7.33970833 2.48335767 -5.69419479 -4.74400902 3.39294910 0.98096818 0.88464701 -2.74850845 -2.32258773 -4.01011276 0.33367455 2.89350200 7.66240835 -4.99663591 -7.49636602 -3.90200400 -5.64923573 1.71196806 4.76975250 3.90747714 4.07873106 -7.67550993 -4.01052904 5.54599094 -6.53482246 7.59195566 -16.00752068 -4.05732346 14.17974377 -4.25016451
accessable 0.96589839 2.12549806 5.65798426 2.31950283 2.81170082 0.70018548 -7.81236839 -5.20378113 -4.43184376 13.38870716 7.08952141 -6.34529972 0.34045944 -0.30563921 -1.55899215 -1.49846089 2.12791514 -0.08170170 8.02636623 -2.50905538 1.57336116 0.03176308 1.10540116 3.70930982 0.34865007 0.80482006 -6.25321341 -4.78724241 -20.71189499 0.08057542 11.84896660 1.63892722
accessible -3.34328604 -3.51421237 2.91811204 -3.90737915 11.14614010 -0.18274021 -0.41322088 0.70582741 -1.38514924 -6.63004446 -11.89079571 -1.84691775 -1.56952453 -7.64649487 -8.08283138 -2.88249421 8.21899128 0.44228831 -1.51938093 -4.58095407 5.62936497 7.24132156 10.01012230 -0.59005791 -13.48590374 0.18288763 0.88990623 -9.04754543 -8.44853592 -17.01799774 10.23997116 -11.75277424
accessing -0.86590141 -2.05185223 -1.33728909 -0.84834981 8.96755600 1.95727694 1.62013614 0.69152951 -1.00565314 8.06112194 -0.82538635 8.90942383 -2.71776319 4.69203568 -1.05678821 -3.13494778 5.50848722 -6.62573051 -2.51819086 1.36880398 5.79895353 -0.35974208 2.70879221 0.56654775 -2.04282761 4.73992586 -10.07211113 0.25982216 -10.01859283 0.75819594 9.40191078 -4.53197432
accessory -0.19945395 -5.19878292 4.49720573 -1.18776548 2.15997171 -3.14323854 -6.76229858 8.59697056 5.76429701 0.87016958 -0.48914772 9.50715351 -11.46191978 10.15092850 3.09894323 -8.28309917 3.00574660 0.20936283 9.00037289 -0.07898777 1.15559876 -7.75496578 5.41584778 1.45254862 -5.77911377 7.40867853 -4.08341837 3.52476096 -5.42416811 -14.58687782 8.84739590 -4.15935373
accessoryone -3.71452737 3.21228766 7.42553234 3.18615222 4.00507927 1.10086823 5.78831530 3.85639644 -0.11142086 5.04836369 -5.60663414 -2.66529131 -9.82925129 4.68443871 3.89007783 -1.88361120 -1.97800744 3.36296701 4.90914917 1.79573464 -6.30545092 -4.10985994 3.53688955 -1.12940061 0.13254932 -4.36490250 0.52745271 -0.18131898 -2.97926927 -5.93914795 5.32398891 -1.55989814
accident -11.95023823 -0.07963058 -1.48199940 -2.77725959 3.42411017 -7.01784945 -3.92086530 -5.64178944 -1.59075189 5.42041206 8.14114094 -2.23577666 -1.18474782 2.98766184 3.82215285 3.02748418 -0.68392360 3.45967412 -9.54903221 10.11747646 -3.66911340 4.46587992 9.28567600 -1.74298799 -1.94037378 -1.03615439 -0.23242213 -7.73288059 -7.30649042 1.66761100 10.36184406 2.86237597
accidentally 8.14555073 -3.38322711 -6.03088140 -5.02311373 -3.03996754 -3.87729692 2.87130761 7.48665857 2.37860370 4.99095774 3.59069991 -8.77798462 2.48931456 8.36496544 -3.19795561 -2.47578478 1.46775377 -6.45614767 -0.66551775 -11.11310101 -2.46348715 0.71016169 -0.68550807 1.52628231 -3.81548905 3.39825177 5.40860462 -0.30540773 -3.67014098 -6.42501259 12.25671864 -2.88759851
acclaimed 0.42508391 -0.94598663 -6.33664560 -0.67767888 -1.62870121 -6.78551817 10.60086060 -7.73412991 1.30965805 -19.78492928 -6.90785122 4.76600742 -1.42763698 -7.16685343 -4.02545881 -7.58612823 -1.56627131 5.79511690 8.08616352 -0.08909278 -1.39106953 0.27146086 -2.48231459 -6.04932833 0.40287873 -1.17637098 -10.60979652 9.28077316 -9.49971199 -9.12709999 12.93455887 10.89300728
accolades -13.37044144 -7.56477833 -2.49449897 0.84503758 -1.67085814 -4.20002460 1.53360355 4.93140984 -5.14230728 4.00880146 3.99074435 9.25036144 2.68141317 1.58474505 -2.59386230 12.24998379 5.74602032 1.60630918 -1.86889148 -0.64396924 9.07852554 1.79531646 -3.58755302 6.47021008 14.59693336 -0.87299782 5.63024950 6.12094831 -23.12216949 -4.26016951 11.51345730 3.85883260
accommodations -2.60538650 3.66734600 -11.20665264 8.79438591 -9.79065514 6.95893621 8.38798904 -5.09429836 3.89628124 -2.75393391 2.56790757 8.46109962 2.51216435 -0.71832907 0.90392601 -5.35186434 -8.41092873 -2.53966761 -4.79666567 -4.88119411 -1.96810710 -4.94863319 5.02469063 3.36392713 -3.37915134 -4.01211500 -3.07603836 15.64184952 -7.15761948 -11.37831211 15.78390694 -5.41181278
accomodate 4.99594736 7.01937580 -0.16581434 7.29030180 3.95888495 -5.66074467 -2.24757528 -7.00443554 7.55615711 -0.15167150 0.86598039 -4.25374746 2.32286954 -6.04567051 -7.13441849 -6.44564199 -0.43776035 -0.66385931 0.58331710 4.45936489 4.37048435 -5.57904673 -5.98300028 -1.45783854 3.80533266 -0.43313205 -3.57106781 4.84279156 -7.91049433 -5.89728594 7.31723213 -0.68465799
accompanied 5.76362419 12.47339725 -1.68357015 6.08651638 -4.65054131 -1.74408102 7.68519449 3.92254901 4.58931160 2.33425236 9.35209274 8.60578346 2.07709813 8.60875130 -0.25982237 4.12398911 7.77847242 10.94198513 8.90857410 -2.06994295 3.06800056 5.48133945 -1.02674222 -2.03736711 -1.00652838 -0.95400220 1.83914328 -6.45957375 -9.51639843 -7.04471874 6.64390373 0.14375183
according -1.56445873 2.72074175 -0.72444302 1.58673406 -5.93825006 0.11841282 0.40039033 -11.33415890 -4.52436972 -1.04118180 -3.73597097 -4.06971407 -0.28954872 9.49155521 -2.22348762 -3.71988201 4.25768566 -11.63006496 0.48108286 5.77445030 5.11645889 4.22446108 -1.40041709 -2.06124949 -4.66606617 -1.40547597 -6.01943493 -1.45540404 -10.28771400 -5.74086666 7.95038509 -6.46206617
accordingly 6.05596733 -0.65270531 -3.75947976 5.23653889 -1.47016132 -3.69042921 0.33740792 -9.25866127 3.92573023 -2.95797467 -0.49893448 -5.44449186 -8.01364613 11.88133717 -2.53269267 4.24575377 -9.00548935 -8.33209038 0.03387011 3.97431159 -0.84424609 -0.77354425 4.45529699 4.88867950 -3.86160088 0.20470828 9.58125305 0.75610560 -6.42549515 -9.52665138 11.98655319 -5.96980667
accountant -0.35797894 6.24093771 2.24358177 0.38161051 0.17888753 -0.98765910 -4.40632820 1.25664353 0.62943196 -0.79625344 2.59251976 0.60262227 -3.82086468 3.35561872 4.34668779 -2.89870214 -0.60326922 -0.59554076 0.71602023 8.14809608 -6.95590305 -3.43971038 6.05237293 1.34683657 0.57974482 -3.02416945 2.66235542 2.70253181 -8.48376560 -7.75224113 16.03779793 -0.79654068
accurate 9.81432438 -5.49961901 -0.30245984 -7.30810118 -12.59454823 -1.43574655 5.15179777 -1.98206234 -0.71858323 2.43698263 -1.09751010 0.02608258 -4.99611378 -9.58193874 11.58976460 4.04645395 4.82259798 -2.31646228 -2.12984061 -3.41140962 1.16820967 11.23183537 -0.88627881 1.96998680 -0.26185235 3.14477229 1.15715182 -0.12131780 -8.55792141 -9.02880096 13.70413303 -0.20273027
accurately -6.93957853 1.04787028 -2.94685030 -2.07680917 -1.90556610 -5.08298111 -9.15053558 1.90504622 -14.20988274 3.95292997 -8.24765110 -7.86087513 1.66421604 2.10216689 6.98503160 2.16701674 3.54729271 3.84680343 1.96059453 0.49405202 -0.56119341 3.33479118 -5.99185419 6.56794357 -1.70358622 -2.50869346 -12.45350170 -4.82724905 -9.02190399 -1.97107482 20.35950470 -8.20388985
accused -6.62589884 8.88537979 -5.42722702 1.72375870 -7.10380602 -3.14892149 -1.54241598 0.57129127 6.84587765 4.48055410 -4.24015331 -4.26325083 7.63107967 -0.39610550 -3.39396501 -3.04673219 -4.75088120 -1.92595339 2.07293391 1.36991131 7.60012531 10.82851124 -3.53809023 -3.17793369 0.27297002 -2.43504524 -13.53290272 4.29433727 -5.22647715 -0.61331177 15.60068607 -4.97998142
ache 1.59371638 -1.69726145 -3.26407719 1.34000254 6.24835873 1.20453787 4.75827074 1.25220323 8.47631550 0.76921755 10.21802616 7.65215397 4.59025717 9.08384037 -3.00305152 4.51442099 0.74344712 -0.95422763 -6.95651770 -1.02910018 -7.36579943 -0.38875765 -0.26716030 -0.07958618 -2.32922482 -1.55204046 -6.76344442 -1.65250587 -10.33776283 0.50739962 19.94746780 1.81165540
achievement -12.66679287 -0.25531363 2.38035703 -8.72640800 0.26795506 2.46644235 7.45511150 -6.24949026 -12.86155605 4.01348782 -6.27659130 -7.15477324 -1.86174214 1.39807832 -10.63144207 -0.89798975 1.73196864 -6.11873722 -8.68982983 2.95175385 0.66220397 5.01421785 -1.82926953 2.89081359 3.21435261 -2.95151138 -5.32910633 5.51212406 -16.09946251 -7.37504530 8.30375290 -0.87209940
achille 10.31894684 2.81902647 6.17655897 -8.70798969 1.34030139 5.18793392 11.71657562 -4.21840334 -9.03789139 -6.51801777 0.78641152 -7.93065214 -2.80627203 1.64176273 -2.65427208 -4.08433676 12.78301239 2.44994068 1.00245118 -3.91822672 13.15607357 11.71022129 -1.09295714 4.71391678 1.81786764 7.49188519 -1.02950299 -2.74641871 -9.13620663 -16.41711617 12.86404324 9.87110806
ackerman 7.52754736 -0.46499759 6.67983389 2.35220861 3.97429466 -0.00091112 2.31658840 -2.50233483 16.83445168 3.71310115 -6.90704060 9.06548786 6.61142206 4.91127253 -6.05027246 -2.27013421 -5.60184145 2.87446356 -1.11581445 -3.72339416 8.88625526 -2.22770405 0.57187051 -0.89568096 -5.81472015 0.71108258 -7.56326151 0.77007210 -11.60727024 -9.90232182 12.00298977 -8.82521629
acknowledged -5.96871138 -0.12894399 -5.73882580 1.19206285 -2.39427042 -6.86285210 5.36121702 9.49668503 1.91415620 1.61569655 -0.31585243 1.10185826 5.80276251 -0.62220025 4.39371777 1.16365039 2.08673620 -4.32674074 -2.49306011 -0.51176894 -6.46439886 1.59713316 -0.12613985 6.46476603 5.18481779 0.77990377 0.59051639 1.61462259 -6.68189955 -0.11734641 15.91582108 -4.52036142
across 5.80608034 -5.54535675 -8.35837364 4.04366112 1.08382642 1.20303762 5.85783339 -6.98688126 10.85563374 -11.53877354 -2.66941357 6.01472425 -5.73881388 -2.63366508 7.59698963 -5.85455894 3.73304391 2.04851246 -2.06252408 1.07794499 4.99691534 1.58050561 1.54659986 0.71926337 8.58166885 6.14750004 -2.90885186 4.85795164 -12.38719749 -1.70987880 10.40114212 0.01501184
act 1.86690927 3.75500393 3.08249784 0.30309793 -7.74824047 6.68914509 1.13493240 -0.19992703 2.25874233 -3.61595058 -1.43676126 -3.50375199 -6.57160139 10.61172009 -12.00169945 -9.95309162 -3.59519076 -4.44242907 5.53602982 -2.69055581 -3.35032678 -5.06067324 0.23338367 -1.21224642 -4.54791307 8.24981213 0.93807346 -12.42360687 -7.04801178 -8.52265167 20.07134628 -0.96912950
acted 2.26942062 0.69260901 -5.48777390 3.36472702 -4.07209301 -2.59170032 -3.35149169 5.62489176 13.18386269 5.25830507 8.79814243 5.12313652 5.63610029 2.20097065 2.07774782 -7.74352312 0.33223665 3.49284434 -6.68043089 8.56217194 6.27873707 -0.44982144 1.20513153 -2.58726382 -0.20348513 -3.14384460 -7.57044125 -3.89126444 -13.95161057 -12.57206917 6.06994915 -4.84758759
acting 0.51398534 1.71378911 0.70442027 0.17758147 1.30983686 -1.52915275 -1.36131024 -0.16874750 1.00678003 1.17265475 0.54600954 -0.01707999 0.78364730 2.35408521 -0.74267471 -1.31638610 3.61781263 0.86057270 1.20098484 -2.30384946 0.84538746 -2.43213677 -0.27979338 -0.46466380 1.30119252 2.72123480 -0.91022384 0.78796947 -2.43482161 -5.57382870 3.64972854 0.24589534
action -2.45153546 -0.91263372 -7.30662632 -2.77680731 5.15735626 -0.29808992 -0.49106812 1.06472111 -2.28269577 2.03527212 -4.47755480 6.19701576 -1.30402005 0.48017558 0.77812588 3.24679089 -1.26220536 -1.10316217 -2.19626737 -3.50351429 -4.81068087 -0.86001003 -1.98050344 -1.86831164 6.54662466 4.18197393 -0.74937195 -1.21910870 -4.21879673 0.42335054 7.92654896 -1.20876646
actions -2.31471658 1.74154329 -2.70330000 0.70428282 3.15098453 14.29370594 8.37816143 10.36080456 10.47955036 8.87143421 12.31334209 -7.37519550 3.57557750 -5.36271429 -9.72614288 0.54858947 12.35070515 -0.26092544 2.05304027 2.07835197 -0.14160305 -0.22510239 3.60414219 13.26336002 8.05135345 -4.98603296 11.22010040 -2.15200734 -7.12392330 -6.94549704 22.43122673 -8.44265747
activate 3.39398217 -0.92041469 -9.92066479 -3.84490633 -7.70068121 -0.60926938 -10.18639755 5.39397430 -3.39376855 5.21310139 -2.04721260 -6.37948895 3.87600589 7.03376675 -7.59897280 -3.57494116 -2.25459242 -11.70714951 3.54499054 -3.01610041 -1.35418653 5.55573797 -3.40032458 5.97137594 -4.30200100 2.22489500 1.61919725 6.33523750 -5.99704170 -6.01573372 10.05677700 -3.71888518
activated -2.06153202 -2.90510726 0.34473526 -4.76205730 -0.89282912 -3.97174048 -1.91757023 7.56146479 -0.53671992 2.30398607 -7.62543583 -6.59402466 1.40406775 -13.35922527 2.85592055 3.43352342 0.04581951 -1.53073275 -4.72152948 -10.53162670 -10.08156204 0.82181245 2.99850273 -4.93552494 1.57507324 1.42432570 -6.54376268 5.81101799 -3.52868485 -4.18317223 10.13731670 7.66398430
activesync 5.53824949 0.21301559 2.97266316 1.37877977 0.65581590 -12.76029205 3.46053600 12.18797207 8.47886086 -7.12628126 4.91380262 5.54396963 2.05506706 -0.20222399 3.92546725 0.45522153 0.99071336 5.44800997 0.19808681 5.79692125 -3.42856979 7.04876661 -0.93932688 -2.21408606 0.13392705 -8.07052898 0.18173949 -4.77045250 -5.25346327 -4.21757078 11.02516365 -0.79314780
actor 4.48210192 -1.04831028 1.81587863 -4.42072487 -1.50586867 -4.08231926 -1.44192290 0.19614653 0.25217450 0.99895543 -1.63264918 5.45586395 1.57448792 0.69961375 -4.47471094 -3.13753724 0.30502591 2.84971905 12.67290878 -1.24717438 1.77374279 0.19547114 -0.96156049 0.12277874 2.11444163 1.62488711 -4.89009619 -3.87661242 -10.87465096 -2.00969648 8.46659374 -3.68229270
actors 2.80223179 2.41390777 -4.56680536 2.48302627 1.73833370 3.87528205 -0.50842643 6.44485378 -0.29918522 1.06787467 0.81906903 7.07490301 2.04439354 -2.55251408 -0.97227895 -3.06959748 3.95403409 2.06263566 1.23883867 -0.97553444 0.37750772 0.58296657 -1.89429080 -0.92696857 -2.79164052 -2.91359496 1.29131186 2.30540919 -2.72192359 -4.06309938 4.89173841 -0.32645756
actress -5.99017143 -0.39807671 3.21217012 -2.61621833 13.91043186 7.95140505 0.58009678 2.40780139 7.28375387 -2.41177320 4.50501919 0.49551526 -6.88446665 -5.01892233 -3.75092435 1.49282098 11.79859543 3.56851578 0.29101616 -5.19570065 3.22704387 1.30723274 -2.62908936 -0.46266422 2.73006368 1.03535914 -1.99207044 -0.18325022 -0.46539909 -6.38527441 7.31999636 3.16385984
actresses 6.90351105 -2.24323058 -11.20074463 3.53522730 -4.51641703 -0.91141367 -6.70039415 0.32753667 5.83176041 -10.55875206 -1.91468167 1.67749679 8.16948032 1.10495198 1.75662637 -0.25685844 -5.97836304 0.30359721 0.52997291 1.29616904 -2.89053464 5.19575071 -3.87571955 -0.31177112 -1.35249770 -0.27206200 3.67455077 -0.98901558 -13.88833237 -7.15866566 12.72488403 -4.94837093
actual -5.28571367 0.89999676 6.09158945 0.39918092 5.30232048 2.15454364 -3.27374649 1.82366848 4.44320107 1.58815444 -0.86100459 -0.14182292 -2.79294038 4.08061743 -1.83922136 2.12119579 0.68998456 0.42065474 -3.95921016 4.28245544 0.78679067 0.07171844 4.48216772 -3.69194937 0.34976792 -2.52076340 3.40270901 9.81188488 -17.25244141 -5.23093367 6.69422150 1.19271481
actually -0.22409463 3.73865056 0.11823302 -0.31234586 -0.27191821 0.76306987 -0.13185385 0.60623777 -1.96797907 -1.21631479 -4.06345606 -3.23613596 3.23938680 -0.29511258 -2.20118546 0.86467123 2.12314868 -1.25842381 -0.35756665 -1.38350272 2.63013029 -4.72892952 -4.58041954 -1.39743769 3.16836619 -5.16488886 1.68463898 -1.24188757 -1.69263136 -3.13177586 4.21465683 3.23295188
ad 4.87080431 6.64414454 -15.12675762 9.96785450 -13.52009392 -3.45187330 0.41070125 8.84340572 -6.11609507 -3.84272385 4.20663595 -4.31542063 -1.21204245 2.71039224 -1.64223397 -3.43451428 1.60486650 -6.39637089 12.15220451 8.14433956 -0.54830116 5.66896391 6.42956257 -0.70617115 -2.95439768 2.82714128 -1.36284757 2.05599236 -4.88141251 1.64290011 10.61169720 6.26675224
adams 7.51450634 12.97731018 4.85462475 -11.26642704 -4.32525396 -6.14973307 -10.54931068 3.06371808 4.28936386 -0.78218603 -2.83127666 1.59901440 -16.07168579 3.13318968 -1.19807959 2.06128526 3.07040548 6.54762840 6.35617018 2.07801867 -10.24826241 3.09369922 -10.00117397 -5.05749035 2.61368179 -9.03001499 -5.82811594 -4.17780924 -17.79367256 -12.81499004 16.73464584 -3.87657261
adaptation 3.95630956 -8.17866135 -1.02176225 -6.06223106 -2.04428625 -6.55557632 -3.69299889 -7.00595379 13.76032925 -11.20599461 -8.75765991 0.65624726 -0.52589786 -0.45885408 -10.34720802 -1.60096300 -14.98051071 4.93521070 1.41343927 -3.33467650 -3.75934768 4.00926447 -5.77378798 -6.65678692 4.19881392 1.21226680 -13.31161880 1.25224519 -11.45702362 -10.47395992 10.75409031 0.79464424
adapter -10.20180607 -3.15390086 6.99322653 -0.80451488 2.26991415 -3.02776217 -1.26110148 6.86422777 3.03443360 -7.10898829 1.34473634 -0.78315848 -4.03317976 14.15317535 -1.81987774 -4.31290388 9.11817551 9.80243015 -5.50196886 4.74666977 -5.38761616 0.65469974 2.05575991 -12.55380058 -0.34319025 1.05866790 13.04009628 7.93564987 -1.13336396 -3.12448931 13.27601337 -2.52650976
adapters 4.68177509 -1.42618549 9.03117466 2.17679691 -2.69425106 -0.64538574 1.65850270 11.65119076 4.03685284 -0.74906993 -2.98935437 0.80790454 -1.69219542 -0.49665481 -4.67279720 1.52406156 3.97191262 8.26214409 1.40346718 4.10946941 5.20173073 0.59361380 0.18740287 6.27014732 1.76902521 1.91272557 2.32353997 2.52512097 -13.45166016 2.65366554 13.28019428 -2.68934131
add 2.62306643 11.21475410 5.76815128 1.28265166 1.23712480 -3.08560348 0.16788898 5.79785490 1.43841887 8.05164719 -3.82707906 0.72807175 6.10876322 4.93618202 5.63690281 1.93021524 9.12404442 -4.21433926 -6.20578718 -9.97870827 -2.07091522 -1.14256346 0.57615244 -0.83300143 -4.43711567 -0.35756385 -2.15359282 -0.38543484 -5.27136469 -8.97413445 9.89296436 -5.59976244
added -1.41762733 2.32427526 -2.40895009 -1.16612780 1.97921884 -4.31693220 5.49635267 -2.15449262 3.82814646 2.25722480 3.20986700 -4.06628990 5.21626425 -4.59949684 -5.75423336 3.95855713 -0.16469730 -5.47184658 -4.36452866 4.69568062 -3.97528744 -6.64874554 0.98270482 -3.70778918 0.52699804 -0.99397975 1.09499240 5.02376699 -11.05312347 -8.11210632 7.80689430 -2.50017357
addition 5.83094215 -8.15908623 -5.06057835 -1.24339151 2.27277017 6.19330215 3.08385634 -5.20236635 -0.89261097 -5.94693756 5.30310154 11.17907047 -6.84241343 2.35892272 -7.49300480 -2.51458549 -3.47468615 3.70956850 2.23976088 7.49516630 2.64294338 1.59832585 2.79135060 2.95026469 0.25447825 -1.73847127 3.80963778 -3.60428596 -7.01740503 -6.46986628 9.72711754 1.04606998
additional 0.43376637 5.05060959 3.33061624 2.74657750 1.94747210 -3.32021737 -5.01122856 -0.48011321 -2.63282251 4.87457132 -5.68715954 -1.26467097 -0.29868358 -6.40325069 3.44042110 -2.18708658 -3.19873023 -4.66408682 1.80574930 -3.79575396 -5.75322247 0.71888161 -5.05220366 -0.70363551 -0.59231395 -2.03008819 -6.36986971 6.44661713 -12.25450516 -0.67541778 8.28578186 -6.05354261
address 0.45379505 -2.18300366 7.80819845 -3.20354319 -10.85175323 -10.81341648 -0.29828110 6.45861721 -3.46621752 3.28882790 -2.55355787 -13.68537235 3.01555872 -3.78694916 1.42831016 -2.89813018 2.45597410 0.55624920 -1.93541455 -2.94940567 5.89413738 8.42300701 4.44330454 -12.11935997 4.24175501 4.70757341 -1.96014166 0.10328736 -6.06655312 -5.54364538 11.30377960 -12.97814274
adhesive -5.53420877 8.82333183 2.39752126 2.64481688 4.00599241 1.90389967 -0.48820361 -6.65265989 -1.71704042 0.22455402 -1.52566230 2.31739950 -8.52943707 -1.20603251 1.35448706 4.19328451 6.03583479 3.78239131 4.32648230 3.63017869 3.00150657 3.77885675 3.95557237 3.60613894 0.96108067 6.68635464 -0.54870093 6.73680592 -7.92754126 -5.84256220 11.83411598 -9.24906445
admins 4.90826035 4.84188986 -4.48273087 -7.52501726 1.81443584 3.58066750 -13.24446583 2.64072275 -16.32128906 -2.46152425 4.07533455 -2.98523331 -6.47448540 9.74066067 -0.06852296 13.90079975 -0.89693367 -0.48867598 7.30979729 -0.23620740 -7.76501513 10.04271412 7.46019602 10.27436924 4.19600916 1.73010945 11.00013161 4.82354689 -5.08208942 -1.47519469 16.42904282 10.76966000
admiration -5.80460358 4.19968605 10.98227501 12.09097672 -5.77636623 -4.19081116 5.05992222 2.35302353 3.76571465 5.81068087 10.98400307 6.07626009 -0.83986092 2.40209174 -1.41332841 -2.60979915 -7.08688688 6.97930050 3.05570006 -0.65013474 0.18336549 -6.92728472 -0.42425504 -0.13299190 11.06843281 -15.80579853 2.75911307 6.41938257 -5.73341417 -9.17286682 16.16148376 3.23259735
admitted 0.91413158 -9.45340252 1.15381026 8.27264404 10.87953472 12.52371025 2.14972281 -1.56232452 -9.80751133 0.73803073 -4.07172251 3.39125323 1.39884830 -4.74039602 3.32533550 10.61523247 -2.48933578 -2.18608451 -3.26035881 0.24691100 5.86772108 2.24252725 6.65860701 -11.24238300 -5.33661127 4.11740255 -1.41885960 -11.85501194 -3.23038101 -11.86672974 18.25054932 -6.52888060
adorable 7.55773640 -5.39519405 0.63324356 2.81213927 2.24009562 0.95315039 -0.06282220 -4.84837580 0.11026156 0.40491989 5.75429344 -1.77739537 -2.62504482 1.16176701 -5.88345957 3.27379346 -1.96019125 -0.26207367 -1.39864075 -2.80130291 5.35282135 -4.16964436 1.89052594 5.12527227 1.38147366 -7.55587053 2.05882430 -5.37590504 -13.40800095 -4.65248394 3.95513654 0.79985422
adrift 6.81141138 3.13656068 -3.02137661 6.90780878 -3.70089984 9.59319019 8.91950226 -2.39736557 0.20302397 -2.47737598 3.49476385 -2.06618118 -5.22929668 4.36105919 -9.58128834 -1.54716074 -18.70866013 -4.68671560 -8.07615376 0.16846523 -2.44683862 -2.22567677 3.09353328 2.32640219 0.03602161 -5.54786873 8.57124805 -4.06910944 -12.05452061 -0.37142435 16.59513283 -5.09342146
adventure 4.15922499 12.60108948 0.05625160 1.20426369 0.31706488 -2.44861269 -16.71485519 1.46414399 0.85488564 -4.83639479 0.26222444 -3.30105352 -13.53597641 -5.85378885 -0.48119923 4.22740602 9.57348442 3.13484812 3.88452363 0.77290058 2.63259029 3.82272863 -2.59373474 -2.99225450 -1.92121327 -1.94158196 -10.15369225 1.09398282 -13.90115547 -18.24022484 15.27964783 -4.91391087
advertised 1.48018742 4.21179914 4.82570314 3.23484612 -7.89482307 -4.42365885 2.58280134 8.11093140 -1.61641204 6.40032816 -0.34411418 0.09808392 1.84867907 -1.49236262 -2.68710303 -1.89544713 -2.80309606 5.44382238 -4.96337032 -1.61993790 5.90635729 0.17782681 4.45736361 -5.71868563 5.93832684 -5.53260183 5.37606335 -5.86156464 -2.10325933 -2.94309831 13.97126102 -7.64534807
advise -9.92462921 0.25721192 2.49482608 1.32284009 -0.13063642 -7.19124413 -4.73365021 -11.09627342 -7.16936684 -0.02671487 1.46024871 -4.95878220 -3.99633217 2.43748617 -7.98819733 1.60311925 3.89248013 4.32634211 -6.66479588 6.51916122 8.62860107 -3.68784952 -8.74984455 4.09480810 0.31939918 -4.77831936 4.24171209 -0.43763575 -2.32105947 -0.55320144 13.11835670 -1.13851047
aerial 11.41612434 2.56092644 -4.83710527 3.57526588 -2.50719380 -1.83021259 3.85412192 4.23537779 -0.41502586 3.43276429 0.67954493 14.79553032 -9.65813446 -3.80578852 5.91508389 2.83899140 4.90119028 -3.97607398 -2.37972212 -4.23846388 -2.70218325 1.32475734 2.76217365 -3.99850130 1.73865914 -4.49630356 -5.40960741 -0.72759140 -10.90575600 -13.13451385 7.64434052 9.14818096
aesthetically -10.84440041 -5.36894274 -6.00625038 8.73036957 0.95877457 -5.18908882 -5.59247875 -7.46943808 0.17900373 -0.01831651 0.88792878 9.62093925 -7.61457348 5.14869642 -0.05265446 7.95319080 -1.12411308 -5.10459518 1.45288002 4.20124054 0.61686236 1.49011910 -1.29289150 -10.17156219 -0.88303214 7.24832010 2.63918996 8.81518173 -4.20325804 -10.44753933 17.85739136 -3.41572165
affected 0.99593425 1.13064778 2.60017014 7.12573671 4.70514250 5.57033682 -5.04400635 0.81765091 -2.86649394 -4.80376053 -4.65166044 -0.47875163 -8.17556286 7.35711193 4.95042610 6.74330664 1.73849678 1.93375659 -4.31296158 -2.38190484 -6.20856476 7.05552816 -4.00537014 1.19287527 -9.22780991 9.70700741 -6.81843901 -4.73525906 -24.23912621 -8.64225388 17.18842506 -2.89037776
affleck -1.12664592 -8.32657242 -9.47286129 13.63481426 4.13153076 -5.80875731 -0.37210777 -5.35082960 -3.96470714 -2.09615135 -12.00640869 9.75845814 9.68483353 -5.22369432 -14.15863800 3.08728480 -1.75878727 1.95842302 0.31437919 1.91528058 -11.52312851 2.87292671 -10.12732601 0.21872079 0.62455791 -4.46798182 0.11575242 1.17402625 -13.97297192 -11.55182934 4.14146185 0.16449349
affordable 3.05820441 -4.76692104 3.30784655 9.75265789 -3.32303333 -1.93377972 3.03651667 2.40996647 1.61003160 -1.79516792 -6.67363071 0.84530628 3.06717443 2.48284769 -3.53771353 4.50090790 -0.67979008 2.43136501 -6.54675055 -7.03835154 1.40490794 7.06220865 3.59452605 0.56780404 -4.17601061 -7.12061071 4.17077351 6.05380487 -9.12451458 -2.89395857 9.19418335 -2.39248657
afraid -2.74499893 -0.22425330 -2.72527075 -3.02458668 -8.39814854 2.20145106 -5.99852419 0.63688999 -0.50289792 -6.99760866 10.85063934 -6.86696815 -5.78360128 -1.78521025 -2.89552474 7.22389841 -10.42150688 0.68873048 6.11036015 -1.49159718 -3.38109708 7.84977198 -3.53796649 -3.88167405 -0.34989193 7.72472906 -1.74699187 -9.68220806 -13.49587250 -4.30010319 12.95922565 -3.97061539
africa -0.31314054 1.07576835 -6.66189528 8.65569019 -10.03309822 10.12296677 -0.52830917 4.87678862 2.64783216 -0.96708757 5.30239248 -0.93201983 7.33137178 5.15771866 -3.64143586 -3.48876595 -0.25572905 1.53197336 -0.87514639 6.27130413 2.35795593 -5.30019474 2.18830991 6.11371279 -0.62006563 -0.43437308 -7.27185583 -2.08439779 -10.85888100 -22.23835754 19.65728188 -4.98221254
after -0.90071315 -3.29386163 -0.68144006 -0.82157689 0.83279496 0.63159359 0.89687985 -0.21279258 0.79866922 -1.81569624 -0.29117259 -0.36036357 0.79354489 -0.11998521 -0.27172571 -0.09010521 -0.69280577 0.80882502 0.49290335 -2.66490531 0.28462458 0.56141031 -0.17878766 1.78275585 -0.21620278 1.45656371 -1.89178884 -0.21700823 -1.64974916 1.45187092 2.84927487 0.45751104
afternoon 8.87781811 -1.82247174 1.88856065 -2.00321698 -3.95341563 -6.57651663 12.67092228 -6.32422876 6.06010389 6.92871952 5.08415222 -0.55109972 -1.29234302 -5.74334574 -4.89276505 0.89076293 -4.12833071 2.06860375 -7.08951473 4.05506420 3.54314184 0.28777719 9.33345032 0.61229920 2.44718575 -0.64687103 -1.23127949 -2.82474542 -9.75630093 -4.29997396 9.20672798 -2.89300966
again -1.27531517 -0.77203715 1.09913957 1.06994200 -0.85201597 -0.48990476 0.89185899 0.89325476 -1.19052589 -0.49021327 0.12217341 -2.39903665 2.53612590 -0.57674283 -0.78642374 0.29748395 -0.47829044 -1.46809447 2.13762903 0.90942746 1.55391395 -0.81322259 -1.38892174 0.98926371 1.70015371 -0.44648841 0.70153028 -1.00064921 -2.26399565 1.08022368 1.21544933 -0.11755095
against 5.15312195 -4.21160412 -3.26800632 -1.46881795 -1.88006377 6.75423717 -5.99857426 2.35927320 -5.70188379 4.13106966 2.44987154 2.43395066 -2.39133167 -4.72458553 -8.96716976 2.30353880 1.83668506 -7.49016428 2.53478384 -9.85151577 -1.16451144 6.99373198 5.78677273 5.41184807 -5.02679873 8.31080341 -4.53930664 -2.42934513 -15.44978142 -3.25099921 7.85872126 -7.88990211
age 3.14589214 -9.17966652 -2.33005762 2.45144653 -3.28861189 -2.80788517 15.04569626 4.08691263 -2.95089078 -3.40601707 4.86010122 -0.38803136 -0.85253811 -0.88055688 -6.43735361 -5.47008276 3.26714325 1.29476178 -2.34763503 -4.70129538 -5.11005831 3.74467278 -11.54131126 -1.68664801 -3.96498489 1.29051936 -3.27749348 7.47506809 -16.74285889 2.02906489 7.86322975 -1.28777981
aged 10.44188595 9.43718815 -0.02738954 1.23794591 -12.68675995 6.39822769 2.63068223 0.28321877 -7.61957026 13.20739937 1.65441859 -2.46819687 4.08557177 -7.65026188 -9.27957535 3.95526505 7.00476599 6.60446358 6.72150230 -5.58393145 -7.65630102 4.64143181 2.62543321 -1.26010203 3.05494332 -3.60806274 -20.24080849 -7.93857288 -10.12368202 0.23583747 10.21148491 4.39365816
ages -5.89114809 6.38483953 -6.68012476 8.90227509 -4.12515736 -3.02048659 -3.97231793 4.74580193 -2.35246468 0.28492022 -4.93526697 -14.42729282 -22.91366577 0.32138219 2.30436039 -12.10926819 7.46284723 -3.90389562 -8.58122253 -2.44140148 12.68307877 6.76793242 -9.32840824 -6.01496601 2.73771262 -2.95557141 -5.85268593 9.05882263 -20.44358063 -15.57470798 4.35809278 -6.62277603
aggravating -3.85055566 -6.12299395 10.84368896 7.84833431 1.89615059 1.85318124 5.19663334 1.43480480 -1.69150162 4.86178637 6.33583593 -2.76533604 -8.44356060 -4.44965649 -2.60101151 4.51183653 -2.67331362 -0.07840442 5.67490864 -3.02791238 -0.60028315 -8.56542110 -0.61000925 4.84602308 -2.77656960 6.50725365 -0.48953569 4.80071449 -7.65434265 -11.60177040 12.18201447 2.91682410
ago -0.45738614 1.95229709 0.90703768 0.14393316 1.73346448 -1.25116992 -2.35744619 4.30644512 5.76628828 -1.96267140 -3.40967464 -0.32256302 0.73583001 -5.10293198 3.28581476 2.26482677 -0.00032168 1.31715870 -1.41138518 -2.30571651 0.63820893 0.16491999 3.62980509 -0.39479613 0.06614341 -1.44623315 -2.37186337 -1.76045132 -8.66971493 2.84584498 4.86917114 4.30182695
agree -4.12820196 13.61960793 -4.72218895 -11.28868675 -10.42712021 8.31520748 -4.47867060 -3.22876692 -1.27639782 9.39377880 3.02064681 -1.29613841 -8.41746235 15.45894814 5.81182432 -0.17183656 -11.84131145 1.46357942 -3.90125918 -1.98033261 -4.44413757 -12.03741169 10.65644169 15.95764923 4.80951834 -4.00898600 -2.92289877 -1.55145967 -4.22563791 -15.79161453 9.99927902 -5.16591263
agreed -4.45321369 -0.55831909 -9.05848980 2.80955720 -7.76918125 3.25735569 -4.32313919 -3.12881970 -2.97268128 2.96858430 3.76456070 10.34500027 9.93296719 -3.97211623 -0.76058495 -4.83996964 6.80686855 -1.52902198 -4.96482182 2.07569695 1.86060667 7.98711491 -5.85638380 0.22206765 -3.28321767 -7.52099180 2.85558891 3.19835281 -18.64307976 -15.33023643 13.54050541 -6.50607824
ahead 0.39708295 5.80898285 -2.27832794 -4.61774445 5.94288588 4.75444508 -3.07673955 -3.12330770 5.26945257 5.75894213 4.24172068 3.35941982 -7.94933367 0.03365194 2.38414383 5.10554934 -0.86964905 0.98028833 -0.94035423 -3.53967261 -2.08672357 4.84147263 -2.17766857 -5.55319977 -7.43355322 0.05516985 1.24058723 4.05873346 -18.54727745 -0.49453187 10.35051537 -2.32227612
aimless -13.39844131 -11.89910030 2.43245769 8.06661224 -8.20077038 6.02620840 -3.25808525 4.13322353 11.82926750 5.49847174 -3.78684616 1.83787954 -7.93170738 4.56809521 4.21437597 15.51743031 6.37685156 -10.62321377 7.70537281 1.09671390 -3.48711061 -1.26278067 -6.74506855 -7.01471806 -0.79388440 -5.76867580 5.92131042 0.45338857 -5.41051722 -27.00706291 11.33557987 8.28218174
air 1.10962641 5.04719830 -1.52958989 4.02359533 -1.98312676 -1.81502032 -1.89688110 -1.15512812 4.02084112 -0.65937644 -4.92887449 5.03318787 -1.31662452 -3.32149243 -3.92886758 8.13038349 -3.30037379 -0.24885784 -2.68393350 2.49559903 -1.14753842 -10.57863998 -12.41076660 0.76807469 3.66167188 9.16257763 3.91499162 -6.24401236 -2.83079672 -15.17174816 22.09380722 -3.11285377
aired -14.29159069 8.52092648 9.40695381 2.91223454 -4.62253380 5.46561098 -6.05722666 7.69765472 -6.45520878 -5.79392719 0.82211041 0.62114364 7.54251480 -3.38948464 -2.92009211 -2.23727131 -3.96347260 -9.59240913 4.81252766 13.53212166 -5.40873289 2.17269301 3.79071236 3.13177991 1.31570792 -0.60040843 -2.79079890 5.12251759 -9.87203979 -4.55983734 9.51085854 -1.45439255
airline -3.65409827 -0.69570649 3.46201944 -2.70666122 5.89554453 4.02742863 3.33612967 -4.19792557 1.13791955 -2.27806973 6.51096678 0.58771515 -3.25929570 -3.21808791 2.13888097 4.49173355 -2.35382009 -8.93907070 4.79662180 -3.97759008 3.71186829 3.31451344 -3.18798971 11.18042469 -1.24942851 5.37879658 5.21007681 3.74403024 -2.94201112 -3.28135395 9.37913227 1.03508615
airport 7.59577036 -5.05964375 8.24054241 -11.48948860 6.38043308 5.51076937 2.49424219 2.14403820 8.17673588 -5.00605154 8.34936619 -8.04777145 1.44440258 5.62110424 5.30878639 10.12165260 1.57816672 2.08868742 8.90002155 -3.86510324 -2.42837453 0.71220452 -4.73368454 -5.93057632 7.38258648 -2.44303179 4.69333839 6.77755737 -8.51785946 -4.69780207 6.66822338 -7.58896971
akasha -1.30337858 13.22493172 -5.15647507 1.74149966 1.50519156 -12.57465458 6.34158802 10.23244953 8.69150734 6.59069824 7.45855331 -4.32160616 -8.92371368 6.19872427 2.82747436 -0.71400005 9.73760128 0.18254551 8.66460896 -5.53568077 -0.30274662 2.92492318 -5.91389847 6.21209669 -3.05673194 -8.70846462 -8.48360157 11.45870781 -12.32855225 -14.09046173 10.74959755 -3.15557289
akin -5.96755981 3.06491446 6.00606918 4.60540247 -7.78510666 13.51228809 -0.64357632 -5.24087620 3.18628311 -1.71540427 -10.97726822 -5.54264545 -6.14787865 -8.00649929 5.05216837 6.22745609 -8.42261982 -4.35747433 -9.95419312 5.42913151 -0.99881184 4.56157064 -3.78512406 1.51571536 7.15677881 12.27298737 13.42750549 -6.46641636 -9.55211258 -16.75553513 18.37564087 -12.18381214
al -0.92705464 -0.78897840 0.12185191 0.12142166 0.97955549 -0.56177509 0.51217723 0.23004980 0.87307930 -0.83304077 -0.41377655 -0.62222815 -1.02446294 -0.37114990 0.63438296 1.14392316 0.23692556 -0.75941873 0.66040343 -0.27888483 -0.23503043 -0.13607487 0.00265803 0.61597574 -0.67063498 -0.56526792 -0.97031003 -0.60123885 -0.37074354 -0.23892486 0.63732940 0.15382053
ala 7.63619471 -0.34644911 6.27616405 4.01221418 1.60454857 1.33282197 -4.78389359 -1.84889960 -8.55237103 -3.54632902 3.07643604 -1.37066138 -1.10585213 8.15192699 2.11687040 5.66390657 -4.25345564 5.75699806 8.33205318 6.18144989 3.90705347 4.63815498 5.62232876 2.99598074 -0.61498171 -3.58578634 6.92848682 -2.45618558 -0.57591820 1.37089026 20.28862190 -1.90753007
alarm 6.05153465 3.40790749 6.96919823 -6.86726332 -2.43401504 1.98719597 -2.82928753 -12.00131416 -2.63749409 -6.61232376 9.25581169 -1.56405008 3.22056842 4.26198769 -3.45794368 -0.84085888 1.39381051 7.65921211 -1.56515944 -10.27225685 -1.04577672 3.30945921 -8.74267769 2.26085949 7.14591646 -1.32336640 -8.61300850 3.19047737 -2.77492809 -1.23858380 14.86999512 -7.48161221
albondigas 8.69513226 -4.06669855 6.78701782 -4.27310467 8.56396389 2.24863315 6.13396883 -5.32461166 4.21615362 0.01595500 -3.34848070 1.04906869 1.24894202 -0.93355745 -0.92215812 6.27217579 3.57516551 1.54493594 -5.32567358 -1.84995353 -4.16574049 -8.99454212 5.49817657 -8.08253670 -5.59702349 -1.94866395 3.58909154 6.82203436 -3.49209571 -2.97637200 14.03756428 -0.12203418
alert -4.14895916 -4.55894613 -4.49056292 -4.94434595 2.63110971 -0.25843188 -6.72866344 6.58543396 -0.74179578 -2.40545559 -0.28563014 -3.58949304 -1.22192788 9.70450115 -14.04754829 11.36411572 -2.02953672 -4.72796345 0.96667147 0.23911799 3.74653745 7.36561155 -2.84584665 -12.20750618 -1.37623346 5.42688894 5.85165119 -4.98976946 -14.23389721 -7.37921619 18.08494377 9.43354988
alexander 11.12714767 -1.18873870 2.05097985 9.12849808 -10.43544483 -4.18405437 3.53192043 -3.20516205 1.42298734 -14.24731445 -4.92398262 -5.09504795 -6.57989359 -4.59558249 -13.54795647 -2.42870760 1.75047302 -3.69163036 2.19592905 6.09225798 4.53610897 -2.23171997 0.13827471 3.06065369 -1.75744247 -6.15749454 -5.85653162 -1.09650004 -14.53636932 -5.35503912 6.00769043 -2.89112949
alike -2.60310435 9.60089302 1.47585356 0.83762372 -10.93844223 4.75401688 9.28574181 -4.59977484 2.96642232 10.48192024 -1.31854379 4.18507528 2.86852074 -10.92786789 -5.46678829 11.50654507 -3.27807212 -3.15163445 8.75349998 2.36179876 -1.58208048 1.39293027 -0.67853856 -6.45679522 1.28193474 2.61042953 -0.59893346 -1.43873358 -11.41358852 -0.75139368 18.88965416 2.36968613
all 0.00297925 0.20320480 -0.47703153 -1.19036984 0.55946618 0.97959441 -0.41856417 0.16032074 0.37778684 -0.55482876 0.37424308 1.14422452 0.15712462 -0.27843577 -0.66380590 -0.33812240 1.28032112 -0.16251916 -0.12756215 -0.67693639 -0.38109377 1.10316658 -0.59631532 -1.20867777 1.02325201 -1.03382921 1.22382617 -0.32699877 -1.68141210 -0.63058013 1.54153073 1.15014720
allergy 1.85723567 5.70354700 -6.65238810 3.78059578 4.60802603 4.33206701 4.43444014 -0.80436105 -3.76138258 2.06879878 -0.89518356 1.65740621 3.73074579 2.19301224 4.28915834 -3.26135707 -11.10840416 5.85997915 -5.43771553 1.56491685 5.12784815 -3.79076743 -3.11088562 -0.15740170 -3.47811198 4.44297123 4.74579144 8.50128460 -5.99022293 -6.13314819 10.56015778 -9.95440197
allison -9.13356590 -7.71687269 2.57686734 8.25332928 16.04601288 1.14731586 -1.13855505 11.57352352 12.27016830 7.95448637 3.26829743 11.80408192 -4.39360285 -5.43235779 5.72297573 -3.07518482 -1.90101862 -11.77851677 -2.66254663 -17.13975525 -4.11993456 -0.16332436 -7.18998766 -3.74452686 2.01618195 9.66506863 -5.74167967 -5.88376570 -12.41765022 -12.83313465 10.72321892 4.89083815
allot -4.36343098 -6.42898464 7.84234524 4.43345785 -1.76036167 -3.69905186 2.14899850 3.52413774 1.31110454 -2.05004740 0.42549717 5.42869091 0.28571495 3.07074118 4.62553406 -0.82203758 5.69673777 -3.69591951 -3.91346955 -5.25686598 -0.38482675 -5.77574635 -4.10518456 -3.54089141 -3.59748125 -1.59279788 -4.07657671 -1.08934402 -14.59809589 4.36466360 9.73440933 3.41934419
allow 0.22220090 2.76903510 5.07236481 0.17708649 0.99164736 4.57125187 0.54301769 4.07168961 -8.58905506 1.25824475 3.80580711 -0.81912315 -11.77684116 -6.39550781 -3.50797629 0.91761720 -3.50025773 4.49501705 -3.10275936 2.01893401 0.08186895 14.35140610 -4.49119711 -1.94290257 -4.20398855 6.86183167 3.20452595 -0.82302439 -0.04027050 -9.97964382 17.26786995 -4.14128971
allowing -2.21229172 -18.42071724 0.24857531 2.34321141 -7.52317572 -0.23952821 2.92992115 1.10000813 -3.04867482 -3.27194738 -6.16775513 2.14729857 -3.19429255 -3.21536040 -9.57990837 5.61510324 -0.70570678 6.20561934 -5.11923838 -2.29562783 -6.66402054 2.53602242 0.70452595 0.00160717 -3.48572779 -1.29845679 7.86688471 4.39866924 -11.58496571 1.51540482 8.10764027 0.31457952
allows -4.11626959 -7.84095716 2.31702805 9.99519253 -6.22643280 -0.50202054 6.55000973 -4.93028545 1.19509363 -0.72461015 2.17720914 -1.54079676 0.76347828 -4.66397047 3.66679668 3.22413683 -1.33545828 -2.62344003 1.19562185 -3.34566331 -1.78373861 0.77826089 8.80453300 -2.23028612 0.67548150 3.84951162 -12.56558132 -9.44983196 -4.89754009 -0.76206529 12.66586208 5.97281265
almonds 11.39244366 0.32548153 6.83442354 14.22390747 -9.07730484 -3.33904839 -0.18008801 -0.90076506 2.97343898 -5.64370203 -9.78937721 8.29059982 3.89577413 -1.07259560 1.90067041 0.81178778 -3.61302567 2.48322845 -6.33729362 1.95016587 2.00903964 2.50136328 4.39040995 2.58815765 5.07820606 -10.13408852 0.01360685 -0.03769528 -7.03736448 -10.89949512 13.64661217 -4.39648485
almost 0.20370294 0.44375277 3.49268746 1.27032375 1.96144092 1.34210515 1.63248801 1.65992200 -0.07009974 3.18502975 0.99569058 1.95067680 -1.05461740 0.22031136 -0.68993002 2.73892331 -2.16801047 1.09798646 4.74237823 -4.97833204 -3.67971659 -0.22811715 0.18579517 -1.96966279 -0.20467503 2.79110551 0.89189345 5.16367102 -0.14449656 -1.08180237 3.74695969 -2.58002019
alone -1.68643260 -1.41870379 3.98368549 3.02652693 -6.83291483 3.09911060 2.29698896 -1.56264520 1.55978727 -0.48408717 -1.13208508 -2.12520814 -1.31692576 3.60706449 5.52310133 6.65513086 -1.39617109 2.23700953 -3.44002771 6.71956062 6.08076859 2.96232724 -0.65052003 5.35296059 0.26391965 -4.62552834 9.13602257 -0.91574854 -1.98238790 2.90856934 9.35632229 2.79258204
along 6.54428148 -2.96050429 3.47081852 2.42102003 4.62350035 -3.07457876 -6.15238047 -2.06574702 0.52460110 5.22088814 1.84035218 2.69233203 -4.01755333 5.22442579 5.47680855 0.39610672 2.32248712 5.39856386 -2.68405104 0.30425459 -3.15584469 4.63666010 0.85999566 4.97394133 3.48033285 1.29915726 -0.59619540 1.80306113 -7.36547184 -9.72485828 9.77611256 -6.90709496
alongside 4.98009205 -0.13835979 9.68679905 -1.19587243 -4.96246004 8.85919189 5.27087402 -5.44268370 6.66119671 -2.47067118 1.65414679 -2.32723522 -11.37579632 0.57010835 -3.43973279 5.15451813 9.20384026 -8.31496239 17.90915489 -9.91878128 -4.11550283 -7.06648493 -0.74746108 -3.31883192 6.72206163 5.02230787 5.16621542 -7.83957529 -12.61178970 -9.66770267 5.79257965 -7.26394892
alot -0.46274403 8.22821712 -7.52368879 5.14961147 0.44183207 -7.89587641 -1.71966720 0.53717774 1.76134884 1.77512169 -5.79443216 6.09477329 4.60685825 -4.84100866 5.21278811 -0.58482027 -4.27722263 -4.63686371 -2.81245780 -1.50355983 -5.19040585 -1.76937675 4.10336113 -0.52713132 2.13514209 -2.89885330 0.14921646 -6.07241106 -2.68438125 -9.42714596 12.30185032 3.23457026
already -1.92117643 -5.10632086 -3.54090214 0.41357976 5.26422215 1.16640079 5.38236713 -5.50838566 -5.49001122 -0.66334134 2.05727553 4.63547182 4.25955105 2.21800971 3.16952610 -0.69091058 -0.97163373 -2.20113063 6.57099533 -5.32395935 5.49870634 2.64065409 3.95578599 -3.77442384 -4.29276228 1.25734317 4.04663181 -12.49737167 -16.02970886 0.12706210 9.31107712 -5.12265968
also -1.03327513 -0.84184384 0.68415123 -0.09918554 0.55196244 1.40454340 0.06408732 0.98646760 1.39280677 0.98886812 -0.08151280 0.49076229 1.28594387 -1.58009601 -1.09599507 -1.55709279 -0.05263223 0.10391881 0.11757821 0.70381600 0.86395431 -0.52382195 -1.18743467 -0.88079172 0.61502737 0.22845681 -0.84821886 1.02599013 -0.97563994 -0.73092872 0.78257382 -1.34271097
although -1.33799732 5.91899967 0.51722717 -0.22432685 -3.98094273 0.59288675 -0.67403704 -1.89244044 3.86453342 -3.27618837 -4.23083258 -0.17641196 -2.20720768 1.24582064 2.62760258 2.02711892 -1.73832214 1.79738772 -4.75489187 2.64621377 1.38783717 0.01069915 1.01671875 -7.42336369 -1.51563072 0.41249672 2.32237744 3.04412484 -6.51639605 -1.05475628 5.83471298 -2.94790363
aluminum -4.03402662 2.02606773 0.00308637 5.44195366 -9.50576973 2.38965535 0.22364007 1.52945745 -1.37745142 4.17689705 -3.58882427 -4.04804230 -1.50610602 3.21468711 -2.27537227 -1.57280815 -0.36966875 5.29464006 2.58259201 -4.06012869 11.30659866 -2.48118162 3.56489778 -0.27312061 -0.62329376 -8.42026711 -0.28685066 3.13677502 -7.88307762 0.93333840 8.31959629 1.90740311
always 1.25922954 -1.36574256 0.81438065 -1.54265654 3.85259080 -0.19074763 0.52798271 2.56965017 1.71380186 0.05692217 0.14098361 1.58961201 -0.64092761 -1.42519438 -0.76936442 0.50711316 -1.38538313 1.75692201 1.39820182 -0.99578965 1.00268769 -0.62434334 2.25866437 -1.20591140 -2.27047491 0.69172418 -0.17284150 2.62399173 -0.67352891 -0.00505134 3.18397760 0.03635653
am -1.16161430 2.01841545 1.02575946 -0.06859742 -1.67300081 0.64700270 0.80282414 0.97986823 0.62610394 1.17027700 3.30887866 2.50040674 1.93827689 -1.66966164 1.60112941 0.08798689 -1.76313746 -0.41608655 -3.60867310 3.22790551 1.20553565 -3.36744523 -1.29011190 2.05204344 0.95906585 -0.06413436 0.88166589 -1.17796540 -2.09093428 1.06227791 2.89834690 1.28147089
amateurish 1.10291135 2.14805126 -0.35620046 4.30324745 13.48841190 11.93886185 -3.07828903 7.72264385 -7.82863712 -3.76791167 -8.71026802 2.74997973 2.85167360 -5.48089933 11.53440571 5.05787086 3.03379226 -1.87008190 2.34985828 -0.07966841 -3.41568756 14.98775196 -0.19544084 1.63270986 0.76892346 -1.58726585 -7.43120813 1.23951697 -1.35558164 -12.88862324 16.71193504 -6.25228405
amaze -2.59060836 -4.13738918 4.58201170 -1.49456239 0.30477718 -5.69631863 2.30449176 -4.86538363 6.11405659 5.10400295 -0.88241446 -6.01946688 -0.83655369 -0.00656563 -7.60225677 0.80090177 3.15126276 -10.22048950 3.28592420 -3.33019900 11.14637756 -3.17269421 -10.52571964 6.19983435 -15.87421799 9.48802757 -0.10606134 -11.14152145 -10.05126190 -6.57362127 14.26567268 1.19692159
amazed -2.48570561 4.52440405 -0.31619108 -4.92508173 -2.12237668 3.05607390 -4.20153379 -6.67360973 2.86360478 -8.80802155 -5.51177263 2.53399062 5.84650183 -1.53614438 0.04080928 -2.02129817 4.86845255 -0.25615799 5.17452478 -1.20010269 7.45595074 3.90968990 -3.15342331 7.93222523 2.65901041 -1.33135617 4.87897825 0.67595106 -11.04058075 2.85530162 10.88436794 -2.24563503
amazing -0.06716772 -0.75541258 -2.16557646 -2.99062300 -4.13900089 0.40890262 -0.98917413 -0.73547530 -0.36115065 -1.92717946 2.17190003 0.13570502 -0.45390072 -1.84074974 0.06612649 -0.64040470 0.90215486 -0.12929329 0.07148895 0.95308661 -0.77469486 1.70857096 1.54798996 -1.13408983 -2.54943228 -0.64426196 -0.63042420 0.32942489 -4.07263708 1.15995967 1.33767259 1.32080376
amazingly 5.95933628 -4.74918365 -2.40713692 5.49485540 -2.67477846 -2.76637816 8.78720093 10.15742397 -1.69803536 3.58031440 -8.23209667 7.19289207 -1.45281541 4.72334290 -3.99201798 6.69403315 -1.15299296 -9.73572731 -3.56393647 10.68772602 -4.27935410 3.31144285 -1.00344563 -3.69944191 -7.70141363 8.70272350 -11.70588875 6.67384624 -11.13307381 -9.53653336 8.66379261 8.66977787
amazon -1.59605861 -2.59031868 2.20191836 1.15636039 -0.40914324 -1.71000504 0.16393898 -1.47831762 3.26378679 -1.18717885 0.88417912 0.56267965 -0.57147276 -1.20752382 1.76773179 3.91659236 1.23389971 -1.07754636 -3.48514771 1.81307626 0.40075845 -0.69930774 -1.76301169 1.57294714 -0.70760447 -2.04288363 -3.53404617 -2.77201056 -2.21782041 -2.54776454 7.45980692 1.49966073
ambiance -3.56778741 -0.02056767 5.41677809 2.82435155 -3.68276000 -3.53262877 2.65259075 3.77719545 2.65244961 1.99766409 -4.95503569 1.06968427 -3.87944102 -6.70161533 -4.90791368 4.50584650 -2.77383947 -7.52345848 2.70955777 0.44961584 5.13670444 1.52325165 -0.33480316 -2.15373945 -0.94651622 2.02375865 2.90610361 4.74200630 -8.83762455 -2.20169044 8.23004723 -1.17208505
ambience 7.00340557 -1.84721160 6.28701639 3.54200196 5.75439167 -1.15152311 5.80475855 -5.01664925 -3.72169542 -1.43680513 2.98530912 -7.42714453 2.35045052 -2.03933764 -2.82749724 -3.57739496 5.88067150 0.84333682 1.69977462 0.13391592 -6.29278135 1.74837732 1.49011624 -5.18457270 -4.41966295 4.63920259 5.79437923 5.48580456 -3.31325197 -5.61250019 10.84069920 -0.18302098
america -5.70614862 -4.58895826 -6.22968054 5.20808315 3.19521523 0.60784459 -4.62647009 4.60185957 -1.59938192 -5.98097754 14.59594154 4.47426033 1.99058473 -2.09749031 -8.82233906 -6.10429096 -8.56708908 1.51951981 -3.42728901 0.27784988 -3.66736984 2.74864626 -3.68159676 -0.10400975 0.81598067 0.98706871 12.83046532 9.10012531 -15.40132523 0.79776162 12.41658783 -1.12589192
american -5.25872278 0.41253227 -5.98646021 -0.24611373 5.11596966 -1.46666586 3.54519248 -4.29688549 -2.56140924 -3.97697878 6.54577255 -12.68097115 -6.02270699 9.57430363 3.18801498 -1.56999493 -9.83538723 -4.78826237 -2.18417072 -5.25009966 -8.06699562 3.52811360 7.26674652 0.28456178 13.44760132 1.40500641 -5.41338396 -2.84764075 -9.75561428 -10.14975452 10.73634720 -1.45982540
americans 3.07220817 5.92830038 6.17674208 1.71693468 -0.62792683 8.33251667 -0.83553129 0.78313392 1.42157507 7.33916855 6.46751165 7.30097485 -1.18731058 -1.60512245 -0.39534935 0.78774482 1.61537826 -4.90191126 -3.81965852 -5.64003229 4.02377081 9.75498962 -0.85149282 -2.23266721 -4.31466770 -1.24395144 1.34628570 -2.92906499 -4.05243874 -12.17580795 24.98723984 -7.83028936
among -4.92019081 -3.36311078 0.15253939 -3.08264160 1.45054007 -5.68005657 -2.75534058 -9.06823444 2.55906296 1.67423558 -12.99849510 -1.60754228 -0.14442188 -12.54735279 -3.74180269 -1.21318924 -5.92158127 9.80863380 -3.25199413 -15.40728760 -1.59585631 8.21004295 1.68878424 -2.95464110 5.68383455 7.11124372 -2.48548412 -8.79054832 -13.72501087 -6.15111351 15.47437096 1.18367791
amount 5.95013666 5.26255560 0.99951732 -4.23498058 -7.45791197 -1.14179647 1.73809636 -3.04473066 -3.59852314 6.76990318 -4.10815620 1.98295271 -1.74132180 -1.38570857 2.90187478 5.15207291 6.52783155 -3.07880521 -0.84535635 -3.59510469 0.76140821 1.46218395 2.40313816 0.49359685 -0.10186706 -0.09321321 0.97151464 -0.45441613 0.56434119 -3.27194333 11.03860569 0.60616124
amp 2.80467534 3.64249945 1.08158064 -3.50114369 3.12901568 -0.70871419 -4.55162954 1.73584950 5.16208267 -4.32251024 -1.84841251 4.95460129 1.24913454 2.60590482 -3.33633518 0.24712332 2.85829353 4.91698933 -5.15974569 -7.46229792 1.14121318 2.98494029 -0.56356406 -3.63984489 -5.61855888 7.51129580 -0.08569596 6.95282698 -2.83557057 -1.69466984 14.10678005 -10.35276127
ample 11.53544235 -2.30905008 -4.33869410 -6.80509472 1.46410561 1.91051173 -3.37131453 -2.52962899 -2.73704743 -6.74466562 3.79884624 -0.81865066 -4.31092167 0.80106592 1.48779237 -7.72555494 5.94676924 -5.29147196 5.25253677 2.98700953 8.90076923 6.24271679 4.67782307 4.52713776 -1.50108039 -0.01326014 -0.38604242 -1.60526681 -7.21477222 2.59619617 10.07582951 -0.41034588
amusing -7.06423998 -6.89107990 8.31189919 -4.63292074 -4.62092304 1.08566248 0.08861742 2.11225843 2.76441026 -6.91005611 -4.02852392 8.47693348 0.35324016 -5.16004944 -5.27739143 3.55783343 1.67421210 0.51683372 -12.97751331 2.81590629 1.87904561 -1.34509039 -4.86751890 -3.77282143 -10.15436363 -13.65107155 -6.15036011 -1.78770733 -0.60367364 -7.03519249 15.11011600 -5.91051483
an -0.79048336 -1.40618408 0.80945152 -0.01532776 -0.53667390 -1.85093915 -0.24927200 0.33113083 0.59866798 0.39229298 1.55840158 0.66609651 0.47454280 0.84349799 0.66742492 -0.43025649 -1.73021555 -0.35154825 0.28169993 0.59321600 -0.63095671 -0.68635768 -0.21595755 -0.61681998 -0.50797719 0.06202382 -0.84274268 -1.35027313 -2.77735472 -1.40677094 0.34745342 0.43669045
analysis -1.20962131 -1.06567776 -0.15787999 -0.63165557 -0.76513755 -0.78987509 0.72979850 -0.09821955 -0.16406141 1.29601574 0.22580156 -0.57089651 -1.06780565 -1.00843692 1.33668995 0.87406892 -0.99038529 -0.99575680 0.77314955 -0.67765206 -0.29660124 -0.06426978 -0.01884966 -0.01161853 -1.03215921 -1.64796448 -0.36828601 -0.86520934 -0.95303607 -0.39712512 0.32791740 -0.29570884
anatomist -2.82557964 -4.60579300 17.37680626 -7.47389984 -5.85585260 5.82679415 -5.01882362 -2.11596417 5.67715406 1.31794620 0.43281150 -6.44966412 -3.02531290 9.24551105 -6.71036386 -11.41830921 2.64217949 6.26912069 3.92422128 -7.55703449 6.23675776 4.60874462 -3.58497167 6.93315935 -0.01492909 -16.68542671 -3.95016122 -8.82117748 -15.79911423 -8.93512440 11.47485828 -11.94536209
and -0.53001732 -1.09871542 -0.79075032 0.26703244 -0.94519365 0.82201111 0.27961761 1.22271991 0.19815622 1.14674664 1.34559166 0.39940131 -0.75361866 -0.91407561 -0.13432066 -0.30610448 0.50469297 0.73450083 0.22707725 -0.95473564 -0.50079304 0.87379771 -0.09687112 -0.50053537 0.78833747 -1.14909911 -0.60430366 -0.93612128 -1.06587195 -1.17423511 0.43560711 -0.65782374
andddd 1.56331933 -3.88055229 3.31883335 6.97872114 3.89991546 -3.36386919 -6.39044857 -5.12013006 -1.56661642 -2.25354886 1.70975566 -10.86464596 -12.41528416 -2.81173730 -1.42227852 9.83267307 -0.63836014 1.43962860 -2.03241086 2.25398207 11.42612457 -5.88248110 -7.11450529 5.14697456 0.32785156 9.82505703 1.28156364 4.14101982 -6.32187414 -1.65838027 7.47281027 -2.17832208
angel 4.31708336 -0.65920526 -1.39339054 -0.79226828 3.35320640 -1.06359768 -1.67666936 -3.02153516 2.37260795 7.79580259 -6.86283302 1.49857438 -1.69975793 7.79496574 -15.23093414 4.34537220 -8.35166740 11.39255047 5.99891996 -1.36037838 -7.36207819 1.29800034 6.00776958 -1.95694911 -2.94585800 -8.61576653 -14.36638832 -7.82250261 -11.94048500 -17.81871033 14.80092049 3.85874510
angela 0.48959756 5.72116327 -4.75709152 -1.19535327 -2.18435478 5.32601166 -2.12256289 -2.58161306 -4.31447792 24.08517075 0.26516262 12.47470951 3.30594277 -5.91387844 -9.70994568 2.86030936 1.13352406 -8.99670410 5.69755888 -1.51869524 -3.87820125 11.13020706 2.89815950 -3.34254980 2.34889388 -6.26161003 -10.61956692 4.84679317 -5.11862421 -5.69081116 21.85764694 -9.59369373
angeles 0.17352661 -3.83549786 4.37544441 4.25638533 -3.06569242 10.15630913 1.85966682 3.58199120 -6.49482155 1.69521964 -0.17072618 6.31830978 -3.26256061 -2.98633170 -4.43364191 -4.20152521 5.28351498 -3.64190316 6.54779482 -0.19008592 -0.45204291 -7.38896370 -0.77450925 7.27302885 -1.93970633 0.99928147 6.15090704 -2.45960855 -5.37201452 3.48824859 9.87670612 -1.27958572
angelina -7.34372759 -0.69769782 1.76650572 1.67585814 3.40304804 1.22425699 4.93527985 -7.25255585 -3.17457819 9.32644463 3.79047370 8.95105934 -1.75107896 3.53397083 1.72867227 -2.10174870 2.96594667 2.44327402 5.55931711 -7.61000204 8.08249474 -8.94386673 0.82218510 1.98499691 -6.52640057 -4.89325428 -6.89075041 -3.36383677 -10.81291008 -9.74197292 13.47160530 0.16803695
angle 1.79270542 5.79012632 2.28739786 0.39121976 6.50780296 1.87755919 7.44427681 -3.08874941 7.61136723 2.31591296 2.15150928 -0.59521568 6.37675476 2.74666977 -5.59525824 -2.39590883 7.64231539 -2.66255665 -3.92465520 1.56876576 2.23685956 1.25482774 -2.09396672 3.87921000 -6.95461035 4.08288193 5.45859814 -0.22061785 -4.50326443 -4.04835844 20.84756279 7.87038136
angles -7.42557764 3.83834291 11.34566402 -3.04464650 4.24352884 6.18383646 3.59064746 11.76923752 1.66125441 -0.89632958 3.46915412 -9.48689270 -2.25829744 2.24493265 1.83329809 3.88647079 -2.06616831 1.21774149 13.16259384 -9.81759644 0.21109913 -1.53573048 8.36308289 -8.82910919 -5.14215994 2.46408916 -4.54094839 -3.98341250 -7.68047667 -20.98590660 14.92524529 -8.09408379
angry 3.17207742 9.08563519 0.83634359 3.50753522 12.53125763 -7.55556774 -1.06613493 2.17206621 -0.44046178 -5.07599688 -0.73462683 2.61637712 1.22634876 -0.90729123 1.44413078 3.32516456 -9.11666298 5.30891609 7.33628511 4.31157398 -5.14325953 2.80383134 -1.99678206 0.07112642 -4.99864626 1.29006135 -0.42276788 -0.53909081 -2.81678605 -1.37691176 16.65985298 -9.91520214
anguish -6.19096279 3.78327155 -2.14530301 0.61216265 -3.45089793 2.02400398 0.24987034 4.95227337 -4.41712856 5.14452934 -3.14566159 5.35016632 12.86662865 -4.81380510 -2.33219504 -1.69401050 4.86526442 3.16055250 6.67320204 -5.99387455 -1.98321187 2.42196155 3.15311050 -3.51788998 -7.32867956 -2.38607287 -1.68345010 -13.08936405 -12.01980686 -1.66773295 22.81402588 8.71233654
angus -3.65102935 -4.73832321 14.62816143 3.86939812 -6.84934950 -6.56258583 0.76790363 1.62128830 3.11424947 -0.24605711 8.20932579 -9.04378986 -3.91181469 1.07086813 -3.24725914 -2.71179962 2.17179990 2.46890235 -1.82971847 -4.67440939 4.01731968 7.08078194 -1.45489001 0.02404263 -0.87748677 -9.72547531 -3.22958350 1.69412601 -21.30796623 -10.34663677 8.59506893 -0.99551511
animals -9.95801640 -14.36201000 -2.33370757 11.02876091 11.27805805 12.53108215 -2.29512429 -6.47457647 -2.64060092 -9.54720592 3.07378411 -3.12409806 -10.22749901 6.06791210 -12.89490509 -2.73667169 4.01799393 9.68075466 -4.44163561 12.96510410 -7.08106327 6.75960255 -8.16958237 -7.60069799 0.15965001 -1.10949433 2.01459122 -0.38857287 -17.37121582 -1.59166896 20.70362473 0.39731491
animated -3.46870303 -13.99923515 1.12995505 -2.86802387 -1.95959580 -6.25638676 -1.51951551 -1.15401888 13.89914894 -6.94442034 2.47849894 -5.75486040 -4.17988729 -6.95647955 -3.95126867 1.12239921 -5.03859234 10.18368912 -5.71429396 -0.28649476 6.98582649 3.45157480 -1.79104710 -2.61150002 6.37933922 -1.57597613 -4.88561296 2.32057190 -10.24158859 -7.26437950 17.30711937 -9.43245983
animation 2.41026068 -1.17415595 6.16583586 -3.38736749 -0.63450730 3.05549788 0.14654812 -6.56401777 -0.19517452 3.60792899 4.08038473 1.75200570 8.16128635 -9.22502518 4.10102224 -1.80789113 3.35785699 -11.26735210 3.05606985 -1.97283721 -5.52607632 3.00170159 -5.26190472 -2.50219154 3.07889247 4.90627098 -3.73253489 4.64658737 -19.12115288 -6.63450623 13.01195621 4.33590841
anita 8.69322777 1.58490717 -5.58728027 -4.10356760 -6.34285355 7.35101271 -5.60951519 -5.57522249 1.50682497 -1.88130891 -3.93749833 -3.18555093 -2.29779863 -2.15156245 5.75785637 -3.82017350 -1.28910804 9.94930172 1.66489518 -0.90500253 -3.10485339 -8.96672630 5.61377335 -14.43308067 -1.95966887 -4.92446280 -3.60752392 13.53573990 -10.40597534 -5.99072504 14.54240417 -7.70647240
ann 3.63478565 -3.45016742 -13.73440647 3.02316523 -3.21032953 13.53073311 3.90178537 8.51666737 17.73768806 -5.47762060 -6.29097939 -1.18471479 -8.80999660 1.43959188 -9.79922962 4.41061783 -0.01878997 14.63191032 -0.26155674 12.37140846 -8.10135269 8.60709190 6.28580141 3.32558155 2.90729308 3.34790707 -12.98441219 4.51470757 -8.86779690 -7.24708939 14.87888813 -6.93230152
anne 11.16409588 0.22276978 0.45160723 9.82577705 -2.55591393 2.06337738 0.16210020 -2.25161648 -3.00213861 -3.29425955 -3.74095678 11.14386272 -0.21939540 5.37338018 -1.49034905 -0.35463017 -4.07079124 -2.14556599 -8.05288506 -4.60238361 -2.86970496 3.26472878 -5.27307606 3.90854239 4.74126339 0.54002506 9.58937740 -2.39454770 -3.55518460 -10.54623985 11.85969162 -6.22643471
anniversary -8.76949310 5.52882242 -5.31859350 7.23850632 -2.65824389 -3.39985704 1.25986516 -3.19854403 -9.84479332 3.47727156 10.23229885 0.02677033 4.19624758 3.13991618 -6.42346907 -3.50950170 7.02597904 2.35449862 10.27935982 -2.39412975 3.08344769 1.87561917 11.02333641 9.61437893 7.17351961 -3.28749418 -7.24355984 5.40088558 -21.82852936 -8.32327080 7.91923237 -6.32054949
annoying 2.00092530 -12.29994392 5.25818253 -0.02720557 2.21546149 9.43247318 -0.04300179 3.60877013 -3.40029144 -0.87255460 -4.42981291 0.11789183 0.00821484 2.10839486 -3.22658944 5.06646395 -0.77785462 -3.80398154 2.54671454 2.42587876 0.40234882 -0.75862920 5.92058420 -7.16354275 -1.44953251 -1.03036773 -4.41966724 1.78027976 1.47718012 -4.70803547 17.81616020 -2.71131015
another -3.81976199 1.36786401 -1.42149961 -0.67395735 3.15598869 -0.75257522 1.47454393 -1.21090806 0.95726758 -1.03763390 1.84632468 -2.74112415 -1.07520092 -1.58211768 1.00731409 1.32824588 0.56061423 -0.68919927 -2.07686377 0.98390102 -0.99941009 -2.05756044 0.72361225 0.44739217 2.12729597 1.25771022 -2.25766706 -0.47210222 0.74815893 -1.46662831 4.70834160 -0.40652359
answer 1.76481843 -1.34450102 -3.55307055 -6.52452803 -3.14398456 0.37564486 -3.41744423 4.15441990 1.01635468 -5.62484169 1.71044624 -2.70937443 -4.36625433 2.13714433 3.46835279 2.86614227 2.89768100 2.74263644 -3.65940547 2.04533625 6.08211136 5.67983007 -0.12259090 11.24464130 4.26976442 -1.40903950 3.47892356 3.25063562 -8.36559296 -2.44714570 12.06607914 -2.69912410
ant 4.06897593 -2.10155702 -0.65252930 5.90709305 2.60943174 2.82515526 -1.03563654 -0.83222383 2.88194251 4.22601938 2.67857265 0.93591678 -8.97209549 0.54337490 2.79305053 -2.67395544 -8.24086475 -2.01728821 3.66644192 -3.27533150 13.92843819 -1.19196618 0.17079471 -5.31602383 -7.64202309 5.87794352 1.61461842 8.63813019 -12.91297245 -10.78582954 11.74515533 -10.17746925
antena 0.30987966 0.51767319 7.07473803 -5.62904453 1.99791980 -10.30193806 4.90075731 0.15591708 -3.10952210 -3.09795928 1.12459230 -1.40366316 3.41684175 2.96422863 1.31633353 7.08177233 -1.19447708 5.16381359 4.16219616 3.13959932 0.80668855 0.65463477 -5.79004145 6.04833794 2.84955835 -4.49881697 -7.17808485 1.78427136 -5.33893585 -11.91458130 2.83954167 -5.84417343
anthony 5.33400583 -9.06301498 5.19193888 -5.36895609 5.75970411 1.96663249 2.13307452 -11.62089252 5.51680326 5.84915066 9.63881207 -9.75689602 1.99656689 2.34979439 -2.42310190 -10.17127419 4.11765432 8.03937340 10.09267330 2.47130227 4.99938726 17.22378922 4.06136703 -0.30751020 1.12383115 -9.00446129 6.03611040 4.27430153 -9.95944691 -10.42614555 9.76110935 -2.20717931
anti 0.75190884 -2.65341997 -1.24930024 -6.08210564 8.61341095 -2.42762399 -1.47328877 -2.40559077 -0.16797625 -1.48525989 -6.74442482 2.75531793 -1.88960576 -2.22910571 -6.37514448 -4.32725286 -0.12533811 -7.17513704 -3.48047185 1.96616161 0.14908561 -4.12906456 -5.80694294 -6.34771156 1.20721519 1.35693479 -0.05274290 3.69443011 -6.24855471 -0.28987253 11.62628651 2.70397711
anticipated 2.16320753 1.66663158 10.57900143 5.30383253 -4.58749294 -2.54225707 7.29790926 8.31439400 2.62886620 -5.05406904 1.46045840 7.43829060 -12.58784771 -10.08940887 3.13858747 -0.07118326 6.87347698 -4.46172571 4.05888557 9.72729874 0.66443568 0.08811376 -3.44292355 6.34681702 2.91652250 -2.87175918 0.58985233 8.97454548 -5.04865742 -10.19316769 10.64900208 12.72048950
antithesis -10.73144913 -6.49618816 3.55810380 -6.64878225 -3.84937358 -1.86268067 -0.31055588 -7.09015036 -5.71521664 -3.43218207 6.83867168 -2.40560007 6.12613010 -1.09073639 0.92593324 -5.56047964 3.46385527 2.74031472 4.06222105 -0.35882175 3.09157276 -1.03992176 -0.40037751 -4.02484655 12.01670265 1.73486221 8.97875881 -1.51632822 -4.16662836 -8.23725891 16.35011482 -8.43685055
any -0.92935121 0.78272706 0.45973334 -0.54664034 -0.85998762 0.01818700 -0.51904887 0.26404789 -1.07023239 0.19291291 0.11170436 0.31045568 -0.79540640 -0.71909487 1.00113273 0.25541875 0.20717797 0.22941239 0.78746635 0.42281535 -0.30452508 0.33728173 -0.96393639 -0.16714877 0.75338382 -0.05494177 0.42281002 -1.08768225 -0.84064579 -0.39728588 0.53454179 -0.35214469
anymore -2.53827000 4.24325991 3.40379500 1.03376114 -2.12708664 -7.98473787 10.19020462 -3.45758224 -1.24113989 4.14157152 -3.61232853 -4.37446785 4.01801729 2.40745878 9.27629662 -3.87817335 0.22179121 0.05655596 3.73320746 5.26310539 -0.79897410 -4.77319670 2.93259811 -5.25282097 2.96299553 0.92936200 -0.90202218 -4.60666370 -4.05755949 -4.47427464 14.10871506 0.52668822
anyone -1.18989539 1.57538223 3.95062518 3.85795879 -1.16586149 0.23110329 -4.07055902 -1.56186068 -0.24307328 2.59002948 1.06028235 -3.11204171 -0.85630304 -3.69887662 0.76483637 -2.38382530 -0.78204995 3.18373418 -2.37612891 -1.61405361 2.30820966 -3.65013647 -3.48403239 3.66592789 0.44328171 2.67437482 -0.29078448 -6.28752565 -1.48555326 -1.77659369 6.60635614 1.13006270
anything -3.03713036 2.92770648 2.42384243 -1.01490045 3.88033199 2.21387243 -2.07086301 0.32434115 2.02213717 0.25830129 -2.64528847 -0.21169108 3.31739879 -0.18867873 0.78905839 -2.47692776 1.30857372 -4.91919422 -0.20099504 -0.42476127 -1.98446798 0.16007316 -3.89972591 1.45276821 1.12795401 1.01876867 0.93869984 2.09057403 -0.40332800 0.03828263 4.48037291 3.87311506
