5221 32
0 -0.69154465 0.64474690 -0.69476682 0.69923586 -0.69578207 -0.69866031 -0.69409788 0.68143606 -0.69306743 -0.66981900 0.66765630 -0.69929022 -0.70485729 -0.69360477 0.69952965 -0.69396687 0.69902349 0.68669236 0.70541340 0.71636862 -0.68574327 0.81945020 -0.70160252 -0.69022101 0.68057060 0.63090760 0.70187807 -0.68938750 0.69323021 0.70208186 -0.66616696 -0.69522083
00 -0.47428659 0.46410906 -0.46683136 0.47458497 -0.46588546 -0.47246635 -0.46308801 0.46598613 -0.46386975 -0.46961880 0.46824089 -0.47589988 -0.47093797 -0.47674355 0.47580227 -0.46431792 0.47320545 0.46908852 0.47647899 0.47894984 -0.47175521 0.49065262 -0.46467805 -0.47287270 0.47092509 0.45864123 0.46998876 -0.47323012 0.47253975 0.47326013 -0.46339878 -0.47004086
1 -0.68786365 0.64965117 -0.69416994 0.70026278 -0.69306320 -0.69563907 -0.69428748 0.67560875 -0.69306517 -0.67062020 0.68193460 -0.69870651 -0.70510209 -0.69276369 0.70004994 -0.69233280 0.69526958 0.68759239 0.70155722 0.71278787 -0.68493921 0.80235225 -0.70265502 -0.68928230 0.68035537 0.61802089 0.70280248 -0.69011599 0.68942195 0.69471985 -0.66963798 -0.69369096
10 -0.58807385 0.59884655 -0.57677335 0.60200888 -0.60706681 -0.59106117 -0.58406097 0.60275960 -0.59804392 -0.60356176 0.60534430 -0.58961433 -0.60816395 -0.58777273 0.61112583 -0.58871394 0.59525263 0.61215901 0.60725743 0.60089874 -0.60146058 0.63240790 -0.59477955 -0.59038067 0.59853745 0.59908831 0.58951837 -0.60531020 0.58525467 0.60324532 -0.58011854 -0.59197789
100 -0.65962642 0.64334458 -0.64028072 0.64712030 -0.65773147 -0.65922737 -0.63744462 0.64053577 -0.64110881 -0.66569877 0.64673734 -0.64645374 -0.63469332 -0.66373885 0.64861602 -0.64766824 0.64865237 0.65323836 0.68074113 0.66404009 -0.66017812 0.70119381 -0.65354586 -0.65818763 0.65553725 0.63916969 0.65549117 -0.63384199 0.64558274 0.64570969 -0.65100861 -0.66214824
11 -0.67367721 0.66383910 -0.66842276 0.67364240 -0.67365825 -0.68061191 -0.67200726 0.66682011 -0.66826952 -0.67180705 0.67349708 -0.65857387 -0.68212014 -0.67485380 0.65903556 -0.67776531 0.65977234 0.66262859 0.65077013 0.67454982 -0.66758734 0.66210502 -0.67752689 -0.67276329 0.65953451 0.67831206 0.65221781 -0.67978525 0.66264737 0.68498337 -0.66843098 -0.67589867
12 -0.64722443 0.64479381 -0.63396949 0.62262839 -0.62270463 -0.64249504 -0.63954419 0.62009829 -0.63274217 -0.64175159 0.64583677 -0.63315123 -0.63253665 -0.64855433 0.63646919 -0.64435029 0.63002902 0.65166652 0.63439769 0.65478539 -0.65091395 0.64299566 -0.64267397 -0.64181435 0.63992423 0.67803144 0.64319944 -0.65804827 0.62047666 0.63923788 -0.62652594 -0.60774678
13 -0.68580538 0.63598245 -0.59440476 0.66131133 -0.67455238 -0.63340914 -0.63816804 0.68911809 -0.67592204 -0.65578091 0.67725718 -0.66769618 -0.65342671 -0.65865451 0.66771317 -0.66219604 0.64391005 0.66917175 0.61561471 0.66949803 -0.67733091 0.54688662 -0.65206248 -0.66664302 0.64684409 0.69923806 0.66603243 -0.67139894 0.66925657 0.66078591 -0.60974133 -0.65958309
15 -0.61248553 0.69603950 -0.64050561 0.64762890 -0.55436420 -0.52286780 -0.59508961 0.67003304 -0.67056125 -0.69361633 0.57939965 -0.55216730 -0.62739676 -0.59829378 0.61529279 -0.59841251 0.60264015 0.62782031 0.67151123 0.55703777 -0.62642187 0.80405754 -0.51647305 -0.64751816 0.65229470 0.64732814 0.61898136 -0.64480191 0.55125511 0.61056334 -0.65727431 -0.58576947
15g -0.44815633 0.44869962 -0.45827219 0.45185235 -0.45411116 -0.44920346 -0.48404181 0.45235091 -0.43598050 -0.44070601 0.44590610 -0.46428469 -0.44242081 -0.45269185 0.46007502 -0.44397801 0.47026008 0.45441523 0.49289846 0.45725569 -0.44601971 0.49768555 -0.44626510 -0.45677489 0.45003945 0.42780140 0.45750597 -0.44392711 0.44353506 0.47287801 -0.45475432 -0.45281971
15pm -0.32293227 0.54867905 -0.44952589 0.20045388 -0.30882365 -0.35464701 -0.45481285 0.40021339 -0.19491878 -0.46391934 0.33110946 -0.34529567 -0.28556079 -0.36896518 0.22784483 -0.27503872 0.35479692 0.35399967 0.44744968 0.06295113 -0.34521338 -0.18644838 -0.40789717 -0.43767217 0.31064403 0.46698990 0.12541841 -0.10016540 0.31598875 0.37168193 -0.38204688 -0.22251640
17 -0.68348318 0.66523373 -0.68244100 0.67155963 -0.68574858 -0.67664635 -0.67194659 0.66587710 -0.69249576 -0.69338763 0.65539002 -0.65822607 -0.68199104 -0.66264921 0.66986370 -0.68263870 0.66371042 0.67933941 0.66518140 0.69402373 -0.66624480 0.83803999 -0.67841589 -0.66062897 0.66322565 0.67293942 0.63170189 -0.67565727 0.66517097 0.68242162 -0.66735661 -0.65146703
18 -0.45966661 0.44527894 -0.45985496 0.46310696 -0.46505666 -0.46087056 -0.47134963 0.46032897 -0.45246214 -0.45746580 0.46029973 -0.47274047 -0.46577033 -0.46548760 0.47196564 -0.46329525 0.46673185 0.45436382 0.47230706 0.45706293 -0.46797961 0.30999920 -0.46751305 -0.45350182 0.46053520 0.44971037 0.45756716 -0.45855901 0.46240729 0.47362828 -0.45080686 -0.46677375
18th -0.15122809 0.27640602 -0.15263653 0.26245603 -0.19546627 -0.15635853 -0.24877150 0.23509583 -0.14009959 -0.17062749 0.34108832 -0.20575362 -0.23499843 -0.21940100 0.20654483 -0.07843456 0.37210172 0.29606310 0.26761124 0.34879228 -0.18569344 0.59124452 -0.16157304 -0.26668736 0.11090527 0.13483618 0.34946302 -0.15355858 0.26900911 0.23005721 -0.12462226 -0.20134732
1928 -0.47882739 0.46608087 -0.48490113 0.48563460 -0.48414335 -0.48447904 -0.47904393 0.47650319 -0.48236063 -0.47167432 0.47874600 -0.48314449 -0.49091810 -0.48006311 0.48229125 -0.48258379 0.48432052 0.48120579 0.48775718 0.49040964 -0.47978517 0.52593625 -0.48949453 -0.48173621 0.47514153 0.46398124 0.49133745 -0.47659186 0.48233470 0.48474422 -0.47685137 -0.48152593
1947 -0.50513518 0.55644041 -0.48067522 0.51076484 -0.48586667 -0.51199412 -0.51453620 0.49588838 -0.52302009 -0.51002491 0.51271147 -0.49691615 -0.44984195 -0.52453583 0.49956590 -0.49039009 0.48662058 0.48688045 0.52766067 0.52198768 -0.51084340 0.62198418 -0.52792317 -0.51494271 0.48611963 0.53450918 0.51984173 -0.52029157 0.51021093 0.51039946 -0.53647023 -0.51981604
1948 -0.49418166 0.59403139 -0.50913388 0.51490718 -0.55522943 -0.55720222 -0.51719707 0.58296901 -0.48670024 -0.56109565 0.55336255 -0.54852539 -0.52054673 -0.55444491 0.55335712 -0.54315972 0.58178222 0.55671287 0.60683364 0.47942933 -0.52980530 0.61286861 -0.56139177 -0.57179636 0.54484242 0.53825957 0.56618625 -0.55908030 0.54883516 0.55975038 -0.58628404 -0.55512321
1949 -0.53498948 0.52710986 -0.53319991 0.54550719 -0.53813630 -0.50459069 -0.54077673 0.55407345 -0.54123145 -0.51722163 0.55233300 -0.54340893 -0.51991361 -0.53331810 0.54046577 -0.54210204 0.55048662 0.52242339 0.54564303 0.54063421 -0.54991519 0.59268403 -0.54277897 -0.53457230 0.55392218 0.54246163 0.53600246 -0.52717382 0.54360580 0.53667277 -0.55153054 -0.54036695
1971 -0.45634356 0.43791893 -0.45278341 0.45369431 -0.45106333 -0.45124301 -0.44548380 0.44841972 -0.45205107 -0.44711787 0.45177165 -0.45373842 -0.45731315 -0.45174146 0.45727229 -0.45424056 0.44987932 0.45044681 0.45379275 0.45851782 -0.45112091 0.49116480 -0.45498464 -0.45109963 0.44920176 0.43867347 0.45399866 -0.45216560 0.44998756 0.45281467 -0.44237408 -0.45513666
1973 -0.47214657 0.47000882 -0.45797190 0.46266705 -0.48426080 -0.44943374 -0.47877285 0.47459573 -0.47750115 -0.46494600 0.47328568 -0.46319175 -0.45629340 -0.46098864 0.48510018 -0.46879101 0.47665718 0.46525678 0.50513119 0.47972977 -0.46324855 0.46868876 -0.47286069 -0.46465158 0.46981823 0.47316781 0.47614875 -0.45546100 0.46561772 0.48108333 -0.46699739 -0.46319953
1979 -0.51500863 0.49536505 -0.51029909 0.51885384 -0.51195842 -0.51537138 -0.52340263 0.51605719 -0.50988150 -0.49229869 0.52042574 -0.51026046 -0.50300151 -0.51640612 0.51622874 -0.50506014 0.50756150 0.50307894 0.52446097 0.52224952 -0.50887418 0.53882056 -0.52173275 -0.50809294 0.49937290 0.50953192 0.51959532 -0.51881582 0.51862395 0.52589482 -0.50968885 -0.50021219
1980 -0.44288909 0.44305268 -0.44958454 0.44556335 -0.44813299 -0.44416282 -0.44905302 0.44497031 -0.44657725 -0.44359475 0.44428346 -0.45184016 -0.45497414 -0.43872154 0.45051578 -0.45112711 0.45218480 0.44427159 0.42176551 0.45169577 -0.44125393 0.40676266 -0.45240211 -0.44998682 0.44933498 0.43952492 0.45196596 -0.44701380 0.44986740 0.44953942 -0.44628036 -0.44779691
1986 -0.49533045 0.48301330 -0.49140179 0.49505553 -0.49457186 -0.49610791 -0.49112600 0.49214509 -0.49131370 -0.48341987 0.49232572 -0.49372157 -0.49355781 -0.49067721 0.49543682 -0.49203342 0.49380389 0.49471575 0.49100164 0.49339432 -0.49095544 0.42730436 -0.49904186 -0.49377629 0.48778084 0.48460519 0.49127078 -0.48858801 0.49458572 0.49290305 -0.48894933 -0.49302721
1995 -0.28061756 -0.22913459 0.16056339 -0.04968181 -0.18658911 -0.26540607 -0.10282853 0.25107011 -0.30466151 0.07390057 -0.08371291 0.06695074 -0.35265738 0.11551271 -0.04322359 -0.27475229 0.30339572 0.17153978 0.12982124 0.18706670 0.10078700 0.47535506 0.13936906 -0.13881378 -0.14370263 -0.04012527 -0.05810583 0.06149730 0.21143164 0.10055735 0.19696857 -0.03360882
1998 -0.52799928 0.38138080 -0.53343278 0.54433340 -0.54217535 -0.54701126 -0.50373966 0.54882824 -0.54144758 -0.53433883 0.55452687 -0.55068839 -0.54781795 -0.53693736 0.54769737 -0.54756612 0.54487014 0.54883373 0.56299424 0.55001104 -0.53423613 0.54797703 -0.54809326 -0.54466337 0.54255366 0.54147494 0.55309820 -0.53304613 0.54349089 0.54986638 -0.46948576 -0.54030567
2 -0.57907552 0.62029046 -0.58995271 0.60001630 -0.59452087 -0.60473752 -0.60724378 0.58600694 -0.56986970 -0.61149776 0.58306116 -0.57767648 -0.58074307 -0.59076965 0.57163066 -0.59163266 0.58117861 0.60368890 0.60003459 0.58931994 -0.59779096 0.65462810 -0.58191460 -0.58884680 0.59359199 0.64732862 0.57608068 -0.60011113 0.59356403 0.58282703 -0.59914756 -0.59107500
20 -0.60105824 0.63795084 -0.62515491 0.63017458 -0.62982559 -0.59557205 -0.62311184 0.60659307 -0.59150952 -0.62385368 0.66460854 -0.59060407 -0.58111006 -0.59827161 0.64076847 -0.60403156 0.60873204 0.60772580 0.53888422 0.62906295 -0.63970429 0.06858693 -0.56668603 -0.63428462 0.63285720 0.69792473 0.63899052 -0.61239320 0.59706521 0.63506436 -0.63713831 -0.60120541
2000 -0.45838678 0.44586745 -0.46068719 0.46083400 -0.46007779 -0.46209422 -0.45902082 0.45334706 -0.45878506 -0.45125172 0.46171913 -0.46240416 -0.46394733 -0.46206591 0.46064961 -0.45809585 0.45568141 0.45881683 0.46251169 0.46906108 -0.45802709 0.49479336 -0.46174821 -0.46248445 0.45768207 0.44810107 0.46299437 -0.45970538 0.45863622 0.46071535 -0.45694649 -0.45927876
2005 -0.35917613 0.32193258 -0.38298470 0.37928876 -0.29464540 -0.34370151 -0.44153124 0.39657885 -0.30345088 -0.35396895 0.38887197 -0.33996230 -0.38731983 -0.36338282 0.38709864 -0.28931671 0.43713027 0.40755317 0.53014338 0.30850989 -0.34985638 -0.10771216 -0.37065679 -0.41387829 0.31094700 0.33381197 0.37792370 -0.41506401 0.40009740 0.33912858 -0.32048482 -0.39281806
2006 -0.43294626 0.40257791 -0.43377110 0.43466595 -0.43298844 -0.43285516 -0.42994598 0.42737129 -0.43172550 -0.41667220 0.42815331 -0.43220705 -0.43989146 -0.43050054 0.43504891 -0.42950138 0.43792325 0.43234390 0.44056320 0.43571913 -0.42330608 0.45625457 -0.43362927 -0.43354538 0.42312223 0.40691230 0.43650007 -0.43136331 0.42855981 0.43226340 -0.41948807 -0.43204555
2007 -0.48547894 0.51166719 -0.46924770 0.47300082 -0.44934136 -0.49927276 -0.49439642 0.54114425 -0.46049023 -0.43690372 0.53691995 -0.50240690 -0.45013097 -0.45473596 0.48153156 -0.45365539 0.49848294 0.48365626 0.58849114 0.50714511 -0.47155747 0.40311515 -0.50882888 -0.49453127 0.49449754 0.58323032 0.52896017 -0.46669775 0.56278712 0.43041688 -0.52053136 -0.43070924
2011 -0.49244863 -0.23723719 -0.53971952 0.50693792 -0.50241578 -0.49538517 -0.52311039 0.20731953 -0.51116812 -0.45132157 0.52238971 -0.52108413 -0.52343798 -0.48770812 0.52057678 -0.48330614 0.48538718 0.52224684 0.46292484 0.52247602 -0.35402375 0.31672657 -0.49232903 -0.52224970 0.45180666 0.22670519 0.48799849 -0.47868973 0.45029029 0.51985008 -0.44984376 -0.52504313
2013 -0.46280378 0.36292577 -0.40255323 0.49097103 -0.45902476 -0.48556563 -0.45667300 0.48680568 -0.46584228 -0.30038762 0.48993319 -0.46045372 -0.46673065 -0.46925953 0.49136809 -0.44434431 0.49140149 0.48909172 0.44892704 0.47522014 -0.47165322 0.50694644 -0.46428356 -0.48835510 0.46683019 0.51160663 0.49581811 -0.49865943 0.47069544 0.45109627 -0.43881997 -0.45822337
2015 -0.43968442 0.41539335 -0.46022463 0.44786829 -0.44380260 -0.44544572 -0.41806635 0.43658984 -0.41636157 -0.46240041 0.44023833 -0.44562966 -0.44738820 -0.45235974 0.43713754 -0.45954978 0.44380826 0.44663364 0.44134778 0.45194638 -0.44215989 0.48746955 -0.44545263 -0.44307694 0.46171716 0.42545325 0.44451562 -0.42377231 0.45269060 0.44494745 -0.45782465 -0.44726512
20th -0.46545088 0.47345942 -0.45479670 0.50208235 -0.43338823 -0.46707997 -0.54099941 0.49540320 -0.46673912 -0.44423088 0.51019782 -0.47812063 -0.49190408 -0.49124736 0.48065796 -0.43006065 0.51060569 0.49570274 0.52546740 0.48895609 -0.48786154 0.42514822 -0.46336141 -0.50430310 0.44531697 0.49908608 0.49522868 -0.49802914 0.49062905 0.49905762 -0.45540920 -0.48724517
2160 -0.02017684 -0.22155465 0.18503493 0.25389215 0.16185175 0.07349267 0.04590778 0.03820935 0.01085492 -0.04202567 -0.16450477 0.12062648 -0.06603549 0.01173071 -0.08529120 0.04965376 0.02588013 -0.11698277 -0.01143489 0.14086452 0.06839184 0.53171533 0.21903703 -0.00490269 -0.14875273 -0.18519554 0.01433277 0.09912002 -0.15633282 -0.07553458 0.22735074 -0.18379582
23 -0.42741925 0.41812000 -0.42738688 0.43049774 -0.42278036 -0.43657357 -0.43229008 0.42191687 -0.43105322 -0.41899249 0.43581739 -0.44463050 -0.43735218 -0.43076736 0.43705630 -0.43326098 0.42905113 0.42698124 0.44246519 0.44136196 -0.42167455 0.45630839 -0.43491343 -0.43185365 0.43483263 0.40782732 0.43246359 -0.43794298 0.43238580 0.44286388 -0.41861048 -0.43348470
24 -0.54400682 0.58230114 -0.49825084 0.57483494 -0.58007568 -0.58098906 -0.57120872 0.54936653 -0.56824571 -0.51029611 0.54826415 -0.55406320 -0.48507953 -0.56615865 0.55389678 -0.53030068 0.54775578 0.54321563 0.56655908 0.50986284 -0.57207340 0.33153096 -0.54338181 -0.56621170 0.55653876 0.56417555 0.57374322 -0.54792529 0.58513957 0.55703038 -0.56518632 -0.52441669
25 0.05709206 0.19747818 -0.10970800 0.08722975 -0.12782879 -0.05463317 -0.22235875 0.33616570 0.06838191 -0.00648763 0.02875141 -0.02442124 -0.00397815 -0.02232140 0.12369113 -0.08154934 0.02138897 0.07851561 0.12337980 -0.06954412 -0.14002638 -0.23016623 -0.11016471 -0.06390643 -0.01246634 0.36510089 -0.05861850 -0.00233513 0.01898408 0.00472531 -0.15714087 0.07140239
2mp -0.51485556 0.50856453 -0.50732398 0.50280172 -0.50602597 -0.50849825 -0.51734650 0.50808573 -0.51234210 -0.48477045 0.50548160 -0.51234657 -0.50374132 -0.50674003 0.50254071 -0.50849295 0.51236641 0.50960773 0.50839597 0.51061392 -0.51470315 0.45088878 -0.50502694 -0.51659286 0.51218510 0.46796215 0.51198238 -0.50688028 0.51835704 0.50807452 -0.49487144 -0.50318038
3 -0.59059495 0.60537553 -0.59359014 0.69491833 -0.62318325 -0.64124274 -0.68548161 0.60914552 -0.68354529 -0.64936686 0.68296003 -0.62116170 -0.59791857 -0.65811610 0.60937846 -0.64275277 0.56109750 0.62973177 0.58236492 0.68033630 -0.65300465 0.39865473 -0.55807412 -0.61633378 0.67959160 0.68947893 0.59012538 -0.64805287 0.62035364 0.60834908 -0.64734638 -0.65705806
30 -0.59299034 0.65504551 -0.58061540 0.55030721 -0.57693195 -0.55086380 -0.56170166 0.60331076 -0.57537735 -0.57784414 0.50280851 -0.55536300 -0.57464862 -0.58075941 0.59086466 -0.59289229 0.59781092 0.58482957 0.65619552 0.44466960 -0.60125870 -0.32101330 -0.57515782 -0.57036984 0.59863245 0.58012098 0.61250317 -0.61320752 0.58066756 0.60374784 -0.57248861 -0.53433192
30s -0.51332355 0.58963799 -0.47506884 0.55448228 -0.58982402 -0.58706826 -0.60688668 0.55297029 -0.57567704 -0.56149161 0.56712401 -0.57379681 -0.53618306 -0.57552695 0.49577758 -0.52313089 0.56427747 0.57382321 0.55172247 0.54803324 -0.55499822 0.61026484 -0.58583874 -0.58504856 0.51754534 0.60967201 0.50410074 -0.55513954 0.55955255 0.60417497 -0.57346380 -0.53380692
325 -0.46883982 0.45576191 -0.45894513 0.47430861 -0.46906164 -0.48153219 -0.47534838 0.47862250 -0.47861978 -0.48013169 0.48533747 -0.48985562 -0.46956503 -0.48101115 0.47459155 -0.47205964 0.47688910 0.47927144 0.50194299 0.47719017 -0.48099273 0.53110749 -0.46761388 -0.47484988 0.47456542 0.46407121 0.48481163 -0.47690415 0.48060626 0.47876525 -0.46602789 -0.47671279
35 -0.29966086 0.49010646 -0.14858098 0.31264991 -0.01121048 -0.00766129 -0.03210696 0.37274560 -0.29626298 -0.32100853 0.19660988 0.06096952 0.00155098 -0.15826823 0.23498480 -0.05331712 0.01088240 0.42401639 0.35980606 -0.00198406 -0.20630051 0.44385213 -0.06179580 -0.26465547 0.26133817 0.38558030 0.40012527 -0.33087477 0.07731159 0.10349022 -0.26368585 -0.06783165
350 -0.51443684 0.54568291 -0.54611439 0.52324635 -0.52496123 -0.50226599 -0.54608476 0.55744743 -0.50696093 -0.54864860 0.51920795 -0.53532457 -0.52825016 -0.51912498 0.53464907 -0.54022974 0.55546993 0.52124846 0.59548563 0.50131232 -0.53104061 -0.34507275 -0.52670830 -0.52886885 0.52658325 0.53830421 0.55516315 -0.51356155 0.53310645 0.53055644 -0.54005194 -0.53025055
375 -0.39782023 0.44306794 -0.39752442 0.50504655 -0.45068705 -0.49595094 -0.44869769 0.29905558 -0.48368704 -0.50633812 0.53543991 -0.48199230 -0.48240837 -0.46276185 0.37632811 -0.29327947 0.41628411 0.48181257 0.42054924 0.52216941 -0.51619440 0.51233631 -0.44210294 -0.32574111 0.44739029 0.53890723 0.50840259 -0.47096953 0.51418149 0.47515520 -0.48592359 -0.30730191
3o -0.52701050 0.52909654 -0.52481925 0.52917701 -0.57161176 -0.52730572 -0.25247192 0.57843792 -0.57068521 -0.56302893 0.56489617 -0.54024953 -0.55128342 -0.54619104 0.55874467 -0.51999474 0.55426347 0.55978447 0.56150424 0.38404930 -0.57536364 -0.42570904 -0.53667808 -0.53087425 0.56474489 0.57414269 0.54725844 -0.56946093 0.54974043 0.53823060 -0.52982563 -0.55932337
4 -0.72511446 0.71777314 -0.71564919 0.75508541 -0.73379308 -0.74926144 -0.72784621 0.73412085 -0.72904623 -0.73893410 0.74818414 -0.73685074 -0.73604155 -0.74705875 0.75929010 -0.72012156 0.73826909 0.74437034 0.73376316 0.73762602 -0.73468542 0.81096780 -0.73158032 -0.74054247 0.73553002 0.75751162 0.73435575 -0.74690706 0.73447829 0.74264127 -0.71573871 -0.73587626
40 -0.63653320 0.61967713 -0.62839091 0.62143296 -0.63654941 -0.62625962 -0.62324923 0.60569954 -0.63342208 -0.62880504 0.61475980 -0.61511177 -0.63901824 -0.61502230 0.62157804 -0.62490320 0.62261415 0.62164772 0.59699202 0.64306885 -0.63616037 0.66517484 -0.61488217 -0.62414920 0.63355017 0.62406969 0.63013762 -0.64478594 0.60794896 0.63796312 -0.61354947 -0.62373579
40min -0.54704082 0.52118117 -0.56711280 0.53900737 -0.52958977 -0.55971956 -0.53796548 0.53932697 -0.54274184 -0.53200281 0.55132335 -0.53400594 -0.53437203 -0.56215435 0.54596972 -0.53406447 0.55341178 0.55450553 0.54182684 0.55820036 -0.54886162 0.57825583 -0.53049886 -0.55750066 0.56028515 0.54553050 0.55300033 -0.55332136 0.54357123 0.53785986 -0.53899986 -0.54343301
42 -0.23202936 0.09998497 0.18786645 0.15950666 -0.27698773 -0.17243767 -0.12158027 0.24510400 -0.34299883 -0.38322774 0.06264877 -0.26036146 -0.15727133 -0.05139969 0.33648551 -0.35435393 0.27089775 0.25982395 -0.27901539 0.12202746 -0.26933008 -0.34738117 -0.27610892 -0.15316790 0.23456933 0.29478753 0.21516904 -0.35590157 0.15099578 0.27363530 0.12656973 -0.18253787
44 -0.23576334 0.23506555 -0.14630549 0.17891404 -0.02708392 -0.19216552 -0.25711876 0.26547813 -0.08674644 -0.17805853 0.30737379 -0.24044019 -0.17258227 -0.20831887 0.18829495 -0.11983805 0.13813381 0.27347276 0.21667971 -0.03247248 -0.17666709 -0.51014906 -0.17092472 -0.13061956 0.18777451 0.34950438 0.02132065 -0.20924915 0.13874620 0.01129398 -0.09409981 -0.14436068
45 -0.19841456 0.34941056 -0.02123067 0.27434081 -0.47195780 -0.05213978 -0.02771519 0.60040319 -0.48130542 -0.32741496 0.39101785 -0.30064622 -0.43995473 -0.35577521 0.23097658 -0.31377402 0.20458463 0.42397124 0.24801312 0.23420997 -0.38144508 0.75330400 -0.39815882 -0.18060489 0.30488408 0.53612632 0.37803954 -0.40489036 0.24576044 0.34648803 -0.20123681 -0.26990885
4s -0.01773551 0.14098895 0.01037900 0.14095886 -0.16754521 0.01455650 -0.05404694 0.15528046 -0.03590411 -0.02202432 0.08381720 -0.17336239 -0.04225111 -0.06627064 0.15612100 -0.13263759 0.17004147 0.06598447 0.04861260 -0.03512089 -0.15441594 -0.50510597 -0.04615834 -0.15587142 0.22671925 0.17258799 0.15593068 -0.12353462 0.10158924 0.11114512 -0.02641985 -0.14966416
4ths -0.52312881 0.52475840 -0.52299380 0.52991712 -0.52585822 -0.51834929 -0.53014672 0.52532047 -0.52578574 -0.51381016 0.53232455 -0.52071786 -0.52773535 -0.53247130 0.51632607 -0.53514695 0.51409078 0.52414155 0.53297293 0.53074056 -0.52046853 0.45917994 -0.51837540 -0.53589875 0.52250105 0.53178561 0.51670402 -0.53294235 0.53073102 0.52931339 -0.51769143 -0.51894015
5 -0.71440077 0.69682389 -0.67058951 0.71474409 -0.68458927 -0.71378118 -0.70109004 0.73540056 -0.69650710 -0.70578641 0.70404333 -0.70861208 -0.70046288 -0.69243759 0.70624900 -0.70352763 0.71116805 0.70012242 0.71058714 0.68663257 -0.69234365 0.55194890 -0.68895030 -0.69529903 0.70385343 0.70510131 0.69445843 -0.70918483 0.70898384 0.69320327 -0.72072870 -0.71989757
50 -0.64102870 0.63117766 -0.64443791 0.64447016 -0.63195533 -0.63586849 -0.63495553 0.63476861 -0.63619876 -0.63214815 0.63284731 -0.63391596 -0.63841146 -0.63525367 0.63188213 -0.63647258 0.63612795 0.63477546 0.64243168 0.63173079 -0.63691396 0.37987071 -0.63912207 -0.63120282 0.63438767 0.62063408 0.64156449 -0.63324630 0.63671148 0.63106340 -0.63449174 -0.63607663
500 -0.43781999 0.41781428 -0.42791817 0.45926186 -0.42657870 -0.42864594 -0.46268231 0.43236232 -0.42635140 -0.41895044 0.45027640 -0.42564657 -0.43917468 -0.43965593 0.43000984 -0.44313851 0.46061057 0.45011258 0.47736260 0.43032169 -0.45471987 0.54943091 -0.46364877 -0.43448514 0.41927755 0.41774809 0.46668595 -0.45646343 0.45835578 0.45807526 -0.42219692 -0.43118131
5020 -0.54136288 0.57278645 -0.54485232 0.55357295 -0.54138827 -0.55496174 -0.57520080 0.55432391 -0.56195176 -0.55477899 0.55757630 -0.54504335 -0.56084275 -0.56290519 0.54231876 -0.55026877 0.55081660 0.56041157 0.57063085 0.57142633 -0.53053719 0.56933576 -0.53878105 -0.55452430 0.54829389 0.53762412 0.55378574 -0.56456739 0.54068393 0.56130266 -0.55771953 -0.56373316
510 -0.48840907 0.46722922 -0.49147990 0.49843287 -0.49536821 -0.49008840 -0.47607538 0.49519116 -0.49541211 -0.49072000 0.49527529 -0.49361688 -0.49519864 -0.49148533 0.49670863 -0.49994269 0.49293712 0.49089527 0.48837653 0.49194148 -0.49308684 0.34906262 -0.48316163 -0.49070674 0.49266839 0.49155140 0.49781284 -0.49098247 0.49611789 0.49230912 -0.48817310 -0.49382186
5320 -0.43943721 0.42722976 -0.44334993 0.44372302 -0.43791825 -0.43939430 -0.43479651 0.42615977 -0.44063076 -0.43348134 0.44146907 -0.44040132 -0.44450819 -0.44122365 0.44505855 -0.43862432 0.44164342 0.43772057 0.44301829 0.44411400 -0.43572241 0.45416859 -0.43858498 -0.44219750 0.43518299 0.42540053 0.44367287 -0.43794596 0.43920958 0.43874913 -0.43555641 -0.44110817
54 -0.52880859 0.53153974 -0.52731967 0.52897894 -0.52485394 -0.53042716 -0.52261567 0.53364927 -0.53137946 -0.52507883 0.52756596 -0.52071625 -0.52140975 -0.52865291 0.52731055 -0.53753644 0.52460361 0.52915865 0.52979434 0.53085154 -0.52876776 0.53276426 -0.52469391 -0.53232926 0.53139412 0.53479230 0.53241402 -0.52622318 0.52621061 0.52701706 -0.52826130 -0.53382587
5lb 0.09915853 -0.15681434 -0.06536265 0.09472591 -0.04994180 -0.09775278 -0.10694191 -0.35530397 0.00564924 -0.26478034 0.01238502 0.08874676 0.02899183 -0.11340367 -0.19523269 -0.23901272 -0.03983652 -0.07467740 0.01528623 -0.08431631 0.00668655 0.32115716 -0.12021507 -0.03732717 0.05621908 -0.14519006 -0.08997798 0.10487642 -0.00944115 -0.10677192 -0.05021249 -0.21578823
6 -0.63984662 0.65157557 -0.65430468 0.64403600 -0.63844419 -0.66019726 -0.65470052 0.64875853 -0.63904124 -0.63093358 0.63286549 -0.64612609 -0.65219504 -0.64507037 0.65756565 -0.65729582 0.64636624 0.63450277 0.64629656 0.64774466 -0.64839387 0.59641230 -0.65410817 -0.64427567 0.64499247 0.64416724 0.65156329 -0.65253288 0.65675473 0.64461637 -0.65129286 -0.65282869
680 -0.42370787 0.41243741 -0.42766765 0.42494664 -0.42685845 -0.43101948 -0.42159313 0.42236024 -0.42879891 -0.41994986 0.42277241 -0.42687285 -0.42910227 -0.42459059 0.42187798 -0.42942360 0.42645359 0.42595854 0.43214121 0.43093449 -0.42091173 0.47516188 -0.42706403 -0.42607674 0.42201781 0.42223805 0.43011549 -0.42491966 0.42242220 0.42663658 -0.42023814 -0.42614517
7 -0.67051488 0.69094312 -0.63847375 0.65753073 -0.63331985 -0.62388456 -0.63606465 0.67200333 -0.63577306 -0.68382871 0.65377963 -0.64661086 -0.63071460 -0.65835029 0.63016325 -0.57020098 0.61384326 0.66334516 0.71045047 0.57106924 -0.67707986 0.16719283 -0.64376348 -0.61820573 0.64597595 0.68097782 0.62853503 -0.63442582 0.65717870 0.59143168 -0.65492833 -0.63531190
70 -0.60061866 0.55279481 -0.60149437 0.61118525 -0.59571034 -0.59883875 -0.57986647 0.59172577 -0.59495103 -0.57897151 0.58976626 -0.59917516 -0.59560639 -0.59106773 0.60677576 -0.59098977 0.59736252 0.58967716 0.57348013 0.60376775 -0.59728312 0.54827696 -0.60341495 -0.60667312 0.59800631 0.56316131 0.60945755 -0.59431928 0.58871293 0.59951538 -0.56795543 -0.59169519
70000 -0.51361275 0.52254564 -0.52290463 0.52477753 -0.52305979 -0.52279806 -0.51516974 0.51382506 -0.51729101 -0.51947069 0.51590157 -0.51486278 -0.52299511 -0.51972371 0.51517743 -0.53146017 0.50921685 0.51617068 0.52513725 0.52148229 -0.51486576 0.49946481 -0.52940375 -0.51849127 0.51572210 0.51806027 0.51457804 -0.51743174 0.51701313 0.52190018 -0.51783788 -0.52127218
700w -0.41969106 0.39896712 -0.41691169 0.43104932 -0.43420255 -0.43572193 -0.41621497 0.43549347 -0.43709770 -0.42980367 0.43721056 -0.44601703 -0.43611702 -0.43183011 0.43596587 -0.42618489 0.44165206 0.43212542 0.45879248 0.43450654 -0.43440640 0.49977440 -0.42525184 -0.44236970 0.43076095 0.41981065 0.45154387 -0.44081873 0.43559340 0.44125804 -0.42157149 -0.43719825
70s -0.50332367 0.49146619 -0.50126368 0.50578386 -0.50560766 -0.50360864 -0.50425935 0.50504404 -0.50649953 -0.49485546 0.49903765 -0.50037277 -0.50679696 -0.50020778 0.50375217 -0.50743943 0.50134635 0.49888563 0.51040417 0.50889874 -0.49791244 0.57042319 -0.50948131 -0.50219500 0.49805385 0.49270082 0.50300276 -0.50158268 0.50825107 0.50389183 -0.49271533 -0.49965155
8 -0.69333029 0.75850308 -0.68142211 0.68479687 -0.69054991 -0.70559460 -0.74678874 0.71039712 -0.67519283 -0.67733949 0.68837315 -0.68039131 -0.69423795 -0.69735676 0.67322755 -0.68551773 0.69713569 0.69965547 0.69997376 0.67464530 -0.69299763 0.62114286 -0.69134092 -0.70701545 0.67716891 0.74867755 0.65019703 -0.66908580 0.67423934 0.69266838 -0.71495014 -0.68060154
80 -0.61348057 0.66155332 -0.60840064 0.57801467 -0.61263430 -0.60952723 -0.61299288 0.57986945 -0.60601360 -0.62641495 0.59802938 -0.58806217 -0.59609717 -0.60184246 0.57915628 -0.61336410 0.56709409 0.60602754 0.50088388 0.60865045 -0.60391527 0.57333177 -0.61042559 -0.59013182 0.60548902 0.64062762 0.57227647 -0.60059184 0.59746474 0.60272539 -0.62128681 -0.58287609
80s -0.45891067 0.43877637 -0.45257103 0.46308354 -0.45969874 -0.45671797 -0.45693326 0.46011880 -0.46237060 -0.44681701 0.45918155 -0.46475330 -0.46054396 -0.45243189 0.46632814 -0.45875531 0.46376675 0.45949060 0.44888943 0.46454793 -0.45836118 0.31997946 -0.45692354 -0.45272607 0.45878378 0.44717780 0.46022248 -0.45704034 0.46187723 0.46203265 -0.44293270 -0.46023211
8125 -0.41677091 0.40700471 -0.42224923 0.42398888 -0.41970465 -0.41982761 -0.41641209 0.41281706 -0.42007360 -0.41142771 0.42610154 -0.41930819 -0.42618871 -0.41999897 0.42229694 -0.42833382 0.42256320 0.41813466 0.41263148 0.42764980 -0.41688266 0.46070403 -0.42589206 -0.42133367 0.41348356 0.40552342 0.42245996 -0.41950059 0.42215958 0.42309582 -0.41764185 -0.42341647
85 -0.53593534 0.52416986 -0.53887433 0.53443491 -0.51914436 -0.52955204 -0.53284103 0.52363437 -0.52810806 -0.52512127 0.53152966 -0.53392148 -0.52365488 -0.53116196 0.52957129 -0.53794330 0.52627176 0.52379102 0.53266662 0.53598529 -0.52546954 0.55189687 -0.53784478 -0.53358859 0.53102243 0.53559357 0.53295475 -0.52686501 0.52733636 0.53603601 -0.52860695 -0.53376192
8525 -0.51083022 0.51744145 -0.51513058 0.51586312 -0.51181018 -0.51120669 -0.51409030 0.50961244 -0.51164651 -0.51309222 0.51357853 -0.50900716 -0.51603413 -0.51326132 0.50983930 -0.51790053 0.50737154 0.50807881 0.47665134 0.51800478 -0.51400858 0.54153699 -0.51815927 -0.51014918 0.50925934 0.51846850 0.49892607 -0.51015568 0.51377827 0.51343977 -0.52019793 -0.51210213
8530 -0.52400345 0.54663819 -0.56868613 0.53220707 -0.52688259 -0.51750052 -0.49200380 0.53095376 -0.53064191 -0.54853433 0.54081798 -0.53251123 -0.54258907 -0.54332036 0.51477855 -0.55975932 0.49795619 0.54814553 0.56393093 0.49742398 -0.54645711 -0.27346274 -0.55196929 -0.52524346 0.55327493 0.57060486 0.53697872 -0.52498627 0.52314281 0.51582736 -0.51907974 -0.52718008
8pm -0.45847592 0.43935645 -0.45274115 0.45907512 -0.46759778 -0.46757191 -0.46662268 0.45570529 -0.45287243 -0.44913086 0.45409295 -0.46369848 -0.46488333 -0.46414024 0.46968788 -0.45694652 0.46730879 0.45694059 0.47585621 0.45395535 -0.45590982 0.36285245 -0.47723287 -0.46616334 0.45475611 0.44332433 0.46156648 -0.45507726 0.46087816 0.46487975 -0.44574073 -0.45892555
9 -0.50206649 0.50152218 -0.51009464 0.51824981 -0.50533444 -0.51922178 -0.50079721 0.51485956 -0.52060342 -0.51345849 0.50832570 -0.51493686 -0.50984758 -0.51796538 0.51092380 -0.52340859 0.50634581 0.50998706 0.50920248 0.52831662 -0.51348555 0.59008473 -0.52574313 -0.51345432 0.51488262 0.50965375 0.51590770 -0.51467794 0.51550579 0.51505959 -0.51066130 -0.51812017
90 -0.59952033 0.58810639 -0.60202473 0.61364490 -0.61010313 -0.60417414 -0.59704363 0.61756885 -0.61015528 -0.58836871 0.60758066 -0.61141711 -0.61989164 -0.60177523 0.61358958 -0.59406960 0.61087811 0.59667051 0.62461942 0.60891670 -0.59326315 0.69642794 -0.59686351 -0.59584320 0.59741795 0.59794855 0.62355733 -0.60655314 0.61094767 0.60305727 -0.58715695 -0.60204649
95 -0.50713372 0.53040665 -0.50502253 0.53106087 -0.52979428 -0.53198701 -0.52648431 0.52809173 -0.52785766 -0.51812667 0.53296411 -0.52890748 -0.52029443 -0.52478987 0.52969921 -0.53120571 0.51426858 0.52895492 0.50014174 0.52355748 -0.52896547 0.50642538 -0.53306895 -0.52932000 0.52999377 0.52244759 0.51868963 -0.52838433 0.52749527 0.52898085 -0.53239352 -0.53158957
99 -0.56045544 0.49351066 -0.54510808 0.55922014 -0.55603373 -0.55902737 -0.56037402 0.51565075 -0.55977333 -0.56014484 0.54673672 -0.54353464 -0.50135541 -0.55893677 0.54657507 -0.54668003 0.52400482 0.53545892 0.54986900 0.55771863 -0.56328648 0.55022323 -0.50573498 -0.54007041 0.54439104 0.52125555 0.55594885 -0.52625191 0.52517557 0.54479539 -0.50730813 -0.55851221
a -0.56788743 0.54294217 -0.45704672 0.49742338 -0.48621905 -0.44774351 -0.54822147 0.54977119 -0.54024047 -0.58521283 0.58069831 -0.41679302 -0.40514550 -0.53904676 0.46542805 -0.42551187 0.39989793 0.52673554 0.57732314 0.48625821 -0.51982313 0.39077219 -0.43927267 -0.50223511 0.48045295 0.57504684 0.48796645 -0.54128516 0.48114139 0.42954445 -0.52594060 -0.50867146
aailiyah -0.42976534 0.40907615 -0.43237746 0.43681639 -0.42769697 -0.43372422 -0.42804089 0.42351523 -0.43199196 -0.41777900 0.42649063 -0.43689290 -0.43456453 -0.42944372 0.43588266 -0.43188700 0.43509436 0.43123141 0.43435019 0.43256328 -0.42651114 0.45138285 -0.43243480 -0.43474892 0.42835057 0.41531298 0.43679112 -0.43077493 0.42869174 0.43324253 -0.42349732 -0.43276209
abandoned -0.49119580 0.23079640 -0.40877330 0.47179091 -0.39216271 -0.40595740 -0.46759832 0.46296734 -0.41605496 -0.54785150 0.47223204 -0.43004617 -0.27395138 -0.45127296 0.44654149 -0.34687662 0.37515959 0.39590770 0.48544514 0.48479810 -0.48429069 0.59234852 -0.43809032 -0.46167463 0.41388789 0.45800325 0.43685228 -0.44305837 0.37658730 0.44546694 -0.40155745 -0.44975749
abhor -0.46541393 0.44716513 -0.45437485 0.46472445 -0.46680865 -0.46330357 -0.45713383 0.45245063 -0.46005163 -0.45376748 0.45403484 -0.46177906 -0.46434426 -0.45623234 0.46335259 -0.46046302 0.46710214 0.46101078 0.45810208 0.46958458 -0.46030375 0.42836428 -0.46621904 -0.45822522 0.45536298 0.44968870 0.46091032 -0.45996726 0.45661622 0.46857643 -0.44786510 -0.45978218
ability -0.62698489 0.60789108 -0.62683702 0.64274895 -0.64604729 -0.64749932 -0.62730676 0.63019741 -0.64714056 -0.62820071 0.63497454 -0.64249212 -0.65209609 -0.63253492 0.64887565 -0.64555371 0.64231634 0.63816333 0.60883242 0.64573747 -0.63000494 0.63717932 -0.65021896 -0.63986969 0.63290405 0.60785764 0.64821243 -0.63372540 0.64338231 0.64515364 -0.61806804 -0.63961226
able -0.50198758 0.48982838 -0.49700040 0.49779722 -0.49983591 -0.50038493 -0.49626541 0.50405562 -0.49922386 -0.49293816 0.49728930 -0.50021577 -0.50418770 -0.49743280 0.50245649 -0.49886343 0.50444877 0.50089711 0.51512849 0.48249039 -0.49763486 0.51761520 -0.50450486 -0.50130385 0.49705702 0.49625638 0.50419420 -0.49984336 0.49991184 0.49992475 -0.49397784 -0.49556342
abound -0.49637654 0.48733804 -0.49372908 0.50045556 -0.49273604 -0.49605063 -0.48958075 0.49004903 -0.49355134 -0.48814118 0.49373212 -0.49259701 -0.49412766 -0.49210557 0.49553123 -0.49381214 0.49428466 0.49324793 0.49085134 0.49164987 -0.49126342 0.50888616 -0.49107555 -0.49321350 0.49108642 0.48828802 0.49463394 -0.49403167 0.49237165 0.49330217 -0.49202138 -0.49245894
about -0.59495473 0.66461295 -0.54010284 0.57031333 -0.57624835 -0.57625830 -0.59186643 0.64700580 -0.58109140 -0.61518067 0.63736129 -0.57105052 -0.54056442 -0.59556991 0.60160184 -0.59715664 0.55176038 0.60734606 0.62273276 0.53504455 -0.59829170 0.64282912 -0.58855486 -0.59878474 0.56116045 0.72949266 0.53328890 -0.60500896 0.59622133 0.58179420 -0.62104809 -0.59688234
above -0.71487391 0.73439193 -0.46634382 0.52455711 -0.74487042 -0.54557264 -0.59031087 0.79381120 -0.67709595 -0.63595635 0.55912811 -0.53557372 -0.67829138 -0.55482924 0.57395285 -0.79593998 0.58899480 0.63508397 0.19215848 0.64062089 -0.56229913 0.51274240 -0.69181228 -0.49911222 0.51565468 0.74659437 0.50971711 -0.66172171 0.68196392 0.66340691 -0.50768733 -0.63035291
abroad -0.49810418 0.49310067 -0.50143486 0.50608748 -0.50626540 -0.50001830 -0.50460637 0.50548273 -0.50374550 -0.50453115 0.50266653 -0.50677890 -0.51519346 -0.50157291 0.50904375 -0.49646211 0.51132792 0.50148821 0.50887144 0.51240456 -0.50185084 0.53898013 -0.50391072 -0.50322306 0.49595591 0.48703870 0.51000524 -0.50228161 0.50575137 0.50187767 -0.49733254 -0.49971634
absolute -0.50160587 0.49939272 -0.50015575 0.50243658 -0.49877992 -0.50315577 -0.49269691 0.49896008 -0.48978493 -0.48863077 0.49850896 -0.50219321 -0.51408440 -0.50149328 0.48716995 -0.49865416 0.50886655 0.50145471 0.51180273 0.49429873 -0.49468201 0.50390780 -0.50092691 -0.50073463 0.49216899 0.48863906 0.50274968 -0.49091661 0.48723370 0.50736785 -0.49782053 -0.50196731
absolutel -0.42757121 0.39407289 -0.43325311 0.43251652 -0.43040520 -0.43276599 -0.42364436 0.41659874 -0.42960528 -0.41479135 0.42590377 -0.43494782 -0.43704662 -0.43033898 0.43387559 -0.42295098 0.43754554 0.42257804 0.44149411 0.43899918 -0.42520130 0.45281544 -0.42953759 -0.42809713 0.42106897 0.39866090 0.43881211 -0.42860705 0.42578420 0.43303210 -0.41139537 -0.43109408
absolutely -0.68259764 0.69988048 -0.69534951 0.67871052 -0.62377375 -0.67497265 -0.68022352 0.67307794 -0.65844840 -0.66207492 0.63009089 -0.65543604 -0.65707368 -0.65601122 0.62094092 -0.68452090 0.66762191 0.65760863 0.59090030 0.70228714 -0.66647279 0.76850402 -0.65563697 -0.65425509 0.63272399 0.67825103 0.61389214 -0.64823878 0.65135473 0.65142119 -0.69739634 -0.67071009
absolutley -0.44323906 0.42203045 -0.44857576 0.45485288 -0.44483685 -0.44981283 -0.44603470 0.43556270 -0.44171375 -0.43382773 0.44127798 -0.45270550 -0.45878184 -0.44933417 0.44647247 -0.44118276 0.44926950 0.44610128 0.45180392 0.45789066 -0.43444881 0.49335670 -0.44867128 -0.44626802 0.43209094 0.42887595 0.45250273 -0.44432646 0.44110918 0.44496775 -0.43392348 -0.45245171
abstruse -0.51779199 0.51490456 -0.51847941 0.51562911 -0.51482284 -0.51812297 -0.51138729 0.51437920 -0.51478058 -0.51301938 0.51749176 -0.51099098 -0.51550668 -0.51219982 0.51513487 -0.51793355 0.51420480 0.51232183 0.50616062 0.51621789 -0.51353168 0.53825331 -0.51709235 -0.51603651 0.51641035 0.51680535 0.51537466 -0.51912254 0.51550496 0.51655555 -0.51492834 -0.51305670
abysmal -0.50259101 0.49317169 -0.49998742 0.50391662 -0.49635565 -0.49869338 -0.49665675 0.48827866 -0.49773863 -0.49146020 0.49808633 -0.50058275 -0.49917689 -0.49812645 0.50335187 -0.49780315 0.50153697 0.49966040 0.50637567 0.49921402 -0.49498785 0.51636803 -0.49901694 -0.50105119 0.49665666 0.49173975 0.50637341 -0.49790010 0.49588096 0.49785647 -0.49186528 -0.49907497
ac -0.51654822 0.54218888 -0.51724404 0.52285486 -0.51458532 -0.51347792 -0.53350967 0.53749430 -0.51083612 -0.49793950 0.50362641 -0.50275141 -0.53163815 -0.51017618 0.51648575 -0.52875614 0.55764747 0.50225449 0.56508493 0.52213812 -0.51921713 0.58442295 -0.51956302 -0.50704330 0.52655941 0.48295090 0.52156508 -0.50925565 0.52925211 0.50975889 -0.52602106 -0.54350066
academy -0.55302304 0.55828422 -0.55820090 0.54847628 -0.54783827 -0.55114788 -0.54796612 0.54527175 -0.55518192 -0.54709959 0.55246598 -0.54901689 -0.54895437 -0.55077624 0.54450351 -0.55542886 0.53732204 0.55289245 0.54820877 0.55341476 -0.55358040 0.59231591 -0.55247158 -0.54937214 0.55093759 0.56110483 0.54583085 -0.54408735 0.54855120 0.55226797 -0.55485392 -0.54602617
accents -0.47004417 0.47113723 -0.47637373 0.48012462 -0.47267112 -0.47984943 -0.47936472 0.47226942 -0.47836435 -0.47175786 0.47504467 -0.47873542 -0.48452300 -0.47455025 0.48090127 -0.48076600 0.47511414 0.47673699 0.47406891 0.47891265 -0.47662252 0.50419587 -0.48048046 -0.47560218 0.47351384 0.46759796 0.48172322 -0.47463518 0.47696540 0.47917926 -0.47426108 -0.48110268
accept -0.52729577 0.58277082 -0.53203726 0.50518805 -0.52588260 -0.52111340 -0.45283347 0.51726383 -0.52260846 -0.55184716 0.45628944 -0.52506763 -0.53812486 -0.50910574 0.48321512 -0.50939894 0.47507265 0.53056890 0.55065334 0.11716082 -0.47492898 -0.31700042 -0.50926137 -0.51408511 0.53108639 0.59648043 0.44269451 -0.51690876 0.45091444 0.47723857 -0.57327479 -0.45470428
acceptable -0.44308060 0.43128166 -0.44815525 0.44705808 -0.44157991 -0.44397226 -0.44336325 0.43341792 -0.44214872 -0.43673143 0.44121337 -0.44379002 -0.44644040 -0.44621727 0.44709006 -0.44069454 0.44429442 0.43959987 0.44840208 0.44800997 -0.44265071 0.45913705 -0.44208199 -0.44483495 0.44124007 0.42908156 0.44693813 -0.44308975 0.43918914 0.44557512 -0.43972391 -0.44432870
access -0.45288843 0.44591209 -0.45635417 0.46270514 -0.46037436 -0.45776045 -0.45499468 0.45692149 -0.46021307 -0.44877622 0.44988784 -0.45981804 -0.46071428 -0.45291513 0.46209094 -0.46111402 0.46023813 0.45478249 0.45501956 0.46629989 -0.45148334 0.51658392 -0.46118873 -0.44931760 0.45484111 0.45151088 0.45804998 -0.44948363 0.45673063 0.45984823 -0.45037520 -0.45406860
accessable -0.49114457 0.47673848 -0.49074304 0.49654379 -0.49285278 -0.49377719 -0.48441181 0.48966804 -0.49680459 -0.48732400 0.48676857 -0.49074149 -0.49848771 -0.49335766 0.49478555 -0.49320799 0.49224395 0.49342424 0.50279510 0.49144351 -0.48910099 0.52924824 -0.49078941 -0.49217167 0.49079812 0.48330691 0.49679667 -0.49043325 0.48135522 0.48970991 -0.48314723 -0.49262625
accessible -0.12777209 0.31422418 -0.34971929 -0.01809884 -0.10765401 -0.29448158 -0.22924517 0.06124724 -0.19910787 -0.24772091 0.24924009 -0.13380435 -0.16851102 -0.21326470 0.13260604 -0.33707091 0.11431879 0.14347684 0.27804059 0.35708225 -0.18527308 0.61674356 -0.34388039 -0.09229340 0.20961794 0.18201275 0.19492696 -0.17367452 0.24879476 0.20394999 -0.23403075 -0.12937459
accessing -0.57343107 0.59545040 -0.57379961 0.58081365 -0.58155084 -0.56465101 -0.58252174 0.58521527 -0.57267463 -0.59278768 0.57809395 -0.56540328 -0.57339317 -0.57582170 0.58268350 -0.57444251 0.58246237 0.57426959 0.46860853 0.57264638 -0.58091837 -0.46911362 -0.57827628 -0.57519609 0.57213020 0.58194023 0.57591301 -0.57536304 0.58509064 0.58003670 -0.58206254 -0.57719928
accessory -0.45204157 0.43148398 -0.46083254 0.45631340 -0.44642705 -0.45887148 -0.45107102 0.45363367 -0.45608944 -0.44010159 0.44894627 -0.45592272 -0.45414814 -0.45523813 0.45413831 -0.44919851 0.46217993 0.45229045 0.46349007 0.46069634 -0.44991845 0.51196289 -0.45826808 -0.45359313 0.44789565 0.42742598 0.46590900 -0.45532995 0.45722789 0.45881569 -0.44394323 -0.45815024
accessoryone -0.43596748 0.41763750 -0.44545177 0.45107049 -0.44339418 -0.44678989 -0.43725938 0.42080566 -0.43935692 -0.42847580 0.44446033 -0.44436839 -0.44795638 -0.44179937 0.44523436 -0.44003543 0.44582072 0.44057560 0.43565610 0.45842734 -0.43215901 0.47841373 -0.44589654 -0.44615415 0.43849453 0.41904086 0.44386074 -0.44344831 0.44239372 0.45055637 -0.43328983 -0.44127688
accident -0.44486824 0.44346085 -0.44667941 0.46466339 -0.46810579 -0.45970014 -0.47222400 0.45538950 -0.46904796 -0.45635343 0.47046128 -0.46694541 -0.46964905 -0.46598461 0.46773663 -0.46991861 0.47160423 0.46667328 0.46836069 0.47799712 -0.46123710 0.49789336 -0.46820587 -0.46556422 0.45958754 0.44610801 0.46842825 -0.47051695 0.47248217 0.47141176 -0.45566592 -0.47333029
accidentally -0.53867096 0.54088283 -0.53810322 0.54028344 -0.53694141 -0.53289324 -0.51967251 0.53481680 -0.53191257 -0.54126340 0.54065382 -0.52470773 -0.53891677 -0.53958428 0.53690147 -0.52778345 0.53262246 0.53592265 0.55445027 0.51581538 -0.53437525 0.17584965 -0.53830504 -0.53483492 0.53381902 0.53871608 0.54211837 -0.53663492 0.53794843 0.53607708 -0.54383308 -0.53594416
acclaimed -0.17168151 0.35465488 -0.40785408 0.03772201 -0.26371700 -0.39369756 -0.23015131 -0.01872784 -0.10204024 -0.21257041 0.26853532 -0.21555315 -0.29101491 -0.24420983 0.23244846 -0.31894836 0.05801531 0.25053185 0.23121972 0.33339098 -0.19667570 0.34977898 -0.23592615 -0.17688985 0.30801997 -0.04375005 0.13971929 -0.22825202 0.28601557 0.27311510 -0.28968796 -0.32878709
accolades -0.48549286 0.46127295 -0.51129264 0.54104388 -0.53956527 -0.51994878 -0.52435231 0.43770084 -0.56731719 -0.49836472 0.55944633 -0.52061307 -0.51335633 -0.51220447 0.52404541 -0.50174659 0.50551295 0.54651272 0.51454157 0.56415236 -0.52739918 0.26598731 -0.53689831 -0.50455046 0.51861995 0.54235411 0.53714263 -0.54869974 0.51326090 0.54277092 -0.53459603 -0.47794029
accommodations -0.46744055 0.47883761 -0.43575421 0.48013633 -0.46013185 -0.46916166 -0.45644718 0.50499886 -0.42318067 -0.44783881 0.49438483 -0.43698919 -0.45651826 -0.43950647 0.48710603 -0.44078010 0.46150351 0.47203830 0.49444440 0.46302596 -0.47661278 0.39708796 -0.43288359 -0.45062533 0.46566895 0.48180962 0.45956343 -0.44690600 0.46737576 0.46297190 -0.43387568 -0.46950328
accomodate -0.53515363 0.52762973 -0.52577329 0.53396082 -0.54192644 -0.53602862 -0.53105289 0.52763724 -0.53244919 -0.52208781 0.53584838 -0.53656781 -0.53723365 -0.53588736 0.53146666 -0.53765398 0.52602321 0.53236198 0.53514802 0.53752780 -0.53232419 0.54779625 -0.52965075 -0.52695012 0.52965957 0.53444356 0.52575248 -0.53748888 0.54017884 0.52187365 -0.52270323 -0.52932268
accompanied -0.44637781 0.43639305 -0.45154533 0.45343962 -0.45105556 -0.45585170 -0.45046103 0.44219196 -0.44490334 -0.44456491 0.44782361 -0.45296010 -0.44981417 -0.45113432 0.45151851 -0.44975877 0.45084557 0.45155895 0.45480776 0.45330006 -0.44909823 0.48915461 -0.45571220 -0.45278931 0.44961992 0.44121358 0.45350870 -0.44911623 0.45234373 0.45380795 -0.44767812 -0.45390543
according -0.48435017 0.47695357 -0.47944960 0.49154863 -0.47488567 -0.48198211 -0.49717054 0.47439286 -0.46764979 -0.47560152 0.48262614 -0.48313335 -0.48877642 -0.48143563 0.49023497 -0.48393032 0.47618648 0.48365003 0.49250153 0.47948033 -0.48685548 0.47851333 -0.48248038 -0.48030162 0.49139461 0.46906257 0.47901839 -0.48339441 0.49108914 0.46863997 -0.47963569 -0.48333329
accordingly -0.49719808 0.49501279 -0.49480999 0.49671319 -0.48317975 -0.48603150 -0.49383160 0.48989937 -0.48631442 -0.48915741 0.48863044 -0.49138692 -0.49161997 -0.49996644 0.48379987 -0.48979542 0.49461690 0.49507701 0.49575993 0.49524501 -0.48459357 0.48638853 -0.49161303 -0.49538195 0.49397546 0.48289666 0.49522591 -0.49319029 0.48535788 0.48401433 -0.49093252 -0.49155998
accountant -0.41038021 0.37293646 -0.41090611 0.41504508 -0.41717175 -0.41713908 -0.41517532 0.39970782 -0.40865010 -0.39594182 0.40890068 -0.41530237 -0.42927459 -0.41845849 0.42621252 -0.41634056 0.41614419 0.41568860 0.42063156 0.43084401 -0.41152459 0.32823861 -0.42133209 -0.41275689 0.41567835 0.39427525 0.41844454 -0.40960112 0.41226441 0.40260464 -0.39408869 -0.40958107
accurate -0.50113541 0.48640427 -0.47757310 0.50841337 -0.49546725 -0.49828747 -0.50847572 0.50173211 -0.49321935 -0.48425099 0.50218606 -0.50561839 -0.49352649 -0.49648678 0.50362509 -0.50341707 0.49702948 0.49858975 0.48889935 0.50149715 -0.49726269 0.47927350 -0.50207788 -0.49962372 0.49976021 0.48612911 0.49987856 -0.49987707 0.49828419 0.49949282 -0.49090257 -0.50387788
accurately -0.04400515 0.22631095 -0.03268318 0.01445066 -0.26260763 0.16247408 -0.11768746 0.27184051 -0.08769717 -0.21303661 0.06828927 -0.18846960 -0.00381279 0.00099095 0.05853910 -0.24191685 0.40906915 -0.00248472 0.46434456 0.02043257 -0.06722677 0.00482153 -0.25417507 0.06956329 0.19598852 0.38246506 0.06203884 0.08260789 0.20343670 0.11109237 -0.18861945 -0.24520773
accused -0.53277719 0.52222943 -0.52848893 0.53289318 -0.53301525 -0.52908844 -0.52682751 0.53327060 -0.53445214 -0.52267885 0.53120929 -0.53210008 -0.52700740 -0.52558553 0.53514534 -0.52858698 0.53492653 0.52741951 0.53811103 0.53364176 -0.52629018 0.56775957 -0.53482533 -0.52988726 0.52567917 0.52266377 0.53416586 -0.52755380 0.52853549 0.53747040 -0.52727562 -0.52860594
ache -0.49606112 0.52591848 -0.51758772 0.51177746 -0.51827168 -0.50242251 -0.51582402 0.51897675 -0.51165640 -0.51640111 0.49954090 -0.52100617 -0.50793862 -0.50693810 0.51571339 -0.51802886 0.51502484 0.51204383 0.50920296 0.52592093 -0.51513350 0.56379080 -0.52063042 -0.50931382 0.50457281 0.52365565 0.51985329 -0.51315355 0.51750296 0.52451015 -0.50647742 -0.50798935
achievement -0.50533295 0.50650090 -0.49952859 0.51046211 -0.51591462 -0.51029325 -0.49287575 0.52698386 -0.51463848 -0.51508629 0.52584344 -0.51741183 -0.51068747 -0.51450855 0.50277764 -0.50663924 0.51189810 0.50114465 0.52375370 0.52100301 -0.51611274 0.56083804 -0.51253217 -0.51556778 0.51197273 0.51705503 0.52228087 -0.51254725 0.50665647 0.51663566 -0.51547474 -0.50803000
achille -0.46788555 0.46458620 -0.46835154 0.47500905 -0.47427970 -0.46489191 -0.47001827 0.46863407 -0.47750914 -0.46515235 0.47137988 -0.47412032 -0.47352415 -0.46940857 0.47495309 -0.47729903 0.47280326 0.47262383 0.49018690 0.47826248 -0.46859041 0.52508438 -0.47317702 -0.47433326 0.47019467 0.45821339 0.47524172 -0.47342861 0.47491804 0.47636166 -0.46610716 -0.47169057
ackerman -0.11344912 0.07840474 -0.13153939 0.21392351 -0.06760265 0.04135667 -0.24821362 0.36117175 -0.17237765 -0.13926373 0.28894231 -0.06048543 -0.28107890 -0.06082155 0.01409758 -0.11817545 0.21849251 0.08828057 0.42621627 0.35862505 -0.18295342 0.71877229 -0.17146516 -0.03676668 0.08219375 0.10016975 0.22793408 -0.19920781 0.27225959 0.12059152 -0.11740869 -0.13815334
acknowledged -0.51602823 0.52894527 -0.54346681 0.54107493 -0.52378881 -0.52020675 -0.53280509 0.51648504 -0.53899854 -0.52600753 0.53451461 -0.52873570 -0.53965747 -0.53994840 0.52915347 -0.53473002 0.53135979 0.52197313 0.53529149 0.53243673 -0.53066069 0.53870034 -0.52573794 -0.53036118 0.53468376 0.51406991 0.53124791 -0.54055983 0.49210325 0.53637761 -0.52990228 -0.53119558
across -0.43844888 0.42237204 -0.44488907 0.44294512 -0.43535605 -0.44190598 -0.42978278 0.41893449 -0.43377206 -0.42644918 0.43062201 -0.43790647 -0.43852746 -0.43754503 0.43988636 -0.43072420 0.42857173 0.43062404 0.44522497 0.44264302 -0.42465791 0.49706790 -0.44260818 -0.43447113 0.43065080 0.40838167 0.44230184 -0.43030313 0.43022174 0.43393397 -0.42985511 -0.43154693
act -0.44405994 0.42832354 -0.44636720 0.44642422 -0.45056811 -0.45020881 -0.43100011 0.44401330 -0.44736537 -0.43393463 0.44277793 -0.44882917 -0.44920486 -0.44642037 0.44888502 -0.45094639 0.45126593 0.44303080 0.46476954 0.43271127 -0.44588241 0.45913342 -0.45325825 -0.44721878 0.44240078 0.42391145 0.45408106 -0.44299483 0.44835860 0.45090199 -0.43904179 -0.44898695
acted -0.52523124 0.51664525 -0.52148467 0.51143491 -0.51064807 -0.52676088 -0.52154392 0.51296020 -0.51686490 -0.51214677 0.51569188 -0.52407694 -0.52254570 -0.52112341 0.52398825 -0.51019144 0.52567261 0.52090579 0.52610618 0.52367735 -0.51643032 0.55442822 -0.52148098 -0.52581447 0.51889992 0.50718766 0.52567929 -0.52275509 0.52206045 0.52168161 -0.52134687 -0.52041638
acting -0.46187672 0.46774942 -0.46584231 0.46359894 -0.46180925 -0.46714929 -0.46642852 0.46469554 -0.47022322 -0.44993305 0.46453723 -0.45554075 -0.45847666 -0.46229827 0.46103477 -0.46854302 0.46106648 0.45729548 0.44787779 0.47124040 -0.45894605 0.57801461 -0.46055612 -0.46147373 0.46145877 0.46289635 0.45679948 -0.45908454 0.45869163 0.46490395 -0.46435478 -0.46139672
action -0.54864842 0.57288319 -0.54820138 0.54969037 -0.54611236 -0.54683340 -0.54466891 0.55775797 -0.54906875 -0.55386841 0.55296016 -0.54378915 -0.54799122 -0.55269605 0.54766107 -0.55390060 0.54895937 0.55356395 0.52288705 0.54319727 -0.54989982 0.36797583 -0.55447745 -0.55092502 0.55207527 0.56360245 0.55005205 -0.54425091 0.54844159 0.54624969 -0.56145966 -0.55115092
actions -0.55106390 0.54308176 -0.51755947 0.54364014 -0.52274197 -0.53747433 -0.53988725 0.55117273 -0.54002565 -0.53276241 0.53987330 -0.54685372 -0.52910614 -0.54664701 0.55071115 -0.53357321 0.55079597 0.53479689 0.57246518 0.52050120 -0.53509384 0.56620741 -0.53241104 -0.55089635 0.53287297 0.49645790 0.54488015 -0.54837388 0.54368848 0.53795189 -0.52094823 -0.52670842
activate -0.46954766 0.47397369 -0.47464323 0.46856105 -0.47381651 -0.47214845 -0.46540567 0.46490201 -0.47346729 -0.47027680 0.47124168 -0.46907270 -0.47576687 -0.46832782 0.47680804 -0.47634694 0.47702986 0.47196320 0.45637929 0.46479174 -0.46523964 0.42581213 -0.46743533 -0.46691918 0.47019461 0.46685526 0.47605765 -0.47263610 0.47654182 0.47801295 -0.47635528 -0.46531296
activated -0.45988843 0.46741629 -0.41683698 0.45668191 -0.46862328 -0.45401019 -0.50048745 0.46915945 -0.45269430 -0.44992730 0.46040776 -0.48144877 -0.45102119 -0.45990020 0.49064183 -0.43299964 0.47312766 0.46686119 0.49450076 0.44750446 -0.48513865 -0.17636904 -0.44834974 -0.46809757 0.48264521 0.45650539 0.46493593 -0.46753815 0.46679035 0.45442507 -0.46215272 -0.47249168
activesync -0.51411641 0.51461732 -0.52415425 0.52485985 -0.52356893 -0.52200180 -0.50185549 0.51594639 -0.52293569 -0.50911325 0.51753956 -0.51614016 -0.51996118 -0.51965505 0.52313685 -0.52191275 0.52080637 0.51703274 0.52801192 0.52110553 -0.51684022 0.46030933 -0.51894373 -0.51190180 0.51694262 0.50580549 0.51589638 -0.51921749 0.51769555 0.51984954 -0.51066285 -0.51842684
actor -0.45314306 0.46924382 -0.46449691 0.46262464 -0.45684022 -0.45840728 -0.46678683 0.46581507 -0.46327272 -0.45983979 0.46361560 -0.45796919 -0.45869678 -0.44781023 0.45859963 -0.45760143 0.45976362 0.45522654 0.46752211 0.46704626 -0.45821247 0.47734797 -0.46291411 -0.45870990 0.46187538 0.48284346 0.45673409 -0.45006305 0.45827800 0.46145341 -0.47070107 -0.46080539
actors -0.40317017 0.41781524 -0.39355332 0.40205580 -0.39916098 -0.40442279 -0.40973389 0.41751519 -0.40674779 -0.39928573 0.41050592 -0.39589715 -0.39956304 -0.40484276 0.39263991 -0.39405087 0.40915450 0.40227702 0.41983768 0.41034806 -0.41049260 0.44512221 -0.39640713 -0.39919505 0.40726870 0.41163632 0.41002703 -0.39813372 0.40211934 0.39938173 -0.41446933 -0.39590293
actress -0.47140020 0.43948925 -0.43513656 0.46495801 -0.47600958 -0.47595572 -0.45255554 0.47618973 -0.46629846 -0.45452353 0.46757230 -0.46717036 -0.44732353 -0.46124902 0.46425882 -0.46254280 0.46937913 0.45925438 0.46782941 0.43540153 -0.46198311 0.58537096 -0.47019759 -0.45659199 0.46223500 0.49045384 0.45238948 -0.45935336 0.45098335 0.47014934 -0.44802338 -0.45342028
actresses -0.47973350 0.49904129 -0.45673850 0.47314116 -0.49474913 -0.48479763 -0.46341679 0.47077376 -0.46040487 -0.46005514 0.48140082 -0.49035782 -0.46645883 -0.45935377 0.45756286 -0.49774271 0.46487325 0.46891275 0.39800006 0.49430156 -0.50288075 0.31793648 -0.45699999 -0.48678964 0.49614149 0.50809526 0.48956737 -0.46703827 0.49462858 0.50310808 -0.47598878 -0.48469096
actual -0.44243386 0.41678303 -0.42999581 0.45000222 -0.44650224 -0.44334939 -0.43184856 0.43311504 -0.45022288 -0.43620238 0.44245112 -0.44603285 -0.43530881 -0.43892133 0.44105506 -0.44681984 0.43619722 0.43119881 0.42717496 0.43985948 -0.43891221 0.44338489 -0.43909883 -0.44176027 0.44384751 0.42723027 0.43847728 -0.44722861 0.43883848 0.45245677 -0.42893746 -0.44127074
actually -0.63522649 0.62579632 -0.64327705 0.63149476 -0.64226401 -0.65408218 -0.63040167 0.63687855 -0.65670592 -0.64558029 0.62844849 -0.63656920 -0.61291468 -0.65473062 0.62939680 -0.63463503 0.61668247 0.62278545 0.65272796 0.62997025 -0.63013643 0.69582689 -0.63352054 -0.63151497 0.63671702 0.67359185 0.63722175 -0.65065783 0.62063634 0.62821490 -0.63892823 -0.65330952
ad -0.42874315 0.42589575 -0.43258446 0.44154796 -0.43417716 -0.43639737 -0.42914006 0.42798984 -0.43003878 -0.42422399 0.43149242 -0.43493736 -0.43731421 -0.43546629 0.43654090 -0.43395188 0.43881667 0.42999688 0.43239143 0.43667626 -0.42975986 0.46118018 -0.43768847 -0.43532825 0.43015972 0.42268798 0.43865800 -0.43315977 0.43508577 0.43772638 -0.43291429 -0.43817618
adams -0.40586388 0.54074293 -0.43191072 0.43433499 -0.45204887 -0.27733025 -0.38148919 0.43278447 -0.43726465 -0.39106432 0.44087505 -0.32751787 -0.33990937 -0.33491495 0.42020339 -0.51864088 0.36437795 0.36669150 0.55310053 0.42135623 -0.39770621 0.61603802 -0.45574984 -0.41883385 0.40419954 0.52150834 0.43867284 -0.35448158 0.31360456 0.43382254 -0.48687884 -0.42738545
adaptation -0.37579358 0.57891411 -0.55704319 0.44202444 -0.51624393 -0.55919766 -0.52265090 0.52315623 -0.51957619 -0.46291882 0.51071411 -0.36227834 -0.36798617 -0.49514318 0.52926695 -0.53257549 0.43848288 0.46725532 0.08894160 0.54216599 -0.48765469 0.65273267 -0.28169212 -0.48770678 0.54426008 0.55372107 0.41368622 -0.45749775 0.47077149 0.53276646 -0.50438565 -0.49896604
adapter -0.47420993 0.46022204 -0.47825268 0.47752953 -0.47552869 -0.47423142 -0.47191015 0.47033638 -0.47246966 -0.46943688 0.47228265 -0.47520626 -0.47603545 -0.47401023 0.47890481 -0.46765065 0.48369515 0.47244695 0.48595035 0.48096699 -0.47211519 0.50270480 -0.47453946 -0.47373611 0.47289866 0.45711830 0.48238167 -0.47500134 0.47543144 0.47453234 -0.46787220 -0.47666773
adapters -0.48240396 0.46654013 -0.48893520 0.48221317 -0.48653558 -0.48825011 -0.48559645 0.47237852 -0.49061495 -0.47263670 0.47990850 -0.48117667 -0.48868698 -0.48109752 0.49534672 -0.48065776 0.47017479 0.48163238 0.43567127 0.48194101 -0.48168004 0.45362902 -0.48500937 -0.48905200 0.48769131 0.48283508 0.47273791 -0.48071426 0.48498416 0.48688382 -0.47741261 -0.48179635
add -0.55737203 0.57598609 -0.56935215 0.58183247 -0.59550333 -0.58996898 -0.58392060 0.57466942 -0.59349930 -0.57948798 0.58440810 -0.59479076 -0.58657223 -0.57694548 0.58890402 -0.59220850 0.58511013 0.58919603 0.57802784 0.58261234 -0.58569014 0.61030042 -0.58704746 -0.58655095 0.58589643 0.57130164 0.58824438 -0.58987510 0.58904970 0.58682525 -0.57609814 -0.58630288
added -0.65497118 0.68993396 -0.58546662 0.61984217 -0.63655287 -0.58171010 -0.53141975 0.61779463 -0.59479052 -0.62687427 0.62973452 -0.59594327 -0.59928972 -0.59581494 0.63390833 -0.62218457 0.62118495 0.61223400 0.62608910 0.56414932 -0.63549894 -0.16707847 -0.63401783 -0.56672287 0.62471962 0.69194734 0.64393699 -0.62158430 0.61335719 0.61616594 -0.59262377 -0.59478033
addition -0.58937126 0.56546730 -0.58210391 0.57124418 -0.58000493 -0.58082277 -0.57855022 0.57952499 -0.57655543 -0.57335061 0.57532263 -0.58423114 -0.57964122 -0.57616419 0.58247364 -0.57200056 0.59330195 0.56911004 0.60324496 0.58484924 -0.57284629 0.65154791 -0.58194923 -0.57998681 0.57311386 0.55519110 0.58578646 -0.57377660 0.58249456 0.58242637 -0.57518679 -0.57527220
additional -0.56686002 0.57485014 -0.57288986 0.56283033 -0.56150109 -0.57474196 -0.57155597 0.57527024 -0.56937176 -0.56615520 0.56266266 -0.56234145 -0.56855333 -0.56936538 0.56653214 -0.56846416 0.56706750 0.56980008 0.56153363 0.56226176 -0.56260782 0.59189558 -0.57133484 -0.56430846 0.56550056 0.57242590 0.56198972 -0.55945051 0.56829405 0.56463146 -0.56977075 -0.57213086
address -0.44732898 0.44460636 -0.45103693 0.45593902 -0.45326465 -0.45011833 -0.44193000 0.45186868 -0.45229506 -0.44835779 0.45172784 -0.45349172 -0.45937863 -0.45353356 0.45863774 -0.45592409 0.45483872 0.45303860 0.41168973 0.45525238 -0.45085010 0.40290338 -0.46121490 -0.45062998 0.45014387 0.44343686 0.45296416 -0.44932210 0.45544028 0.45130169 -0.44377968 -0.45349324
adhesive -0.43261763 0.42241463 -0.43208787 0.43569997 -0.43187106 -0.43544537 -0.42661583 0.41802222 -0.43237260 -0.42603114 0.43319237 -0.42955846 -0.43523356 -0.43058008 0.43485144 -0.43695450 0.43247661 0.42982349 0.44107962 0.43272448 -0.42664149 0.46252635 -0.43157291 -0.43578869 0.42747167 0.42484415 0.43312794 -0.43107155 0.42933139 0.43396303 -0.42363000 -0.43147439
admins -0.51792860 0.51534134 -0.51905292 0.52593046 -0.52102238 -0.52020824 -0.51205313 0.52133077 -0.52016664 -0.51494521 0.52190661 -0.51634490 -0.52477431 -0.51929337 0.52266395 -0.52177072 0.52102447 0.52189291 0.51017797 0.52390510 -0.51504207 0.55434704 -0.52114666 -0.52086037 0.51634890 0.51479518 0.52090448 -0.51687944 0.52001154 0.52077734 -0.51838493 -0.51996267
admiration -0.56330860 0.56174952 -0.56650859 0.58065903 -0.56872112 -0.57773674 -0.57678872 0.58723456 -0.57338417 -0.55045414 0.56360978 -0.56808591 -0.57354039 -0.57067466 0.56849009 -0.59253865 0.57050031 0.56986612 0.49634227 0.56134123 -0.56077576 0.58721370 -0.56481183 -0.56334084 0.57727408 0.55568743 0.55692762 -0.56349897 0.56887096 0.57153910 -0.56696534 -0.58204460
admitted -0.48271263 0.47670782 -0.48499557 0.48772761 -0.48424587 -0.48300958 -0.47036472 0.48062941 -0.48474336 -0.48159331 0.48408949 -0.47981265 -0.48555687 -0.48180279 0.48315701 -0.48549181 0.48389798 0.48542121 0.47556940 0.48076272 -0.48209968 0.48284146 -0.48662424 -0.48360524 0.48013845 0.47847578 0.48653033 -0.48393917 0.48406482 0.48601267 -0.47398078 -0.48309162
adorable -0.70425713 0.72244614 -0.69262916 0.69123662 -0.70531923 -0.71263945 -0.69741684 0.66950077 -0.66859168 -0.68534780 0.68506587 -0.70271415 -0.68739736 -0.69991851 0.67669940 -0.69097388 0.69783580 0.69071412 0.66422373 0.70824736 -0.69475526 0.72710919 -0.70609373 -0.70423508 0.70143241 0.69982034 0.70164776 -0.69819403 0.69028580 0.71274388 -0.70869845 -0.69985980
adrift -0.54336119 0.56771791 -0.49080417 0.55010027 -0.55005753 -0.54000354 -0.51805347 0.52522337 -0.51854712 -0.51829350 0.54704535 -0.52133745 -0.53089005 -0.51314712 0.50313044 -0.54180545 0.53441149 0.54239905 0.48068410 0.54989952 -0.53607112 0.45260447 -0.52619505 -0.54213160 0.51178676 0.56779170 0.51481479 -0.53236026 0.53278071 0.54131323 -0.54908037 -0.53794420
adventure -0.46909121 0.50039053 -0.48818532 0.48004708 -0.47355247 -0.48786998 -0.50532186 0.46337780 -0.46863374 -0.47750562 0.46072277 -0.48301598 -0.48963678 -0.48848885 0.48107091 -0.49685389 0.46957353 0.47519779 0.50862342 0.50821185 -0.47246498 0.55935538 -0.48506635 -0.48407477 0.48131201 0.47837895 0.48938471 -0.47177222 0.48156855 0.49249870 -0.50316525 -0.48507410
advertised -0.46514457 0.53072411 -0.48625773 0.49604505 -0.48959431 -0.49453101 -0.46958604 0.49744317 -0.49632058 -0.51799709 0.46848109 -0.46836641 -0.50258583 -0.47035119 0.45165604 -0.48913375 0.44755408 0.49966675 0.49793285 0.49720883 -0.48608750 0.63683414 -0.48574692 -0.49690592 0.46676493 0.52117729 0.45257834 -0.47396722 0.46964821 0.46721286 -0.48120186 -0.47002029
advise -0.55904090 0.50989568 -0.57479441 0.56629288 -0.56763673 -0.56884658 -0.55762613 0.55055350 -0.56591362 -0.53988433 0.55065042 -0.56848747 -0.57556516 -0.55531341 0.57682186 -0.56546694 0.57417917 0.55856174 0.58235025 0.56964988 -0.55477738 0.67564058 -0.56781423 -0.56708181 0.55777347 0.52213591 0.57389945 -0.55823255 0.55995131 0.56295168 -0.54110116 -0.56413090
aerial -0.19407965 0.24470419 -0.16090871 0.31247848 -0.13926069 -0.26955643 -0.24824883 0.26959091 -0.20788141 -0.11157726 0.26008296 -0.20522211 -0.08982345 -0.26122630 0.26298288 -0.28409833 0.14245525 0.20561822 -0.20549145 0.38583374 -0.24157883 -0.36208782 -0.18668999 -0.23805250 0.27347407 0.38720012 0.25093859 -0.25102568 0.18225139 0.17517246 -0.16359268 -0.27654409
aesthetically -0.51782072 0.49151716 -0.51131380 0.51903594 -0.51938307 -0.51766676 -0.49934417 0.52300245 -0.52099937 -0.51736832 0.52085733 -0.52318275 -0.50922948 -0.51687127 0.51789594 -0.51391405 0.52477932 0.51708859 0.52769649 0.52179933 -0.51487797 0.56117678 -0.50735003 -0.51883185 0.51707447 0.50964779 0.52693284 -0.52033949 0.52326554 0.51826221 -0.50629699 -0.52257109
affected -0.53049976 0.52904439 -0.51887268 0.54384464 -0.54415548 -0.52565473 -0.52843392 0.54681069 -0.55182087 -0.54440075 0.54915810 -0.54799610 -0.54242122 -0.54075909 0.54777700 -0.53612113 0.54857975 0.54774630 0.55526721 0.52958322 -0.53867728 0.52800721 -0.52839190 -0.55344236 0.55304879 0.54450423 0.54852819 -0.54672205 0.54197335 0.54834443 -0.54331231 -0.52749473
affleck 0.11055476 -0.04702916 0.02286265 0.00555074 0.06276414 -0.03873400 -0.11952410 -0.01122762 0.02508048 0.04720666 0.07877079 0.02715448 0.02729648 0.01810370 -0.01420778 0.03265604 0.01866011 -0.05540461 -0.13724385 0.14129500 0.03721964 0.23829891 0.04336118 -0.02489978 -0.01556046 0.03959730 0.00214068 -0.00909333 0.03417952 0.06063814 0.02113893 0.02317444
affordable 0.05805225 0.08231343 0.07132617 0.02809279 0.07657176 -0.00910324 -0.14883511 0.08738365 0.02228065 0.10766571 -0.01054588 0.06101653 -0.01306439 -0.03936755 -0.08014683 -0.04930832 -0.01488300 0.02757083 0.12476397 0.03139943 0.03831428 0.63094664 -0.08060075 0.09746116 -0.11541998 -0.01135408 -0.04994660 0.00730560 0.04035269 -0.05055760 0.00463743 0.01555388
afraid -0.50224721 0.49336207 -0.50785398 0.50434768 -0.50057310 -0.50494790 -0.47107428 0.50193542 -0.50321811 -0.49849102 0.49804702 -0.50461763 -0.49803624 -0.50407422 0.50555766 -0.50551224 0.50217485 0.50168568 0.50568408 0.46461084 -0.50140560 0.24101846 -0.49737203 -0.50385922 0.50286585 0.49754003 0.50433409 -0.50308818 0.49596679 0.50420743 -0.49728253 -0.50514221
africa -0.32297441 0.41734943 -0.48689294 0.47136277 -0.35080069 -0.39219868 -0.37538928 0.39609542 -0.50373513 -0.37954509 0.44012126 -0.44015452 -0.31695825 -0.27498087 0.22224626 -0.45653549 0.14593656 0.28287330 0.45606881 0.37841910 -0.39161396 0.67953724 -0.38921630 -0.24753895 0.39211917 0.11962466 0.15193476 -0.24875782 0.43896702 0.40786266 -0.42999071 -0.31810728
after -0.69010037 0.72270238 -0.70622307 0.67632145 -0.67474502 -0.67961800 -0.68122274 0.70270443 -0.68328840 -0.70179683 0.68852562 -0.66667098 -0.67599016 -0.68310267 0.67876953 -0.69037992 0.67372727 0.68928093 0.70584470 0.67436755 -0.68543750 0.75577235 -0.68541491 -0.68572432 0.69292808 0.72527575 0.67769074 -0.68360746 0.67194623 0.66169041 -0.70706099 -0.67275178
afternoon -0.57532084 0.54588646 -0.57656145 0.58717299 -0.57488734 -0.57234919 -0.56170183 0.56850612 -0.57079810 -0.55001932 0.56852835 -0.58139765 -0.58383012 -0.56662536 0.57851976 -0.57624555 0.57368702 0.56179237 0.53544283 0.58354950 -0.57035762 0.47981209 -0.58074653 -0.56875277 0.56014132 0.53431171 0.58155334 -0.57301128 0.56570953 0.58044350 -0.55686367 -0.57768327
again -0.66493493 0.64422166 -0.66567820 0.66526657 -0.65584558 -0.66770178 -0.66512555 0.65618038 -0.65606606 -0.65004033 0.65648520 -0.66422755 -0.66825640 -0.65928680 0.67273962 -0.64818442 0.67209458 0.65925944 0.68958730 0.67205578 -0.65576035 0.75701815 -0.66864610 -0.66397190 0.65454012 0.62155068 0.67446280 -0.65693343 0.66812950 0.66823250 -0.64768934 -0.66891801
against -0.64377475 0.71081507 -0.63857436 0.49590939 -0.62521768 -0.67158431 -0.57001561 0.43999684 -0.53267705 -0.70802432 0.69018543 -0.65206712 -0.58137345 -0.63677990 0.66064280 -0.48828900 0.58932555 0.67992496 0.38938057 0.42056414 -0.58892095 -0.30066621 -0.42457715 -0.65049994 0.71849328 0.63134986 0.63921720 -0.55837250 0.54409778 0.58749920 -0.72379994 -0.58942711
age -0.50406033 0.49742225 -0.50170219 0.50515705 -0.50192958 -0.50218666 -0.50184220 0.50142050 -0.50482464 -0.49916437 0.50320739 -0.49884388 -0.50521928 -0.50054437 0.50063628 -0.50483966 0.50248551 0.50161028 0.50471812 0.50619572 -0.49987936 0.55017960 -0.50412214 -0.50226861 0.49734011 0.50261116 0.50319648 -0.49958161 0.49919784 0.50156677 -0.49604076 -0.50175703
aged 0.26062402 -0.31561112 0.02264548 0.06527899 -0.00354808 -0.21306498 -0.06273420 -0.01094547 -0.29986945 0.10882910 -0.07196187 0.05041271 0.20302349 0.01410911 -0.01149080 -0.11232943 -0.08514877 0.00284910 -0.02179639 0.14078355 -0.11406025 0.66538054 0.08282559 -0.02056568 0.13424365 -0.29349300 0.14299901 0.07293835 0.04764068 0.06672142 0.20910572 -0.13262543
ages -0.50954127 0.52482820 -0.57470316 0.55608845 -0.54091853 -0.53427541 -0.55343527 0.53528637 -0.55280662 -0.55109978 0.54400355 -0.53180307 -0.55694818 -0.53152913 0.53869808 -0.56935847 0.54464322 0.53875965 0.45698184 0.54601938 -0.54997796 0.56724346 -0.53535378 -0.52186173 0.54758018 0.54957306 0.51252598 -0.50782615 0.53573167 0.52659166 -0.54542565 -0.55211902
aggravating -0.39967716 0.39348432 -0.40046960 0.40404996 -0.39701721 -0.40103880 -0.39887175 0.38784388 -0.39609328 -0.38900843 0.39597577 -0.40267190 -0.40168646 -0.39780191 0.40263665 -0.39704511 0.40041810 0.39771160 0.40419734 0.40364262 -0.39666128 0.44777882 -0.40280288 -0.40067011 0.39554587 0.37918425 0.39904696 -0.39571798 0.39629671 0.40047774 -0.39949232 -0.40140897
ago -0.36889231 0.39010757 -0.41195971 0.38335711 -0.36226803 -0.39070487 -0.39195833 0.39466453 -0.37386844 -0.36368880 0.38234988 -0.39157510 -0.40165213 -0.39056730 0.38964984 -0.41381747 0.40599215 0.39408055 0.38537592 0.38170308 -0.41098553 0.40283999 -0.40604606 -0.40195274 0.38764027 0.43218291 0.38786590 -0.40853643 0.37271565 0.40332112 -0.38777995 -0.37671551
agree -0.43527713 0.42353866 -0.43832341 0.43832159 -0.43420589 -0.44122136 -0.43330163 0.43068913 -0.43350971 -0.42968255 0.43716809 -0.43705624 -0.44149378 -0.43616059 0.43751508 -0.43947965 0.43782383 0.43330434 0.43950936 0.44410849 -0.43028131 0.48642430 -0.44081423 -0.43434516 0.43041739 0.42571545 0.44210771 -0.43333691 0.43450278 0.43854794 -0.43076637 -0.43475664
agreed -0.45144579 0.43789536 -0.45397726 0.45314637 -0.45172334 -0.45912486 -0.45976442 0.44719940 -0.45016375 -0.44317496 0.44788033 -0.44825324 -0.45505768 -0.45097786 0.45441628 -0.45251682 0.45495042 0.44495603 0.46408287 0.45770022 -0.45144394 0.24327019 -0.46034631 -0.44951633 0.44783941 0.43135187 0.45202741 -0.45043474 0.45410323 0.45579275 -0.44786096 -0.44862995
ahead -0.48114505 0.43062702 -0.45352322 0.46338990 -0.43656120 -0.44244480 -0.50090820 0.52082449 -0.49015608 -0.44112182 0.48925900 -0.42269298 -0.43338546 -0.48985985 0.41329002 -0.47935072 0.49640957 0.44508567 0.50494510 0.43628258 -0.46901378 0.57282317 -0.38756126 -0.49234852 0.49047714 0.45969030 0.44230828 -0.45808119 0.48407975 0.41475010 -0.48665878 -0.46829656
aimless -0.53524965 0.54832429 -0.50368762 0.54128677 -0.48199761 -0.52939552 -0.51865810 0.54808533 -0.49226677 -0.50076544 0.50594854 -0.47772020 -0.44607571 -0.46728364 0.50025523 -0.54585075 0.52229548 0.51361185 0.53800011 0.51803195 -0.47229835 0.55401552 -0.51959789 -0.51647478 0.47707653 0.54152113 0.50882018 -0.49105424 0.51304245 0.50305641 -0.52891684 -0.52064121
air -0.53049880 0.59151465 -0.52221173 0.56370306 -0.56618863 -0.55959207 -0.56124121 0.58472043 -0.56501949 -0.57914758 0.55135924 -0.56521523 -0.55123782 -0.55289674 0.56887960 -0.56744123 0.56967461 0.55687851 0.55747914 0.52109694 -0.55969483 0.40109220 -0.55131239 -0.56314558 0.57112324 0.59134841 0.56757337 -0.56612039 0.55860937 0.56677806 -0.56607252 -0.56636935
aired -0.53749055 0.53651083 -0.52330714 0.53549111 -0.53722733 -0.53364015 -0.53599334 0.53538656 -0.53486997 -0.53046644 0.53547019 -0.53246582 -0.53571236 -0.53632432 0.53293300 -0.53097665 0.52923530 0.53755575 0.47300518 0.53953296 -0.53831989 0.04657637 -0.52999765 -0.53526706 0.53135157 0.53919411 0.53384703 -0.53298795 0.53286600 0.53533906 -0.53804404 -0.53119004
airline -0.38692081 0.31661391 -0.10943998 0.19747548 -0.35472667 -0.14912213 -0.32661587 -0.08817054 -0.46773484 -0.46988162 0.25974223 -0.18395652 -0.51684904 -0.27922502 0.04632969 -0.00726800 -0.02663703 0.33542553 0.24602507 0.03535802 -0.29845762 -0.34354207 -0.16563965 -0.14771280 0.15855180 0.40810192 0.14948650 -0.14191240 -0.03469267 0.11673381 -0.13485347 0.03391781
airport -0.44867554 0.44260457 -0.44856721 0.44657561 -0.46804842 -0.45382854 -0.44744286 0.44408718 -0.44899261 -0.45153072 0.45764893 -0.45453647 -0.45546442 -0.44800115 0.46589229 -0.45077774 0.45354337 0.45631468 0.42258924 0.43948656 -0.44737178 0.37243599 -0.45285967 -0.44911537 0.46556073 0.45221058 0.45259774 -0.45063490 0.46275038 0.45888111 -0.44186878 -0.44607532
akasha -0.51735854 0.58433080 -0.50035441 0.43742785 -0.48671281 -0.46183929 -0.52558148 0.57721049 -0.52048546 -0.53149486 0.55596840 -0.42794424 -0.44893542 -0.49866298 0.51280051 -0.53925204 0.53222007 0.48251823 0.50151646 0.49660772 -0.50276792 0.55064678 -0.51434904 -0.47186986 0.53965527 0.58656329 0.46082491 -0.51638329 0.53941983 0.46104544 -0.52953517 -0.51754844
akin -0.48588598 0.49716660 -0.49619138 0.48823637 -0.48666826 -0.49014133 -0.47999430 0.47738746 -0.48950905 -0.49215153 0.48188123 -0.48231477 -0.49414125 -0.48769364 0.48348370 -0.48487836 0.48614302 0.48483050 0.48288092 0.49022853 -0.48351565 0.51493359 -0.49457017 -0.48449862 0.48240766 0.48252317 0.48607332 -0.48752537 0.48570448 0.48959467 -0.48900759 -0.48281398
al -0.49589714 -0.20027034 -0.52581221 0.50273329 -0.47597262 -0.47885171 -0.51841074 0.45927417 -0.51217473 -0.15509458 0.46895081 -0.50666344 -0.47804502 -0.49631789 0.50117022 -0.53350848 0.50265038 0.51232648 0.46401471 0.48729351 -0.52294648 0.56887430 -0.49668512 -0.49892533 0.51025295 0.36423844 0.50508577 -0.49955180 0.49271512 0.49948958 -0.50888205 -0.47536787
ala -0.50622785 0.51285529 -0.51476312 0.50500536 -0.50629497 -0.51682091 -0.51237667 0.50297946 -0.51025683 -0.51552373 0.49625170 -0.51793373 -0.51189691 -0.51985347 0.50553429 -0.51409417 0.51704615 0.51473713 0.50809544 0.51329374 -0.50683022 0.56305337 -0.51820123 -0.50670493 0.50251436 0.50342339 0.49762926 -0.50547123 0.50378567 0.51586175 -0.51151252 -0.51371014
alarm -0.02472213 0.06038982 -0.00311441 0.08997203 -0.06595974 -0.09057147 -0.05636666 -0.04974066 -0.01761429 -0.09030867 0.05766071 -0.03421566 0.00876712 -0.01456903 0.08002932 -0.04921304 -0.00085091 0.00438340 0.12488645 0.10950465 -0.05903108 0.39185950 -0.00335431 -0.04318493 0.11002723 0.03503039 0.08652576 -0.03388521 -0.00065907 0.02588029 0.02672556 -0.02147075
albondigas -0.49288315 0.49248990 -0.49150378 0.49135292 -0.49775898 -0.49594283 -0.49621007 0.49861869 -0.49807420 -0.48965269 0.49880832 -0.50270873 -0.50173652 -0.50768858 0.50918293 -0.49841473 0.50412655 0.50102514 0.50507730 0.48504239 -0.49731031 0.50085700 -0.49954340 -0.50607491 0.48811930 0.48429742 0.49953851 -0.50107908 0.50184983 0.49305066 -0.50117451 -0.50270188
alert -0.51686734 0.52260977 -0.49981588 0.51439667 -0.51872671 -0.50729674 -0.53110784 0.53789377 -0.50882834 -0.51364559 0.50382483 -0.52560669 -0.50805986 -0.50778538 0.52216792 -0.52973408 0.53209335 0.50374591 0.54154676 0.48966190 -0.51635015 -0.31015730 -0.51217133 -0.51700598 0.51740146 0.52638102 0.50503713 -0.51882720 0.50729835 0.51092106 -0.51204991 -0.52148592
alexander -0.49724102 0.49030817 -0.49700487 0.48936048 -0.49276054 -0.49327543 -0.49134851 0.49625111 -0.49144360 -0.49403763 0.49448311 -0.48777166 -0.49531889 -0.49135581 0.48461375 -0.49976778 0.49522096 0.48923230 0.48768017 0.50105059 -0.49330527 0.55494434 -0.49445623 -0.48699433 0.49426797 0.49389187 0.49519363 -0.49101910 0.49863109 0.49102905 -0.49082839 -0.49744976
alike -0.46959108 0.46469030 -0.47175640 0.46886528 -0.47111180 -0.47490317 -0.46608841 0.46800673 -0.46803129 -0.46811754 0.46750608 -0.47003755 -0.47549981 -0.46686763 0.46727327 -0.47021776 0.46699637 0.47150531 0.48352200 0.47239295 -0.46528885 0.50850368 -0.47505191 -0.46951699 0.46688798 0.47033322 0.47169733 -0.46779639 0.47062567 0.46708220 -0.46511406 -0.46863335
all -0.67907041 0.72009045 -0.69750988 0.68492830 -0.66883153 -0.69156891 -0.68977392 0.70020342 -0.68060237 -0.69818860 0.69962841 -0.67904603 -0.68440753 -0.68459594 0.68241245 -0.68812257 0.68537164 0.69382322 0.68454546 0.69502491 -0.69465470 0.79356295 -0.68352032 -0.68694246 0.69386482 0.72227275 0.68450934 -0.68068773 0.69118577 0.68509507 -0.70393395 -0.69537020
allergy -0.43681735 0.43247211 -0.45339656 0.44694671 -0.44477934 -0.45030886 -0.43434471 0.44279534 -0.43685412 -0.43933052 0.43315852 -0.43998542 -0.44422153 -0.44776487 0.44242528 -0.44691271 0.44206727 0.44622934 0.45675179 0.44540033 -0.44588485 0.48339048 -0.44446614 -0.44339141 0.44577119 0.42767021 0.45401177 -0.43936646 0.43921262 0.44722024 -0.43399382 -0.45095617
allison -0.52102941 0.50733793 -0.51243347 0.52717084 -0.51470655 -0.50764591 -0.51613671 0.51675189 -0.51431656 -0.51264584 0.53008926 -0.51230991 -0.51989478 -0.51388550 0.52383125 -0.50843906 0.51362169 0.51816362 0.50491190 0.52739114 -0.50894487 -0.06991836 -0.50554734 -0.51943851 0.51178718 0.51197827 0.51293153 -0.51937896 0.52066559 0.51884419 -0.51557523 -0.51207024
allot -0.43840551 0.42955005 -0.43733820 0.45116004 -0.44808540 -0.45330319 -0.44516313 0.42680988 -0.44815615 -0.44035757 0.43177053 -0.44928518 -0.44725087 -0.44766006 0.44838893 -0.44345671 0.45014164 0.44714293 0.45218518 0.44783521 -0.43868515 0.48260677 -0.45252606 -0.44447249 0.43600708 0.42076010 0.44868383 -0.44510520 0.45006022 0.44966647 -0.43950966 -0.44685620
allow -0.18494968 0.25090080 -0.23332639 0.25068855 -0.31778184 -0.27955076 -0.32975397 0.28625321 -0.33504167 -0.33252165 0.22611114 -0.23115388 -0.35020158 -0.25607166 0.25801203 -0.29457572 0.24519585 0.26187524 0.31773919 0.16045304 -0.22348818 0.81856346 -0.30817604 -0.32820368 0.23745982 0.38489056 0.26122698 -0.37229380 0.30262393 0.27246267 -0.26357666 -0.23949942
allowing -0.59340209 0.55895281 -0.58581251 0.59565938 -0.59610301 -0.58404535 -0.58165872 0.57156253 -0.60174590 -0.57730174 0.57980192 -0.59074914 -0.60315835 -0.59521115 0.60192078 -0.60235131 0.58484060 0.59045178 0.55937380 0.61098319 -0.58874285 0.56309801 -0.60599685 -0.59279519 0.57979327 0.56382239 0.60126120 -0.59056467 0.59645116 0.58866900 -0.56056339 -0.59617740
allows -0.46950194 0.46908808 -0.46991408 0.48067659 -0.47698185 -0.47859973 -0.47493407 0.48100537 -0.47371969 -0.46197066 0.46522802 -0.47648251 -0.47089982 -0.47465691 0.47878811 -0.47885472 0.47649908 0.47070828 0.47222841 0.47349805 -0.47300187 0.42185318 -0.48138294 -0.47105485 0.47347447 0.47233260 0.47995502 -0.47309098 0.47853297 0.47605109 -0.46692365 -0.47437567
almonds -0.54647136 0.55201459 -0.54135001 0.54925430 -0.54375911 -0.54285789 -0.54622698 0.55178171 -0.55680823 -0.54532504 0.55511540 -0.54832512 -0.54171383 -0.54153603 0.54137045 -0.55589974 0.54013574 0.55275619 0.55824292 0.56023347 -0.53902268 0.58792061 -0.54823011 -0.55725992 0.54958093 0.52975214 0.55461890 -0.55159444 0.55106074 0.55287105 -0.53498709 -0.54776829
almost -0.63735759 0.64484268 -0.61252576 0.57492924 -0.61753219 -0.60047787 -0.54119259 0.59316868 -0.62136620 -0.63228971 0.62905186 -0.60534370 -0.61531240 -0.55308825 0.56643540 -0.57842100 0.60205978 0.66034544 0.65234369 0.51731765 -0.58736622 0.68483722 -0.60010189 -0.58788669 0.57604140 0.69488430 0.58595687 -0.60366750 0.63040346 0.61718166 -0.69144690 -0.53699309
alone -0.58636516 0.60505182 -0.61136419 0.58869910 -0.59912002 -0.61327261 -0.59068704 0.56313902 -0.59934920 -0.59632170 0.59700924 -0.60067272 -0.61589080 -0.59847438 0.59846348 -0.58639544 0.59591120 0.60882008 0.60402489 0.61828953 -0.58955330 0.69718343 -0.59026504 -0.61238617 0.59604824 0.58130628 0.59294391 -0.59313250 0.60191000 0.60315067 -0.59674621 -0.58709973
along -0.66447037 0.70270568 -0.68032151 0.67806649 -0.68101037 -0.67584306 -0.68890327 0.68374097 -0.67463714 -0.68541932 0.67747951 -0.66948897 -0.67496550 -0.66551536 0.66838259 -0.69688833 0.66561460 0.67282861 0.69488680 0.67816991 -0.67174214 0.65138465 -0.68568218 -0.66903406 0.68215078 0.68217331 0.67507625 -0.67422682 0.68784970 0.67331177 -0.68871641 -0.67781436
alongside -0.10478159 0.26962280 -0.13001131 -0.13920224 -0.01968668 -0.11376541 0.14712915 0.20192719 0.09972608 0.13166711 0.37766528 0.06343751 0.09078328 0.10556889 0.12437546 -0.07417706 -0.05440385 -0.01378511 -0.23717396 0.13632183 0.08821419 0.65693313 0.10594340 0.11779041 0.08696963 0.19158939 -0.06840900 0.02275209 -0.14593443 0.06146941 0.05252293 0.08684017
alot -0.50398803 0.49191245 -0.49139047 0.50919914 -0.49453026 -0.51562083 -0.51871896 0.48748800 -0.51407796 -0.49511415 0.52901644 -0.51238418 -0.49161017 -0.50525862 0.49502853 -0.51177537 0.50029242 0.51518101 0.50725412 0.51415360 -0.52198982 0.49964964 -0.50581026 -0.52086401 0.52338320 0.52480894 0.51404840 -0.51231402 0.51301938 0.51382071 -0.51545161 -0.51629257
already -0.55441809 0.53311121 -0.54379147 0.55979151 -0.55430287 -0.54965526 -0.55470818 0.55405265 -0.55647355 -0.55716258 0.55685353 -0.56129342 -0.54995584 -0.55469418 0.55824822 -0.53789830 0.55897260 0.55696207 0.56046343 0.53976625 -0.55984199 -0.43701145 -0.55291069 -0.55939311 0.55828422 0.54972881 0.55788267 -0.55446666 0.55936396 0.55501395 -0.55641884 -0.55911887
also -0.69431484 0.72183144 -0.68354487 0.67625803 -0.68686020 -0.68308794 -0.69118387 0.69942570 -0.67606938 -0.67573315 0.66555268 -0.67342925 -0.66145033 -0.66794026 0.67795885 -0.67987752 0.69331586 0.67562383 0.70014590 0.69400108 -0.68464839 0.82887918 -0.68623388 -0.67826855 0.67956340 0.70563018 0.67573690 -0.67296237 0.68560988 0.67880273 -0.70138413 -0.68511117
although -0.55150270 0.63767999 -0.60440487 0.55017203 -0.59527874 -0.52115744 -0.61137676 0.64201653 -0.57648176 -0.60247672 0.56268275 -0.54843664 -0.50770164 -0.56856757 0.56379944 -0.63333106 0.59568137 0.50947070 0.51862323 0.58348334 -0.59104478 0.40535027 -0.55169272 -0.56517589 0.62998062 0.73245209 0.58193880 -0.53671020 0.55497390 0.57727367 -0.62833130 -0.55588144
aluminum -0.45686540 0.43913299 -0.45294923 0.44980231 -0.45844176 -0.46044886 -0.46770325 0.44464862 -0.45192385 -0.44889760 0.45613739 -0.46204105 -0.45942771 -0.44795027 0.46731856 -0.45952579 0.45716906 0.45549920 0.45242244 0.46350676 -0.45927563 0.39353406 -0.45507464 -0.45568615 0.45335421 0.43061355 0.45521644 -0.45208609 0.46179071 0.46102619 -0.44647390 -0.45750117
always -0.58443344 0.57753074 -0.57772768 0.55533171 -0.52400798 -0.56733131 -0.51942939 0.61013311 -0.54503095 -0.57103735 0.55471545 -0.57788563 -0.54244041 -0.56751728 0.58350265 -0.55065274 0.59522527 0.59258258 0.59321648 0.51475519 -0.57310033 0.29719242 -0.54236364 -0.57671630 0.58416706 0.59300649 0.56897932 -0.55412531 0.56985188 0.56247604 -0.57885325 -0.57974046
am -0.60096681 0.60839087 -0.61582166 0.59958822 -0.59729725 -0.60014546 -0.64089406 0.61663985 -0.58317888 -0.63947117 0.63015062 -0.63320827 -0.62998253 -0.63075405 0.63581812 -0.59375191 0.62956631 0.63914609 0.63835746 0.61164880 -0.61100703 0.51817298 -0.61006629 -0.63468367 0.62851393 0.60561788 0.63946849 -0.63597244 0.62510556 0.59815931 -0.63784164 -0.63754463
amateurish -0.51027536 0.51480174 -0.51129115 0.51953751 -0.51427746 -0.50987452 -0.51824039 0.50771272 -0.51549423 -0.50911820 0.51401860 -0.50882638 -0.50956261 -0.51236945 0.51248342 -0.51401126 0.50629777 0.51455677 0.50392443 0.51705694 -0.51027775 0.53545475 -0.51570582 -0.51035225 0.51076353 0.51563275 0.50417799 -0.51145136 0.51404738 0.51378232 -0.50915706 -0.51402080
amaze -0.47003815 0.45880497 -0.47768906 0.47263041 -0.47035554 -0.47132704 -0.46573684 0.45278621 -0.46963939 -0.46946868 0.46874854 -0.47344908 -0.47588995 -0.47070402 0.47500655 -0.46990868 0.47010130 0.46583876 0.46019670 0.47742158 -0.46785775 0.39649007 -0.47190905 -0.47002387 0.46901980 0.45498693 0.47537541 -0.46829745 0.46748060 0.47581276 -0.46163821 -0.47233123
amazed -0.53421474 0.51589745 -0.52161062 0.53356916 -0.52651167 -0.53370970 -0.54008764 0.53618109 -0.52837741 -0.52043885 0.52748233 -0.54212981 -0.52379924 -0.53097397 0.54741830 -0.52910703 0.52878529 0.53319281 0.54359764 0.51527315 -0.53217328 0.51128137 -0.52939105 -0.53120124 0.53390753 0.52948421 0.51605183 -0.52183521 0.53155380 0.53056431 -0.52487338 -0.52127028
amazing -0.58271968 0.58043796 -0.58644277 0.57319725 -0.58439559 -0.59000516 -0.57435793 0.58985531 -0.57364792 -0.52771866 0.57027513 -0.57950252 -0.57180929 -0.57913363 0.56714702 -0.57980180 0.58121252 0.57847929 0.59151655 0.57974452 -0.56431341 0.62346482 -0.58632255 -0.58439004 0.55923969 0.56896275 0.57088900 -0.57053691 0.57511854 0.56498319 -0.57915360 -0.58228755
amazingly -0.53266221 0.51378626 -0.53120041 0.50567722 -0.53828508 -0.53360480 -0.48642886 0.52237225 -0.52813220 -0.51971692 0.50401187 -0.52304298 -0.51721603 -0.52373612 0.53108108 -0.52388549 0.52537990 0.51927936 0.55616403 0.51602000 -0.51376653 0.59969831 -0.53422582 -0.52835053 0.50434726 0.49183160 0.52563822 -0.51655447 0.52189225 0.52726835 -0.52345914 -0.51978368
amazon -0.46549532 0.45752516 -0.47655812 0.46753436 -0.46506342 -0.46358421 -0.46311513 0.45852831 -0.43958548 -0.46951416 0.45797694 -0.46352383 -0.46777049 -0.46867752 0.46169710 -0.46839380 0.46333587 0.46281219 0.45917186 0.46822706 -0.47884703 0.51131690 -0.46784624 -0.46183234 0.46879601 0.46288419 0.46703565 -0.46875548 0.46545777 0.46484897 -0.46892199 -0.46535286
ambiance -0.36083475 0.31071860 -0.36219880 0.34044161 -0.35019246 -0.34654146 -0.35296202 0.36101404 -0.35666031 -0.31012467 0.34968653 -0.34965292 -0.35816672 -0.34566888 0.31507474 -0.34936965 0.36434779 0.35120085 0.35576528 0.36925280 -0.34956488 0.44114017 -0.37098807 -0.34846494 0.32080123 0.33334294 0.36110088 -0.31512681 0.36297375 0.35945514 -0.33827260 -0.35202274
ambience -0.44515499 0.45165902 -0.45680767 0.45566800 -0.45958135 -0.46582854 -0.46177709 0.46346226 -0.45314646 -0.44833404 0.44102779 -0.46705577 -0.46729645 -0.46507773 0.46504989 -0.46217701 0.45856443 0.45562890 0.45498553 0.46989879 -0.45666856 0.49054781 -0.45950741 -0.46384659 0.45490351 0.45081413 0.45364767 -0.45767015 0.45798758 0.45191240 -0.46306512 -0.46995533
america -0.44640458 0.46940005 -0.44151768 0.44218075 -0.43496501 -0.47309208 -0.44262493 0.40271485 -0.42333755 -0.43256718 0.41055325 -0.41633046 -0.40529412 -0.46213794 0.45100951 -0.45968264 0.38982016 0.44262147 0.46190754 0.43330184 -0.42930233 0.58200711 -0.43173340 -0.43843174 0.45550898 0.42150527 0.43421876 -0.42168868 0.45199355 0.42688248 -0.46389610 -0.45717371
american -0.56421018 0.58912963 -0.57607627 0.55912584 -0.57191604 -0.57363611 -0.56089205 0.55432689 -0.56843668 -0.58042347 0.56582677 -0.56658590 -0.56400335 -0.56740284 0.56935322 -0.57815588 0.56110406 0.56540096 0.54347491 0.56533921 -0.56797898 0.60656726 -0.56988734 -0.56745762 0.56942797 0.57445228 0.55888486 -0.56428134 0.56640732 0.57252824 -0.57694632 -0.56896657
americans -0.07632916 0.15810540 -0.01213809 0.06546906 -0.01051014 0.01534533 0.07426205 0.00589152 0.01773010 -0.19425011 0.05170654 -0.09724388 -0.09326304 -0.09920382 0.05567176 -0.08384761 0.06139352 0.12759708 0.18418109 -0.07071821 -0.12281785 -0.24287085 -0.09005302 -0.06482932 0.06537697 0.05654268 0.11324657 -0.08551791 0.04731201 -0.00234551 -0.11908384 -0.08029291
among -0.57273781 0.64150196 -0.56245768 0.59544504 -0.59089512 -0.61950320 -0.59007841 0.59195679 -0.53341228 -0.54770708 0.62333095 -0.60066503 -0.57398462 -0.59404868 0.56151158 -0.57836616 0.61065835 0.62885368 0.62738031 0.49587879 -0.59897190 0.53805792 -0.57179546 -0.61668050 0.59133184 0.64474440 0.58111554 -0.58639568 0.60947329 0.59476411 -0.62744600 -0.59710717
amount -0.70548284 0.69752502 -0.67560953 0.70326835 -0.69301522 -0.70933110 -0.71449047 0.70806420 -0.71043420 -0.68936062 0.70953023 -0.69720340 -0.69474345 -0.68871748 0.70785308 -0.71006846 0.66097766 0.70415735 0.64024627 0.69220579 -0.70398480 0.71492130 -0.68586075 -0.70126104 0.71246839 0.70752639 0.70674706 -0.70562875 0.69696355 0.69347322 -0.68309432 -0.70693386
amp -0.57006830 0.56557536 -0.55424124 0.54921597 -0.56165022 -0.52427566 -0.49950656 0.56015974 -0.54505146 -0.56619906 0.55266887 -0.55730861 -0.53988212 -0.54243207 0.53875834 -0.56604880 0.56214052 0.56043816 0.56748700 0.50136840 -0.55180424 -0.62185460 -0.55102849 -0.55856436 0.55385000 0.55308008 0.54703873 -0.54554987 0.54867911 0.55230820 -0.55972624 -0.54907441
ample -0.42720336 0.41180584 -0.41752306 0.38736755 -0.33536443 -0.39898142 -0.39618936 0.41115966 -0.36247990 -0.42675203 0.36198574 -0.35980105 -0.47898683 -0.40716591 0.38065293 -0.27127829 0.37532851 0.37812161 0.49807608 0.40117130 -0.35916725 0.63167173 -0.39419734 -0.39473012 0.33965287 0.32505935 0.47476476 -0.43471846 0.41321766 0.38139799 -0.33660385 -0.36455950
amusing -0.43196949 0.41401026 -0.43191954 0.43707976 -0.43099752 -0.43142965 -0.43334693 0.42494673 -0.43483457 -0.42503151 0.42980245 -0.43219921 -0.43724108 -0.43200141 0.43421292 -0.43311727 0.43035945 0.43450522 0.43386596 0.43754870 -0.42874706 0.46456787 -0.43216348 -0.43448478 0.43023416 0.41603956 0.43606251 -0.43408999 0.42907500 0.43212038 -0.42440671 -0.43232694
an -0.47215712 0.56027961 -0.44270751 0.30791631 -0.21782643 -0.31342277 -0.41645515 0.47465175 -0.26755947 -0.48232388 0.39574045 -0.25414240 -0.23485862 -0.33891660 0.30721888 -0.37754816 0.23960911 0.35962254 0.53466541 0.32716459 -0.32233897 0.90042466 -0.28461185 -0.31686819 0.32684964 0.57412273 0.24930941 -0.26284087 0.38517672 0.19973049 -0.46471089 -0.32917398
analysis -0.44649109 0.44351062 -0.44656929 0.45154828 -0.45138299 -0.44984624 -0.44629785 0.43428811 -0.42328548 -0.43567547 0.44364113 -0.44922146 -0.44671807 -0.44516876 0.44855371 -0.41876686 0.45494065 0.44111511 0.45943099 0.45176584 -0.44077253 0.45407617 -0.42569682 -0.44524264 0.44318235 0.41352561 0.45042151 -0.44342205 0.45150360 0.44830647 -0.44613305 -0.44697589
anatomist 0.04492491 -0.05940421 0.06192837 -0.10972644 0.09097338 0.09121864 0.08692399 -0.13506112 0.09965318 0.12717736 -0.14099440 0.03582794 0.00365259 0.14326972 -0.14486437 -0.05965031 -0.08617672 -0.08248059 -0.23839141 0.01761561 -0.03599593 0.07388289 0.03435750 0.11591294 -0.04532185 -0.09873855 -0.08192011 0.16177903 -0.08360144 -0.03737914 0.07878017 0.08488122
and -0.46401498 0.64431572 -0.40245569 0.43081340 -0.42127571 -0.45078340 -0.52245843 0.47379643 -0.45946524 -0.44748202 0.47980222 -0.36686400 -0.34288362 -0.43640205 0.34897390 -0.43090907 0.46497867 0.42143849 0.19230917 0.39120066 -0.48076823 -0.34530565 -0.39338300 -0.46260047 0.49984476 0.59895170 0.35600039 -0.42995122 0.49393716 0.45776621 -0.59375781 -0.45434147
andddd 0.05802953 0.07521725 -0.17810945 -0.00488141 -0.01869700 -0.10994805 -0.12494385 0.07864422 -0.10185963 -0.04176397 -0.04972076 -0.02536002 0.10157987 -0.08679660 0.09120296 -0.08955479 -0.05993716 -0.06619728 0.10419260 0.15272143 0.07579394 0.02202641 0.01164907 0.03901411 0.02389909 0.06321195 -0.07894794 0.08100037 -0.03724480 -0.05468444 -0.06709462 0.03683133
angel -0.48487139 0.51271385 -0.47872677 0.47628006 -0.47813371 -0.49132261 -0.47775853 0.46845692 -0.47232643 -0.48387614 0.49002925 -0.48370650 -0.49032009 -0.47804758 0.48669344 -0.47968936 0.47304735 0.48813632 0.49006701 0.47830057 -0.46939474 0.45563197 -0.48824483 -0.49267992 0.47931698 0.47372520 0.48037824 -0.48883754 0.49391708 0.48244825 -0.50685215 -0.49234617
angela -0.19551897 -0.09830856 -0.03137417 -0.01268490 -0.05829903 0.12209933 0.08214275 0.06505945 -0.16839385 -0.26988381 0.13488460 -0.02260478 0.14002436 -0.01685002 -0.06363004 0.13627329 -0.20553361 -0.13137203 0.21580072 -0.06288006 -0.09242842 0.48675624 -0.00991293 0.15018623 -0.09946767 -0.15434194 0.07378027 0.07538210 0.02223146 -0.02058314 0.24721964 -0.03169024
angeles -0.69545233 0.76786804 -0.68253523 0.69721192 -0.69029528 -0.69240713 -0.69876575 0.62934643 -0.71095449 -0.71824163 0.70362955 -0.67206383 -0.67800891 -0.68237412 0.67687702 -0.67374277 0.62560779 0.68208724 0.55739182 0.67406613 -0.66077036 0.70631945 -0.69326973 -0.70936769 0.67633969 0.73924178 0.64815354 -0.70331568 0.63311899 0.70407116 -0.73666543 -0.67686224
angelina -0.56293035 0.54032856 -0.56053853 0.51568824 -0.50893050 -0.54396892 -0.55238134 0.54976338 -0.51706570 -0.51070166 0.52797168 -0.53226328 -0.54007912 -0.53299862 0.53724533 -0.52371621 0.54606086 0.53839046 0.58405846 0.56229019 -0.50691473 0.60238057 -0.52791935 -0.54313248 0.51325279 0.50791281 0.55713844 -0.54458135 0.52639335 0.50767243 -0.55021220 -0.54555207
angle -0.40702024 0.46549970 -0.31588182 0.38182837 -0.40881756 -0.46203235 -0.47378939 0.51746303 -0.43421522 -0.33402213 0.45090210 -0.34462863 -0.28661525 -0.46980286 0.26410565 -0.35252264 0.44006652 0.46526837 0.40471253 0.33342063 -0.41341361 0.54168063 -0.29920870 -0.47556078 0.43736911 0.48444802 0.40742865 -0.41051853 0.45979598 0.42605576 -0.35853571 -0.36696196
angles -0.51754189 0.50290269 -0.51220256 0.51367968 -0.51717001 -0.51507062 -0.50506747 0.51113820 -0.51678234 -0.50313920 0.50926006 -0.50975776 -0.51684511 -0.51294935 0.50997633 -0.51120377 0.51561946 0.51008189 0.51454288 0.51799715 -0.50767779 0.54743373 -0.51911771 -0.51449871 0.50895369 0.50777221 0.51540762 -0.51265901 0.50673127 0.51847798 -0.50524873 -0.51431394
angry -0.56469291 0.54702097 -0.57223171 0.57808673 -0.57438862 -0.57932752 -0.57708192 0.56513256 -0.57842284 -0.55613589 0.57677376 -0.58810890 -0.58110172 -0.57651132 0.58239406 -0.57783139 0.58605671 0.58229589 0.57356787 0.58100015 -0.56894696 0.38310322 -0.58173913 -0.58467442 0.57700193 0.54634309 0.59495592 -0.57944709 0.58732677 0.57767200 -0.56493783 -0.58319086
anguish -0.50142658 0.49439189 -0.49925476 0.49484554 -0.49979442 -0.49943069 -0.49567401 0.49954391 -0.49537653 -0.49503142 0.49501935 -0.49782240 -0.49830234 -0.49324945 0.49569008 -0.50207382 0.49344608 0.49837437 0.47685510 0.49221122 -0.49377596 0.39972210 -0.49825749 -0.49838847 0.49840319 0.49493143 0.49900955 -0.49466446 0.49464193 0.49762926 -0.49044806 -0.49748379
angus -0.48970929 0.47758934 -0.49590948 0.49884096 -0.49631557 -0.49646798 -0.48461270 0.49239209 -0.49765450 -0.48973435 0.49443689 -0.49750337 -0.50137037 -0.49495509 0.49707973 -0.49490008 0.49745217 0.49630013 0.49407238 0.49981195 -0.49574313 0.52269220 -0.49640766 -0.49560568 0.49318457 0.48123237 0.49720815 -0.49325046 0.49239165 0.49559912 -0.48557165 -0.49892423
animals -0.42640451 0.42135164 -0.42936322 0.43449289 -0.43132848 -0.43253875 -0.43344277 0.42598081 -0.42960197 -0.42069834 0.42575312 -0.43359315 -0.43331707 -0.43158180 0.43862200 -0.43368003 0.42653656 0.42611876 0.40421119 0.43853030 -0.42883983 0.44385991 -0.43789345 -0.42906061 0.42781648 0.40999332 0.43266168 -0.42805526 0.43074256 0.43187422 -0.42990893 -0.43395987
animated 0.07250945 0.08590041 0.02992145 -0.04284708 0.01970307 -0.03927823 -0.18127011 -0.02192380 0.04912156 0.04135748 -0.08735242 0.02633593 0.07662793 0.05154579 0.07571727 -0.03679074 -0.08373868 -0.07983770 -0.17851117 0.03217223 0.05265641 0.34419036 0.06870764 -0.03282385 -0.00788946 0.01583162 -0.04899021 0.08734084 -0.01876738 -0.00490965 0.03527116 0.02456192
animation -0.50035751 0.55755866 -0.41249600 0.43453780 -0.39252836 -0.40957987 -0.36016721 0.38856521 -0.42233390 -0.44319651 0.43962801 -0.41750276 -0.35956332 -0.40214530 0.36176297 -0.37059540 0.41499388 0.46344104 0.47449511 0.41167644 -0.46633738 -0.69920802 -0.40085819 -0.49218789 0.44664231 0.50263488 0.43334171 -0.44539791 0.42746240 0.42864758 -0.50065541 -0.41412860
anita -0.56349915 0.57178491 -0.58083010 0.58730471 -0.57453614 -0.58443314 -0.59295613 0.57880527 -0.58452272 -0.56878656 0.58594394 -0.57621437 -0.57909495 -0.57595640 0.56182665 -0.59405559 0.59296370 0.57525963 0.50519198 0.59769440 -0.57768220 0.52290267 -0.58723420 -0.57862663 0.58636010 0.57981944 0.58367401 -0.58039230 0.59227663 0.58805591 -0.57519245 -0.58059561
ann 0.06403037 -0.01177953 0.01698024 -0.07535945 0.07415045 0.01216482 0.09147587 0.00482634 0.15565865 0.16573666 -0.08014715 0.04550156 0.10225057 0.07070298 0.01973705 0.02207315 -0.07505503 -0.10810757 -0.08538654 -0.05804713 0.09304354 0.50320119 0.05303850 0.09848168 -0.05122672 -0.15855375 -0.01514092 0.09628281 -0.07619051 -0.05748871 0.16504307 0.07996906
anne -0.43752888 0.50563097 -0.44576696 0.43065563 -0.47237185 -0.49813128 -0.37353718 0.40503484 -0.39217275 -0.38737124 0.40253434 -0.44099566 -0.41609761 -0.40573215 0.38352552 -0.47336203 0.42030481 0.44758093 0.31502053 0.44438863 -0.45637882 -0.05743415 -0.44532558 -0.44876203 0.45847756 0.50858128 0.40298259 -0.41816780 0.49224123 0.44216415 -0.47194231 -0.41933873
anniversary -0.47236043 0.45747817 -0.47564068 0.48227486 -0.47918904 -0.48163915 -0.47127637 0.47338176 -0.47778121 -0.46297252 0.47247916 -0.47996876 -0.47198775 -0.47539699 0.47941011 -0.47987166 0.47395521 0.47479859 0.43401384 0.48624489 -0.47526693 0.42242968 -0.48298344 -0.47310349 0.47146863 0.45384714 0.47815672 -0.47329459 0.47636601 0.48324031 -0.46303302 -0.47865054
annoying -0.47812173 0.54490298 -0.47364897 0.47661260 -0.49506795 -0.49675974 -0.50014818 0.46614942 -0.48881221 -0.52413273 0.50081068 -0.48189843 -0.47578648 -0.48906738 0.48862380 -0.47431773 0.46854660 0.49926564 0.42384130 0.50507164 -0.50258929 0.61399823 -0.50306326 -0.49453050 0.52366376 0.57975566 0.45882168 -0.47986931 0.48917052 0.47888532 -0.52046430 -0.49848798
another -0.52372378 0.75552630 -0.29874438 0.59013957 -0.33969423 -0.21426864 -0.45390934 0.60302818 -0.65838891 -0.46566716 0.60807753 -0.26947355 -0.29652232 -0.54417676 0.53790605 -0.52012622 0.48070732 0.60737252 0.45776847 0.44549963 -0.46599436 0.64716119 -0.23208645 -0.58226746 0.54078132 0.71095800 0.48320863 -0.59374619 0.37523705 0.54803437 -0.39128774 -0.42146319
answer -0.43308452 0.41385660 -0.44817701 0.43878055 -0.43267274 -0.43783721 -0.42968670 0.42292842 -0.44062036 -0.42921612 0.42960450 -0.43743193 -0.44895089 -0.44027266 0.43201712 -0.43559936 0.43668991 0.43105105 0.45546544 0.45040345 -0.43193957 0.51411027 -0.44363156 -0.44520837 0.43204412 0.40927672 0.45201096 -0.43883029 0.42890492 0.43746564 -0.42801875 -0.43369025
ant -0.44612542 0.43568537 -0.45015228 0.44747552 -0.44827488 -0.45168275 -0.43855587 0.44587669 -0.44639519 -0.44411838 0.44338426 -0.45035988 -0.45372376 -0.44875672 0.45033339 -0.45022991 0.44987696 0.44776925 0.45925134 0.44883341 -0.44610402 0.48841962 -0.45028552 -0.45110980 0.44704762 0.44733179 0.45272180 -0.44910356 0.44930112 0.44713530 -0.44470087 -0.44971514
antena -0.43062091 0.41965565 -0.43609750 0.43999219 -0.42983782 -0.43460920 -0.43196049 0.42778757 -0.43175107 -0.42259306 0.43232390 -0.43176755 -0.43512815 -0.43412712 0.43699506 -0.42981070 0.43376172 0.43251103 0.42584831 0.44127253 -0.43029001 0.46051452 -0.43386257 -0.43500140 0.42778406 0.41936404 0.43694094 -0.43245983 0.42760465 0.43256330 -0.42591229 -0.43362176
anthony -0.09473638 0.05590175 0.04668866 0.15226477 -0.22148593 -0.10943732 0.07030743 -0.00103733 0.10195281 0.18320225 -0.06952772 -0.08896265 -0.10140764 0.10075548 -0.04446346 -0.11634111 0.03932920 -0.08409451 -0.11394855 0.13974433 -0.12750670 -0.36588061 -0.04380658 0.00851806 -0.03425774 -0.00152994 0.02913012 0.13145807 0.12214679 0.16559294 -0.05213655 -0.05807439
anti -0.04136848 0.18346518 0.09149437 0.02021405 -0.19523440 -0.34844682 0.05759178 -0.00406100 -0.33598816 0.02185645 0.14884330 0.01809298 0.18906732 -0.26028275 0.13305691 -0.37157509 -0.07014041 -0.04111075 -0.29485071 0.19937699 -0.05758349 0.65152866 -0.10134283 -0.19734389 0.31397012 0.04166313 0.11062477 -0.05837031 0.21184458 0.19119218 -0.15679292 -0.15319821
anticipated -0.43225148 0.42028880 -0.43928835 0.44081360 -0.42822620 -0.44091383 -0.43750569 0.42752630 -0.43929204 -0.42816630 0.42970064 -0.44216079 -0.44317290 -0.44219440 0.44225106 -0.43699601 0.45283467 0.44266239 0.43761298 0.44725156 -0.43243876 0.48317468 -0.44454634 -0.43242034 0.43269065 0.42265216 0.44530794 -0.44346699 0.44219279 0.43927783 -0.42945391 -0.44264293
antithesis -0.42335975 0.39517134 -0.42102963 0.43113470 -0.43499190 -0.42519644 -0.42228445 0.43174899 -0.42807654 -0.41479897 0.42830545 -0.42794609 -0.43353081 -0.42339438 0.43448716 -0.42536402 0.43090892 0.42464164 0.42908195 0.43114546 -0.42439145 0.43112025 -0.42432877 -0.42617697 0.42203492 0.41413000 0.43097436 -0.42351159 0.42962143 0.43237510 -0.40740812 -0.42699930
any -0.72444320 0.76347262 -0.73359048 0.70537114 -0.72274441 -0.73017508 -0.68757439 0.70153362 -0.73406154 -0.78153366 0.71584868 -0.67698234 -0.68639499 -0.71910805 0.69501823 -0.67582566 0.69872707 0.75565380 0.73469454 0.58307761 -0.68244994 0.51288766 -0.68749499 -0.70760506 0.73788708 0.81819981 0.67810887 -0.70113331 0.70637304 0.68640804 -0.75125766 -0.69869089
anymore -0.46336845 0.45580477 -0.45933831 0.45381516 -0.45990792 -0.45988718 -0.45362329 0.45797268 -0.45490405 -0.45953983 0.45313904 -0.44895673 -0.46047240 -0.46458182 0.46014547 -0.44744581 0.46724898 0.46525112 0.45972455 0.45302710 -0.46097901 0.48724470 -0.44641206 -0.45695457 0.46142381 0.45446599 0.45957652 -0.46170893 0.45701286 0.46084914 -0.45195931 -0.45570320
anyone -0.71784937 0.70676947 -0.71607471 0.70824528 -0.71482247 -0.70360619 -0.68971491 0.70022464 -0.71172768 -0.70568985 0.71708608 -0.70012027 -0.71550000 -0.71013886 0.71105480 -0.70377064 0.70660537 0.71489215 0.71835667 0.69867074 -0.70623851 0.52561140 -0.71844900 -0.71327507 0.71225888 0.71577591 0.70880419 -0.71417558 0.70548022 0.70837283 -0.70733756 -0.70437968
anything -0.58431470 0.55838722 -0.55601704 0.50514829 -0.53847349 -0.50809288 -0.51756197 0.52580357 -0.51096332 -0.57768559 0.51039320 -0.54519689 -0.54828614 -0.51566172 0.53776944 -0.46732065 0.48817560 0.55824220 0.57904726 0.37549868 -0.50562310 0.14447542 -0.51546240 -0.55989158 0.54091471 0.56400126 0.48893663 -0.53858578 0.48227820 0.48019710 -0.57463712 -0.51829493
anytime -0.54366785 0.54732066 -0.54093283 0.55236793 -0.53007585 -0.54231042 -0.55503714 0.52421319 -0.54897439 -0.54435587 0.56067586 -0.55555338 -0.55920011 -0.55902392 0.53867370 -0.52855641 0.54892969 0.56397009 0.51406914 0.53984660 -0.54482251 0.54327649 -0.54672545 -0.53135127 0.55501997 0.55925328 0.53986251 -0.55862397 0.55339825 0.54601687 -0.54588896 -0.53167093
anyway -0.60671037 0.58477706 -0.62263823 0.61719680 -0.62146676 -0.63373739 -0.60354418 0.59801769 -0.61521381 -0.60388613 0.60235244 -0.61686850 -0.62341392 -0.61933446 0.61724657 -0.62213367 0.62122488 0.60959888 0.61033028 0.64733952 -0.61386913 0.73855406 -0.63271064 -0.62295282 0.61545712 0.58170879 0.62303728 -0.61692089 0.62007517 0.62806016 -0.60248840 -0.61192924
